digraph Tree {
node [shape=box] ;
0 [label="X[943] <= 0.5\ngini = 0.4983\nsamples = 82\nvalue = [72, 64]"] ;
1 [label="X[940] <= 0.5\ngini = 0.4966\nsamples = 81\nvalue = [72, 61]"] ;
0 -> 1 [labeldistance=2.5, labelangle=45, headlabel="True"] ;
2 [label="X[1106] <= 0.5\ngini = 0.4992\nsamples = 79\nvalue = [66, 61]"] ;
1 -> 2 ;
3 [label="X[536] <= 0.5\ngini = 0.4999\nsamples = 77\nvalue = [63, 61]"] ;
2 -> 3 ;
4 [label="X[103] <= 0.5\ngini = 0.5\nsamples = 75\nvalue = [61, 61]"] ;
3 -> 4 ;
5 [label="X[42] <= 0.5\ngini = 0.4997\nsamples = 73\nvalue = [61, 58]"] ;
4 -> 5 ;
6 [label="X[1033] <= 0.5\ngini = 0.4994\nsamples = 72\nvalue = [61, 57]"] ;
5 -> 6 ;
7 [label="X[962] <= 0.5\ngini = 0.5\nsamples = 71\nvalue = [57, 57]"] ;
6 -> 7 ;
8 [label="X[992] <= 0.5\ngini = 0.4998\nsamples = 70\nvalue = [57, 55]"] ;
7 -> 8 ;
9 [label="X[64] <= 0.5\ngini = 0.4996\nsamples = 69\nvalue = [57, 54]"] ;
8 -> 9 ;
10 [label="X[723] <= 0.5\ngini = 0.4985\nsamples = 68\nvalue = [57, 51]"] ;
9 -> 10 ;
11 [label="X[795] <= 0.5\ngini = 0.4943\nsamples = 66\nvalue = [57, 46]"] ;
10 -> 11 ;
12 [label="X[949] <= 0.5\ngini = 0.496\nsamples = 65\nvalue = [55, 46]"] ;
11 -> 12 ;
13 [label="X[581] <= 0.5\ngini = 0.4975\nsamples = 64\nvalue = [53, 46]"] ;
12 -> 13 ;
14 [label="X[209] <= 0.5\ngini = 0.4957\nsamples = 62\nvalue = [53, 44]"] ;
13 -> 14 ;
15 [label="X[235] <= 0.5\ngini = 0.4965\nsamples = 61\nvalue = [52, 44]"] ;
14 -> 15 ;
16 [label="X[1052] <= 0.5\ngini = 0.4973\nsamples = 60\nvalue = [51, 44]"] ;
15 -> 16 ;
17 [label="X[1023] <= 0.5\ngini = 0.4986\nsamples = 59\nvalue = [49, 44]"] ;
16 -> 17 ;
18 [label="X[600] <= 0.5\ngini = 0.496\nsamples = 58\nvalue = [49, 41]"] ;
17 -> 18 ;
19 [label="X[206] <= 0.5\ngini = 0.4935\nsamples = 57\nvalue = [49, 39]"] ;
18 -> 19 ;
20 [label="X[556] <= 0.5\ngini = 0.4957\nsamples = 56\nvalue = [47, 39]"] ;
19 -> 20 ;
21 [label="X[716] <= 0.5\ngini = 0.4929\nsamples = 55\nvalue = [47, 37]"] ;
20 -> 21 ;
22 [label="X[641] <= 0.5\ngini = 0.4941\nsamples = 54\nvalue = [46, 37]"] ;
21 -> 22 ;
23 [label="X[938] <= 0.5\ngini = 0.4908\nsamples = 53\nvalue = [46, 35]"] ;
22 -> 23 ;
24 [label="X[1091] <= 0.5\ngini = 0.4969\nsamples = 50\nvalue = [41, 35]"] ;
23 -> 24 ;
25 [label="X[612] <= 0.5\ngini = 0.4996\nsamples = 48\nvalue = [37, 35]"] ;
24 -> 25 ;
26 [label="X[56] <= 0.5\ngini = 0.4991\nsamples = 47\nvalue = [37, 34]"] ;
25 -> 26 ;
27 [label="X[937] <= 0.5\ngini = 0.5\nsamples = 46\nvalue = [34, 34]"] ;
26 -> 27 ;
28 [label="X[797] <= 0.5\ngini = 0.4999\nsamples = 45\nvalue = [34, 33]"] ;
27 -> 28 ;
29 [label="X[825] <= 0.5\ngini = 0.4995\nsamples = 44\nvalue = [34, 32]"] ;
28 -> 29 ;
30 [label="X[518] <= 0.5\ngini = 0.4969\nsamples = 43\nvalue = [34, 29]"] ;
29 -> 30 ;
31 [label="X[58] <= 0.5\ngini = 0.4994\nsamples = 42\nvalue = [31, 29]"] ;
30 -> 31 ;
32 [label="X[520] <= 0.5\ngini = 0.4962\nsamples = 41\nvalue = [31, 26]"] ;
31 -> 32 ;
33 [label="X[63] <= 0.5\ngini = 0.4985\nsamples = 40\nvalue = [29, 26]"] ;
32 -> 33 ;
34 [label="X[444] <= 0.5\ngini = 0.4993\nsamples = 39\nvalue = [28, 26]"] ;
33 -> 34 ;
35 [label="X[861] <= 0.5\ngini = 0.4981\nsamples = 38\nvalue = [23, 26]"] ;
34 -> 35 ;
36 [label="X[846] <= 0.5\ngini = 0.4998\nsamples = 37\nvalue = [23, 24]"] ;
35 -> 36 ;
37 [label="X[366] <= 0.5\ngini = 0.4991\nsamples = 36\nvalue = [22, 24]"] ;
36 -> 37 ;
38 [label="X[8] <= 0.5\ngini = 0.4978\nsamples = 35\nvalue = [21, 24]"] ;
37 -> 38 ;
39 [label="X[81] <= 0.5\ngini = 0.4959\nsamples = 34\nvalue = [20, 24]"] ;
38 -> 39 ;
40 [label="X[106] <= 0.5\ngini = 0.4976\nsamples = 33\nvalue = [20, 23]"] ;
39 -> 40 ;
41 [label="X[1080] <= 0.5\ngini = 0.4997\nsamples = 32\nvalue = [20, 21]"] ;
40 -> 41 ;
42 [label="X[453] <= 0.5\ngini = 0.4988\nsamples = 31\nvalue = [19, 21]"] ;
41 -> 42 ;
43 [label="X[406] <= 0.5\ngini = 0.4997\nsamples = 30\nvalue = [19, 20]"] ;
42 -> 43 ;
44 [label="X[685] <= 0.5\ngini = 0.4967\nsamples = 29\nvalue = [17, 20]"] ;
43 -> 44 ;
45 [label="X[317] <= 0.5\ngini = 0.4996\nsamples = 28\nvalue = [17, 18]"] ;
44 -> 45 ;
46 [label="X[1006] <= 0.5\ngini = 0.48\nsamples = 25\nvalue = [12, 18]"] ;
45 -> 46 ;
47 [label="X[704] <= 0.5\ngini = 0.4851\nsamples = 24\nvalue = [12, 17]"] ;
46 -> 47 ;
48 [label="X[377] <= 0.5\ngini = 0.477\nsamples = 23\nvalue = [11, 17]"] ;
47 -> 48 ;
49 [label="X[52] <= 0.5\ngini = 0.4527\nsamples = 22\nvalue = [9, 17]"] ;
48 -> 49 ;
50 [label="X[593] <= 0.5\ngini = 0.4132\nsamples = 21\nvalue = [7, 17]"] ;
49 -> 50 ;
51 [label="X[960] <= 0.5\ngini = 0.4234\nsamples = 20\nvalue = [7, 16]"] ;
50 -> 51 ;
52 [label="X[773] <= 0.5\ngini = 0.4339\nsamples = 19\nvalue = [7, 15]"] ;
51 -> 52 ;
53 [label="X[1123] <= 0.5\ngini = 0.4444\nsamples = 18\nvalue = [7, 14]"] ;
52 -> 53 ;
54 [label="X[1005] <= 0.5\ngini = 0.42\nsamples = 17\nvalue = [6, 14]"] ;
53 -> 54 ;
55 [label="X[500] <= 0.5\ngini = 0.4321\nsamples = 16\nvalue = [6, 13]"] ;
54 -> 55 ;
56 [label="X[440] <= 0.5\ngini = 0.4444\nsamples = 15\nvalue = [6, 12]"] ;
55 -> 56 ;
57 [label="X[130] <= 0.5\ngini = 0.4567\nsamples = 14\nvalue = [6, 11]"] ;
56 -> 57 ;
58 [label="X[876] <= 0.5\ngini = 0.4688\nsamples = 13\nvalue = [6, 10]"] ;
57 -> 58 ;
59 [label="X[1092] <= 0.5\ngini = 0.48\nsamples = 12\nvalue = [6, 9]"] ;
58 -> 59 ;
60 [label="X[840] <= 0.5\ngini = 0.4592\nsamples = 11\nvalue = [5, 9]"] ;
59 -> 60 ;
61 [label="X[682] <= 0.5\ngini = 0.4734\nsamples = 10\nvalue = [5, 8]"] ;
60 -> 61 ;
62 [label="X[392] <= 0.5\ngini = 0.3967\nsamples = 9\nvalue = [3, 8]"] ;
61 -> 62 ;
63 [label="X[833] <= 0.5\ngini = 0.32\nsamples = 8\nvalue = [2, 8]"] ;
62 -> 63 ;
64 [label="X[292] <= 0.5\ngini = 0.3457\nsamples = 7\nvalue = [2, 7]"] ;
63 -> 64 ;
65 [label="X[258] <= 0.5\ngini = 0.375\nsamples = 6\nvalue = [2, 6]"] ;
64 -> 65 ;
66 [label="X[837] <= 0.5\ngini = 0.2449\nsamples = 5\nvalue = [1, 6]"] ;
65 -> 66 ;
67 [label="X[605] <= 0.5\ngini = 0.2778\nsamples = 4\nvalue = [1, 5]"] ;
66 -> 67 ;
68 [label="X[171] <= 0.5\ngini = 0.32\nsamples = 3\nvalue = [1, 4]"] ;
67 -> 68 ;
69 [label="X[506] <= 0.5\ngini = 0.4444\nsamples = 2\nvalue = [1, 2]"] ;
68 -> 69 ;
70 [label="gini = 0.0\nsamples = 1\nvalue = [1, 0]"] ;
69 -> 70 ;
71 [label="gini = 0.0\nsamples = 1\nvalue = [0, 2]"] ;
69 -> 71 ;
72 [label="gini = 0.0\nsamples = 1\nvalue = [0, 2]"] ;
68 -> 72 ;
73 [label="gini = 0.0\nsamples = 1\nvalue = [0, 1]"] ;
67 -> 73 ;
74 [label="gini = 0.0\nsamples = 1\nvalue = [0, 1]"] ;
66 -> 74 ;
75 [label="gini = 0.0\nsamples = 1\nvalue = [1, 0]"] ;
65 -> 75 ;
76 [label="gini = 0.0\nsamples = 1\nvalue = [0, 1]"] ;
64 -> 76 ;
77 [label="gini = 0.0\nsamples = 1\nvalue = [0, 1]"] ;
63 -> 77 ;
78 [label="gini = 0.0\nsamples = 1\nvalue = [1, 0]"] ;
62 -> 78 ;
79 [label="gini = 0.0\nsamples = 1\nvalue = [2, 0]"] ;
61 -> 79 ;
80 [label="gini = 0.0\nsamples = 1\nvalue = [0, 1]"] ;
60 -> 80 ;
81 [label="gini = 0.0\nsamples = 1\nvalue = [1, 0]"] ;
59 -> 81 ;
82 [label="gini = 0.0\nsamples = 1\nvalue = [0, 1]"] ;
58 -> 82 ;
83 [label="gini = 0.0\nsamples = 1\nvalue = [0, 1]"] ;
57 -> 83 ;
84 [label="gini = 0.0\nsamples = 1\nvalue = [0, 1]"] ;
56 -> 84 ;
85 [label="gini = 0.0\nsamples = 1\nvalue = [0, 1]"] ;
55 -> 85 ;
86 [label="gini = 0.0\nsamples = 1\nvalue = [0, 1]"] ;
54 -> 86 ;
87 [label="gini = 0.0\nsamples = 1\nvalue = [1, 0]"] ;
53 -> 87 ;
88 [label="gini = 0.0\nsamples = 1\nvalue = [0, 1]"] ;
52 -> 88 ;
89 [label="gini = 0.0\nsamples = 1\nvalue = [0, 1]"] ;
51 -> 89 ;
90 [label="gini = 0.0\nsamples = 1\nvalue = [0, 1]"] ;
50 -> 90 ;
91 [label="gini = 0.0\nsamples = 1\nvalue = [2, 0]"] ;
49 -> 91 ;
92 [label="gini = 0.0\nsamples = 1\nvalue = [2, 0]"] ;
48 -> 92 ;
93 [label="gini = 0.0\nsamples = 1\nvalue = [1, 0]"] ;
47 -> 93 ;
94 [label="gini = 0.0\nsamples = 1\nvalue = [0, 1]"] ;
46 -> 94 ;
95 [label="gini = 0.0\nsamples = 3\nvalue = [5, 0]"] ;
45 -> 95 ;
96 [label="gini = 0.0\nsamples = 1\nvalue = [0, 2]"] ;
44 -> 96 ;
97 [label="gini = 0.0\nsamples = 1\nvalue = [2, 0]"] ;
43 -> 97 ;
98 [label="gini = 0.0\nsamples = 1\nvalue = [0, 1]"] ;
42 -> 98 ;
99 [label="gini = 0.0\nsamples = 1\nvalue = [1, 0]"] ;
41 -> 99 ;
100 [label="gini = 0.0\nsamples = 1\nvalue = [0, 2]"] ;
40 -> 100 ;
101 [label="gini = 0.0\nsamples = 1\nvalue = [0, 1]"] ;
39 -> 101 ;
102 [label="gini = 0.0\nsamples = 1\nvalue = [1, 0]"] ;
38 -> 102 ;
103 [label="gini = 0.0\nsamples = 1\nvalue = [1, 0]"] ;
37 -> 103 ;
104 [label="gini = 0.0\nsamples = 1\nvalue = [1, 0]"] ;
36 -> 104 ;
105 [label="gini = 0.0\nsamples = 1\nvalue = [0, 2]"] ;
35 -> 105 ;
106 [label="gini = 0.0\nsamples = 1\nvalue = [5, 0]"] ;
34 -> 106 ;
107 [label="gini = 0.0\nsamples = 1\nvalue = [1, 0]"] ;
33 -> 107 ;
108 [label="gini = 0.0\nsamples = 1\nvalue = [2, 0]"] ;
32 -> 108 ;
109 [label="gini = 0.0\nsamples = 1\nvalue = [0, 3]"] ;
31 -> 109 ;
110 [label="gini = 0.0\nsamples = 1\nvalue = [3, 0]"] ;
30 -> 110 ;
111 [label="gini = 0.0\nsamples = 1\nvalue = [0, 3]"] ;
29 -> 111 ;
112 [label="gini = 0.0\nsamples = 1\nvalue = [0, 1]"] ;
28 -> 112 ;
113 [label="gini = 0.0\nsamples = 1\nvalue = [0, 1]"] ;
27 -> 113 ;
114 [label="gini = 0.0\nsamples = 1\nvalue = [3, 0]"] ;
26 -> 114 ;
115 [label="gini = 0.0\nsamples = 1\nvalue = [0, 1]"] ;
25 -> 115 ;
116 [label="gini = 0.0\nsamples = 2\nvalue = [4, 0]"] ;
24 -> 116 ;
117 [label="gini = 0.0\nsamples = 3\nvalue = [5, 0]"] ;
23 -> 117 ;
118 [label="gini = 0.0\nsamples = 1\nvalue = [0, 2]"] ;
22 -> 118 ;
119 [label="gini = 0.0\nsamples = 1\nvalue = [1, 0]"] ;
21 -> 119 ;
120 [label="gini = 0.0\nsamples = 1\nvalue = [0, 2]"] ;
20 -> 120 ;
121 [label="gini = 0.0\nsamples = 1\nvalue = [2, 0]"] ;
19 -> 121 ;
122 [label="gini = 0.0\nsamples = 1\nvalue = [0, 2]"] ;
18 -> 122 ;
123 [label="gini = 0.0\nsamples = 1\nvalue = [0, 3]"] ;
17 -> 123 ;
124 [label="gini = 0.0\nsamples = 1\nvalue = [2, 0]"] ;
16 -> 124 ;
125 [label="gini = 0.0\nsamples = 1\nvalue = [1, 0]"] ;
15 -> 125 ;
126 [label="gini = 0.0\nsamples = 1\nvalue = [1, 0]"] ;
14 -> 126 ;
127 [label="gini = 0.0\nsamples = 2\nvalue = [0, 2]"] ;
13 -> 127 ;
128 [label="gini = 0.0\nsamples = 1\nvalue = [2, 0]"] ;
12 -> 128 ;
129 [label="gini = 0.0\nsamples = 1\nvalue = [2, 0]"] ;
11 -> 129 ;
130 [label="gini = 0.0\nsamples = 2\nvalue = [0, 5]"] ;
10 -> 130 ;
131 [label="gini = 0.0\nsamples = 1\nvalue = [0, 3]"] ;
9 -> 131 ;
132 [label="gini = 0.0\nsamples = 1\nvalue = [0, 1]"] ;
8 -> 132 ;
133 [label="gini = 0.0\nsamples = 1\nvalue = [0, 2]"] ;
7 -> 133 ;
134 [label="gini = 0.0\nsamples = 1\nvalue = [4, 0]"] ;
6 -> 134 ;
135 [label="gini = 0.0\nsamples = 1\nvalue = [0, 1]"] ;
5 -> 135 ;
136 [label="gini = 0.0\nsamples = 2\nvalue = [0, 3]"] ;
4 -> 136 ;
137 [label="gini = 0.0\nsamples = 2\nvalue = [2, 0]"] ;
3 -> 137 ;
138 [label="gini = 0.0\nsamples = 2\nvalue = [3, 0]"] ;
2 -> 138 ;
139 [label="gini = 0.0\nsamples = 2\nvalue = [6, 0]"] ;
1 -> 139 ;
140 [label="gini = 0.0\nsamples = 1\nvalue = [0, 3]"] ;
0 -> 140 [labeldistance=2.5, labelangle=-45, headlabel="False"] ;
}