digraph Tree {
node [shape=box] ;
0 [label="X[724] <= 0.5\ngini = 0.4996\nsamples = 87\nvalue = [66, 70]"] ;
1 [label="X[975] <= 0.5\ngini = 0.499\nsamples = 86\nvalue = [64, 70]"] ;
0 -> 1 [labeldistance=2.5, labelangle=45, headlabel="True"] ;
2 [label="X[21] <= 0.5\ngini = 0.497\nsamples = 84\nvalue = [60, 70]"] ;
1 -> 2 ;
3 [label="X[615] <= 0.5\ngini = 0.4956\nsamples = 83\nvalue = [58, 70]"] ;
2 -> 3 ;
4 [label="X[749] <= 0.5\ngini = 0.4962\nsamples = 82\nvalue = [58, 69]"] ;
3 -> 4 ;
5 [label="X[770] <= 0.5\ngini = 0.4946\nsamples = 81\nvalue = [56, 69]"] ;
4 -> 5 ;
6 [label="X[902] <= 0.5\ngini = 0.4914\nsamples = 80\nvalue = [53, 69]"] ;
5 -> 6 ;
7 [label="X[1071] <= 0.5\ngini = 0.4901\nsamples = 79\nvalue = [52, 69]"] ;
6 -> 7 ;
8 [label="X[1069] <= 0.5\ngini = 0.4911\nsamples = 78\nvalue = [52, 68]"] ;
7 -> 8 ;
9 [label="X[783] <= 0.5\ngini = 0.4868\nsamples = 77\nvalue = [49, 68]"] ;
8 -> 9 ;
10 [label="X[101] <= 0.5\ngini = 0.4891\nsamples = 75\nvalue = [49, 66]"] ;
9 -> 10 ;
11 [label="X[1028] <= 0.5\ngini = 0.4912\nsamples = 74\nvalue = [49, 64]"] ;
10 -> 11 ;
12 [label="X[929] <= 0.5\ngini = 0.4883\nsamples = 72\nvalue = [47, 64]"] ;
11 -> 12 ;
13 [label="X[51] <= 0.5\ngini = 0.4905\nsamples = 71\nvalue = [47, 62]"] ;
12 -> 13 ;
14 [label="X[1103] <= 0.5\ngini = 0.4836\nsamples = 69\nvalue = [43, 62]"] ;
13 -> 14 ;
15 [label="X[991] <= 0.5\ngini = 0.4877\nsamples = 68\nvalue = [43, 59]"] ;
14 -> 15 ;
16 [label="X[441] <= 0.5\ngini = 0.489\nsamples = 67\nvalue = [43, 58]"] ;
15 -> 16 ;
17 [label="X[875] <= 0.5\ngini = 0.4853\nsamples = 66\nvalue = [41, 58]"] ;
16 -> 17 ;
18 [label="X[316] <= 0.5\ngini = 0.4808\nsamples = 65\nvalue = [39, 58]"] ;
17 -> 18 ;
19 [label="X[47] <= 0.5\ngini = 0.487\nsamples = 63\nvalue = [39, 54]"] ;
18 -> 19 ;
20 [label="X[1092] <= 0.5\ngini = 0.4898\nsamples = 62\nvalue = [39, 52]"] ;
19 -> 20 ;
21 [label="X[948] <= 0.5\ngini = 0.4879\nsamples = 61\nvalue = [38, 52]"] ;
20 -> 21 ;
22 [label="X[173] <= 0.5\ngini = 0.4809\nsamples = 60\nvalue = [35, 52]"] ;
21 -> 22 ;
23 [label="X[662] <= 0.5\ngini = 0.4781\nsamples = 59\nvalue = [34, 52]"] ;
22 -> 23 ;
24 [label="X[33] <= 0.5\ngini = 0.48\nsamples = 58\nvalue = [34, 51]"] ;
23 -> 24 ;
25 [label="X[408] <= 0.5\ngini = 0.4854\nsamples = 57\nvalue = [34, 48]"] ;
24 -> 25 ;
26 [label="X[359] <= 0.5\ngini = 0.4932\nsamples = 56\nvalue = [34, 43]"] ;
25 -> 26 ;
27 [label="X[27] <= 0.5\ngini = 0.4913\nsamples = 55\nvalue = [33, 43]"] ;
26 -> 27 ;
28 [label="X[63] <= 0.5\ngini = 0.4942\nsamples = 54\nvalue = [33, 41]"] ;
27 -> 28 ;
29 [label="X[959] <= 0.5\ngini = 0.4904\nsamples = 53\nvalue = [31, 41]"] ;
28 -> 29 ;
30 [label="X[377] <= 0.5\ngini = 0.4898\nsamples = 51\nvalue = [30, 40]"] ;
29 -> 30 ;
31 [label="X[802] <= 0.5\ngini = 0.4873\nsamples = 50\nvalue = [29, 40]"] ;
30 -> 31 ;
32 [label="X[550] <= 0.5\ngini = 0.4844\nsamples = 49\nvalue = [28, 40]"] ;
31 -> 32 ;
33 [label="X[370] <= 0.5\ngini = 0.4885\nsamples = 48\nvalue = [28, 38]"] ;
32 -> 33 ;
34 [label="X[832] <= 0.5\ngini = 0.4922\nsamples = 47\nvalue = [28, 36]"] ;
33 -> 34 ;
35 [label="X[1105] <= 0.5\ngini = 0.4938\nsamples = 46\nvalue = [28, 35]"] ;
34 -> 35 ;
36 [label="X[309] <= 0.5\ngini = 0.4917\nsamples = 45\nvalue = [27, 35]"] ;
35 -> 36 ;
37 [label="X[1059] <= 0.5\ngini = 0.4934\nsamples = 44\nvalue = [27, 34]"] ;
36 -> 37 ;
38 [label="X[84] <= 0.5\ngini = 0.4976\nsamples = 43\nvalue = [27, 31]"] ;
37 -> 38 ;
39 [label="X[627] <= 0.5\ngini = 0.4962\nsamples = 42\nvalue = [26, 31]"] ;
38 -> 39 ;
40 [label="X[788] <= 0.5\ngini = 0.4974\nsamples = 41\nvalue = [26, 30]"] ;
39 -> 40 ;
41 [label="X[551] <= 0.5\ngini = 0.4959\nsamples = 40\nvalue = [25, 30]"] ;
40 -> 41 ;
42 [label="X[322] <= 0.5\ngini = 0.4984\nsamples = 38\nvalue = [25, 28]"] ;
41 -> 42 ;
43 [label="X[776] <= 0.5\ngini = 0.4952\nsamples = 37\nvalue = [23, 28]"] ;
42 -> 43 ;
44 [label="X[769] <= 0.5\ngini = 0.4861\nsamples = 36\nvalue = [20, 28]"] ;
43 -> 44 ;
45 [label="X[262] <= 0.5\ngini = 0.4764\nsamples = 34\nvalue = [18, 28]"] ;
44 -> 45 ;
46 [label="X[392] <= 0.5\ngini = 0.4701\nsamples = 33\nvalue = [17, 28]"] ;
45 -> 46 ;
47 [label="X[53] <= 0.5\ngini = 0.4628\nsamples = 32\nvalue = [16, 28]"] ;
46 -> 47 ;
48 [label="X[208] <= 0.5\ngini = 0.42\nsamples = 31\nvalue = [12, 28]"] ;
47 -> 48 ;
49 [label="X[531] <= 0.5\ngini = 0.426\nsamples = 30\nvalue = [12, 27]"] ;
48 -> 49 ;
50 [label="X[167] <= 0.5\ngini = 0.4444\nsamples = 29\nvalue = [12, 24]"] ;
49 -> 50 ;
51 [label="X[609] <= 0.5\ngini = 0.431\nsamples = 28\nvalue = [11, 24]"] ;
50 -> 51 ;
52 [label="X[148] <= 0.5\ngini = 0.4377\nsamples = 27\nvalue = [11, 23]"] ;
51 -> 52 ;
53 [label="X[474] <= 0.5\ngini = 0.4444\nsamples = 26\nvalue = [11, 22]"] ;
52 -> 53 ;
54 [label="X[250] <= 0.5\ngini = 0.4512\nsamples = 25\nvalue = [11, 21]"] ;
53 -> 54 ;
55 [label="X[9] <= 0.5\ngini = 0.4644\nsamples = 24\nvalue = [11, 19]"] ;
54 -> 55 ;
56 [label="X[590] <= 0.5\ngini = 0.4709\nsamples = 23\nvalue = [11, 18]"] ;
55 -> 56 ;
57 [label="X[1063] <= 0.5\ngini = 0.477\nsamples = 22\nvalue = [11, 17]"] ;
56 -> 57 ;
58 [label="X[219] <= 0.5\ngini = 0.4829\nsamples = 21\nvalue = [11, 16]"] ;
57 -> 58 ;
59 [label="X[825] <= 0.5\ngini = 0.4608\nsamples = 20\nvalue = [9, 16]"] ;
58 -> 59 ;
60 [label="X[71] <= 0.5\ngini = 0.4688\nsamples = 19\nvalue = [9, 15]"] ;
59 -> 60 ;
61 [label="X[935] <= 0.5\ngini = 0.4764\nsamples = 18\nvalue = [9, 14]"] ;
60 -> 61 ;
62 [label="X[1033] <= 0.5\ngini = 0.4835\nsamples = 17\nvalue = [9, 13]"] ;
61 -> 62 ;
63 [label="X[826] <= 0.5\ngini = 0.4717\nsamples = 16\nvalue = [8, 13]"] ;
62 -> 63 ;
64 [label="X[265] <= 0.5\ngini = 0.4012\nsamples = 14\nvalue = [5, 13]"] ;
63 -> 64 ;
65 [label="X[726] <= 0.5\ngini = 0.3599\nsamples = 13\nvalue = [4, 13]"] ;
64 -> 65 ;
66 [label="X[522] <= 0.5\ngini = 0.3047\nsamples = 12\nvalue = [3, 13]"] ;
65 -> 66 ;
67 [label="X[405] <= 0.5\ngini = 0.32\nsamples = 11\nvalue = [3, 12]"] ;
66 -> 67 ;
68 [label="X[253] <= 0.5\ngini = 0.355\nsamples = 10\nvalue = [3, 10]"] ;
67 -> 68 ;
69 [label="X[791] <= 0.5\ngini = 0.375\nsamples = 9\nvalue = [3, 9]"] ;
68 -> 69 ;
70 [label="X[83] <= 0.5\ngini = 0.3967\nsamples = 8\nvalue = [3, 8]"] ;
69 -> 70 ;
71 [label="X[527] <= 0.5\ngini = 0.42\nsamples = 7\nvalue = [3, 7]"] ;
70 -> 71 ;
72 [label="X[732] <= 0.5\ngini = 0.4688\nsamples = 6\nvalue = [3, 5]"] ;
71 -> 72 ;
73 [label="X[298] <= 0.5\ngini = 0.4898\nsamples = 5\nvalue = [3, 4]"] ;
72 -> 73 ;
74 [label="X[317] <= 0.5\ngini = 0.4444\nsamples = 4\nvalue = [2, 4]"] ;
73 -> 74 ;
75 [label="X[837] <= 0.5\ngini = 0.32\nsamples = 3\nvalue = [1, 4]"] ;
74 -> 75 ;
76 [label="X[986] <= 0.5\ngini = 0.5\nsamples = 2\nvalue = [1, 1]"] ;
75 -> 76 ;
77 [label="gini = 0.0\nsamples = 1\nvalue = [1, 0]"] ;
76 -> 77 ;
78 [label="gini = 0.0\nsamples = 1\nvalue = [0, 1]"] ;
76 -> 78 ;
79 [label="gini = 0.0\nsamples = 1\nvalue = [0, 3]"] ;
75 -> 79 ;
80 [label="gini = 0.0\nsamples = 1\nvalue = [1, 0]"] ;
74 -> 80 ;
81 [label="gini = 0.0\nsamples = 1\nvalue = [1, 0]"] ;
73 -> 81 ;
82 [label="gini = 0.0\nsamples = 1\nvalue = [0, 1]"] ;
72 -> 82 ;
83 [label="gini = 0.0\nsamples = 1\nvalue = [0, 2]"] ;
71 -> 83 ;
84 [label="gini = 0.0\nsamples = 1\nvalue = [0, 1]"] ;
70 -> 84 ;
85 [label="gini = 0.0\nsamples = 1\nvalue = [0, 1]"] ;
69 -> 85 ;
86 [label="gini = 0.0\nsamples = 1\nvalue = [0, 1]"] ;
68 -> 86 ;
87 [label="gini = 0.0\nsamples = 1\nvalue = [0, 2]"] ;
67 -> 87 ;
88 [label="gini = 0.0\nsamples = 1\nvalue = [0, 1]"] ;
66 -> 88 ;
89 [label="gini = 0.0\nsamples = 1\nvalue = [1, 0]"] ;
65 -> 89 ;
90 [label="gini = 0.0\nsamples = 1\nvalue = [1, 0]"] ;
64 -> 90 ;
91 [label="gini = 0.0\nsamples = 2\nvalue = [3, 0]"] ;
63 -> 91 ;
92 [label="gini = 0.0\nsamples = 1\nvalue = [1, 0]"] ;
62 -> 92 ;
93 [label="gini = 0.0\nsamples = 1\nvalue = [0, 1]"] ;
61 -> 93 ;
94 [label="gini = 0.0\nsamples = 1\nvalue = [0, 1]"] ;
60 -> 94 ;
95 [label="gini = 0.0\nsamples = 1\nvalue = [0, 1]"] ;
59 -> 95 ;
96 [label="gini = 0.0\nsamples = 1\nvalue = [2, 0]"] ;
58 -> 96 ;
97 [label="gini = 0.0\nsamples = 1\nvalue = [0, 1]"] ;
57 -> 97 ;
98 [label="gini = 0.0\nsamples = 1\nvalue = [0, 1]"] ;
56 -> 98 ;
99 [label="gini = 0.0\nsamples = 1\nvalue = [0, 1]"] ;
55 -> 99 ;
100 [label="gini = 0.0\nsamples = 1\nvalue = [0, 2]"] ;
54 -> 100 ;
101 [label="gini = 0.0\nsamples = 1\nvalue = [0, 1]"] ;
53 -> 101 ;
102 [label="gini = 0.0\nsamples = 1\nvalue = [0, 1]"] ;
52 -> 102 ;
103 [label="gini = 0.0\nsamples = 1\nvalue = [0, 1]"] ;
51 -> 103 ;
104 [label="gini = 0.0\nsamples = 1\nvalue = [1, 0]"] ;
50 -> 104 ;
105 [label="gini = 0.0\nsamples = 1\nvalue = [0, 3]"] ;
49 -> 105 ;
106 [label="gini = 0.0\nsamples = 1\nvalue = [0, 1]"] ;
48 -> 106 ;
107 [label="gini = 0.0\nsamples = 1\nvalue = [4, 0]"] ;
47 -> 107 ;
108 [label="gini = 0.0\nsamples = 1\nvalue = [1, 0]"] ;
46 -> 108 ;
109 [label="gini = 0.0\nsamples = 1\nvalue = [1, 0]"] ;
45 -> 109 ;
110 [label="gini = 0.0\nsamples = 2\nvalue = [2, 0]"] ;
44 -> 110 ;
111 [label="gini = 0.0\nsamples = 1\nvalue = [3, 0]"] ;
43 -> 111 ;
112 [label="gini = 0.0\nsamples = 1\nvalue = [2, 0]"] ;
42 -> 112 ;
113 [label="gini = 0.0\nsamples = 2\nvalue = [0, 2]"] ;
41 -> 113 ;
114 [label="gini = 0.0\nsamples = 1\nvalue = [1, 0]"] ;
40 -> 114 ;
115 [label="gini = 0.0\nsamples = 1\nvalue = [0, 1]"] ;
39 -> 115 ;
116 [label="gini = 0.0\nsamples = 1\nvalue = [1, 0]"] ;
38 -> 116 ;
117 [label="gini = 0.0\nsamples = 1\nvalue = [0, 3]"] ;
37 -> 117 ;
118 [label="gini = 0.0\nsamples = 1\nvalue = [0, 1]"] ;
36 -> 118 ;
119 [label="gini = 0.0\nsamples = 1\nvalue = [1, 0]"] ;
35 -> 119 ;
120 [label="gini = 0.0\nsamples = 1\nvalue = [0, 1]"] ;
34 -> 120 ;
121 [label="gini = 0.0\nsamples = 1\nvalue = [0, 2]"] ;
33 -> 121 ;
122 [label="gini = 0.0\nsamples = 1\nvalue = [0, 2]"] ;
32 -> 122 ;
123 [label="gini = 0.0\nsamples = 1\nvalue = [1, 0]"] ;
31 -> 123 ;
124 [label="gini = 0.0\nsamples = 1\nvalue = [1, 0]"] ;
30 -> 124 ;
125 [label="X[81] <= 0.5\ngini = 0.5\nsamples = 2\nvalue = [1, 1]"] ;
29 -> 125 ;
126 [label="gini = 0.0\nsamples = 1\nvalue = [1, 0]"] ;
125 -> 126 ;
127 [label="gini = 0.0\nsamples = 1\nvalue = [0, 1]"] ;
125 -> 127 ;
128 [label="gini = 0.0\nsamples = 1\nvalue = [2, 0]"] ;
28 -> 128 ;
129 [label="gini = 0.0\nsamples = 1\nvalue = [0, 2]"] ;
27 -> 129 ;
130 [label="gini = 0.0\nsamples = 1\nvalue = [1, 0]"] ;
26 -> 130 ;
131 [label="gini = 0.0\nsamples = 1\nvalue = [0, 5]"] ;
25 -> 131 ;
132 [label="gini = 0.0\nsamples = 1\nvalue = [0, 3]"] ;
24 -> 132 ;
133 [label="gini = 0.0\nsamples = 1\nvalue = [0, 1]"] ;
23 -> 133 ;
134 [label="gini = 0.0\nsamples = 1\nvalue = [1, 0]"] ;
22 -> 134 ;
135 [label="gini = 0.0\nsamples = 1\nvalue = [3, 0]"] ;
21 -> 135 ;
136 [label="gini = 0.0\nsamples = 1\nvalue = [1, 0]"] ;
20 -> 136 ;
137 [label="gini = 0.0\nsamples = 1\nvalue = [0, 2]"] ;
19 -> 137 ;
138 [label="gini = 0.0\nsamples = 2\nvalue = [0, 4]"] ;
18 -> 138 ;
139 [label="gini = 0.0\nsamples = 1\nvalue = [2, 0]"] ;
17 -> 139 ;
140 [label="gini = 0.0\nsamples = 1\nvalue = [2, 0]"] ;
16 -> 140 ;
141 [label="gini = 0.0\nsamples = 1\nvalue = [0, 1]"] ;
15 -> 141 ;
142 [label="gini = 0.0\nsamples = 1\nvalue = [0, 3]"] ;
14 -> 142 ;
143 [label="gini = 0.0\nsamples = 2\nvalue = [4, 0]"] ;
13 -> 143 ;
144 [label="gini = 0.0\nsamples = 1\nvalue = [0, 2]"] ;
12 -> 144 ;
145 [label="gini = 0.0\nsamples = 2\nvalue = [2, 0]"] ;
11 -> 145 ;
146 [label="gini = 0.0\nsamples = 1\nvalue = [0, 2]"] ;
10 -> 146 ;
147 [label="gini = 0.0\nsamples = 2\nvalue = [0, 2]"] ;
9 -> 147 ;
148 [label="gini = 0.0\nsamples = 1\nvalue = [3, 0]"] ;
8 -> 148 ;
149 [label="gini = 0.0\nsamples = 1\nvalue = [0, 1]"] ;
7 -> 149 ;
150 [label="gini = 0.0\nsamples = 1\nvalue = [1, 0]"] ;
6 -> 150 ;
151 [label="gini = 0.0\nsamples = 1\nvalue = [3, 0]"] ;
5 -> 151 ;
152 [label="gini = 0.0\nsamples = 1\nvalue = [2, 0]"] ;
4 -> 152 ;
153 [label="gini = 0.0\nsamples = 1\nvalue = [0, 1]"] ;
3 -> 153 ;
154 [label="gini = 0.0\nsamples = 1\nvalue = [2, 0]"] ;
2 -> 154 ;
155 [label="gini = 0.0\nsamples = 2\nvalue = [4, 0]"] ;
1 -> 155 ;
156 [label="gini = 0.0\nsamples = 1\nvalue = [2, 0]"] ;
0 -> 156 [labeldistance=2.5, labelangle=-45, headlabel="False"] ;
}