digraph Tree {
node [shape=box] ;
0 [label="X[762] <= 0.5\ngini = 0.4973\nsamples = 89\nvalue = [73, 63]"] ;
1 [label="X[133] <= 0.5\ngini = 0.496\nsamples = 88\nvalue = [73, 61]"] ;
0 -> 1 [labeldistance=2.5, labelangle=45, headlabel="True"] ;
2 [label="X[883] <= 0.5\ngini = 0.4934\nsamples = 87\nvalue = [73, 58]"] ;
1 -> 2 ;
3 [label="X[289] <= 0.5\ngini = 0.4924\nsamples = 86\nvalue = [73, 57]"] ;
2 -> 3 ;
4 [label="X[272] <= 0.5\ngini = 0.494\nsamples = 85\nvalue = [71, 57]"] ;
3 -> 4 ;
5 [label="X[1049] <= 0.5\ngini = 0.4919\nsamples = 84\nvalue = [71, 55]"] ;
4 -> 5 ;
6 [label="X[706] <= 0.5\ngini = 0.4895\nsamples = 83\nvalue = [71, 53]"] ;
5 -> 6 ;
7 [label="X[816] <= 0.5\ngini = 0.4866\nsamples = 82\nvalue = [71, 51]"] ;
6 -> 7 ;
8 [label="X[967] <= 0.5\ngini = 0.4813\nsamples = 80\nvalue = [71, 48]"] ;
7 -> 8 ;
9 [label="X[705] <= 0.5\ngini = 0.4772\nsamples = 79\nvalue = [71, 46]"] ;
8 -> 9 ;
10 [label="X[748] <= 0.5\ngini = 0.4827\nsamples = 78\nvalue = [67, 46]"] ;
9 -> 10 ;
11 [label="X[810] <= 0.5\ngini = 0.4807\nsamples = 77\nvalue = [67, 45]"] ;
10 -> 11 ;
12 [label="X[173] <= 0.5\ngini = 0.4861\nsamples = 76\nvalue = [63, 45]"] ;
11 -> 12 ;
13 [label="X[734] <= 0.5\ngini = 0.4886\nsamples = 75\nvalue = [61, 45]"] ;
12 -> 13 ;
14 [label="X[187] <= 0.5\ngini = 0.4931\nsamples = 73\nvalue = [57, 45]"] ;
13 -> 14 ;
15 [label="X[502] <= 0.5\ngini = 0.4902\nsamples = 72\nvalue = [57, 43]"] ;
14 -> 15 ;
16 [label="X[122] <= 0.5\ngini = 0.4885\nsamples = 71\nvalue = [57, 42]"] ;
15 -> 16 ;
17 [label="X[1110] <= 0.5\ngini = 0.4898\nsamples = 70\nvalue = [56, 42]"] ;
16 -> 17 ;
18 [label="X[401] <= 0.5\ngini = 0.4922\nsamples = 69\nvalue = [54, 42]"] ;
17 -> 18 ;
19 [label="X[1043] <= 0.5\ngini = 0.487\nsamples = 68\nvalue = [54, 39]"] ;
18 -> 19 ;
20 [label="X[273] <= 0.5\ngini = 0.4924\nsamples = 66\nvalue = [50, 39]"] ;
19 -> 20 ;
21 [label="X[151] <= 0.5\ngini = 0.4946\nsamples = 65\nvalue = [48, 39]"] ;
20 -> 21 ;
22 [label="X[859] <= 0.5\ngini = 0.4898\nsamples = 63\nvalue = [48, 36]"] ;
21 -> 22 ;
23 [label="X[55] <= 0.5\ngini = 0.4854\nsamples = 62\nvalue = [48, 34]"] ;
22 -> 23 ;
24 [label="X[35] <= 0.5\ngini = 0.48\nsamples = 61\nvalue = [48, 32]"] ;
23 -> 24 ;
25 [label="X[101] <= 0.5\ngini = 0.482\nsamples = 60\nvalue = [47, 32]"] ;
24 -> 25 ;
26 [label="X[614] <= 0.5\ngini = 0.479\nsamples = 59\nvalue = [47, 31]"] ;
25 -> 26 ;
27 [label="X[728] <= 0.5\ngini = 0.472\nsamples = 58\nvalue = [47, 29]"] ;
26 -> 27 ;
28 [label="X[975] <= 0.5\ngini = 0.4766\nsamples = 57\nvalue = [45, 29]"] ;
27 -> 28 ;
29 [label="X[864] <= 0.5\ngini = 0.4729\nsamples = 56\nvalue = [45, 28]"] ;
28 -> 29 ;
30 [label="X[784] <= 0.5\ngini = 0.48\nsamples = 55\nvalue = [42, 28]"] ;
29 -> 30 ;
31 [label="X[556] <= 0.5\ngini = 0.4764\nsamples = 54\nvalue = [42, 27]"] ;
30 -> 31 ;
32 [label="X[726] <= 0.5\ngini = 0.4678\nsamples = 53\nvalue = [42, 25]"] ;
31 -> 32 ;
33 [label="X[395] <= 0.5\ngini = 0.4706\nsamples = 52\nvalue = [41, 25]"] ;
32 -> 33 ;
34 [label="X[831] <= 0.5\ngini = 0.4734\nsamples = 51\nvalue = [40, 25]"] ;
33 -> 34 ;
35 [label="X[573] <= 0.5\ngini = 0.4579\nsamples = 49\nvalue = [40, 22]"] ;
34 -> 35 ;
36 [label="X[201] <= 0.5\ngini = 0.4481\nsamples = 47\nvalue = [39, 20]"] ;
35 -> 36 ;
37 [label="X[847] <= 0.5\ngini = 0.4518\nsamples = 46\nvalue = [38, 20]"] ;
36 -> 37 ;
38 [label="X[414] <= 0.5\ngini = 0.417\nsamples = 45\nvalue = [38, 16]"] ;
37 -> 38 ;
39 [label="X[98] <= 0.5\ngini = 0.4058\nsamples = 44\nvalue = [38, 15]"] ;
38 -> 39 ;
40 [label="X[361] <= 0.5\ngini = 0.4105\nsamples = 43\nvalue = [37, 15]"] ;
39 -> 40 ;
41 [label="X[311] <= 0.5\ngini = 0.3983\nsamples = 42\nvalue = [37, 14]"] ;
40 -> 41 ;
42 [label="X[540] <= 0.5\ngini = 0.4032\nsamples = 41\nvalue = [36, 14]"] ;
41 -> 42 ;
43 [label="X[235] <= 0.5\ngini = 0.375\nsamples = 40\nvalue = [36, 12]"] ;
42 -> 43 ;
44 [label="X[600] <= 0.5\ngini = 0.3856\nsamples = 39\nvalue = [34, 12]"] ;
43 -> 44 ;
45 [label="X[670] <= 0.5\ngini = 0.3911\nsamples = 38\nvalue = [33, 12]"] ;
44 -> 45 ;
46 [label="X[1129] <= 0.5\ngini = 0.3807\nsamples = 36\nvalue = [32, 11]"] ;
45 -> 46 ;
47 [label="X[663] <= 0.5\ngini = 0.3427\nsamples = 35\nvalue = [32, 9]"] ;
46 -> 47 ;
48 [label="X[1086] <= 0.5\ngini = 0.32\nsamples = 34\nvalue = [32, 8]"] ;
47 -> 48 ;
49 [label="X[73] <= 0.5\ngini = 0.3261\nsamples = 33\nvalue = [31, 8]"] ;
48 -> 49 ;
50 [label="X[7] <= 0.5\ngini = 0.3324\nsamples = 32\nvalue = [30, 8]"] ;
49 -> 50 ;
51 [label="X[285] <= 0.5\ngini = 0.3389\nsamples = 31\nvalue = [29, 8]"] ;
50 -> 51 ;
52 [label="X[113] <= 0.5\ngini = 0.3527\nsamples = 30\nvalue = [27, 8]"] ;
51 -> 52 ;
53 [label="X[878] <= 0.5\ngini = 0.3599\nsamples = 29\nvalue = [26, 8]"] ;
52 -> 53 ;
54 [label="X[988] <= 0.5\ngini = 0.3343\nsamples = 28\nvalue = [26, 7]"] ;
53 -> 54 ;
55 [label="X[448] <= 0.5\ngini = 0.3496\nsamples = 27\nvalue = [24, 7]"] ;
54 -> 55 ;
56 [label="X[40] <= 0.5\ngini = 0.3578\nsamples = 26\nvalue = [23, 7]"] ;
55 -> 56 ;
57 [label="X[792] <= 0.5\ngini = 0.3662\nsamples = 25\nvalue = [22, 7]"] ;
56 -> 57 ;
58 [label="X[980] <= 0.5\ngini = 0.3367\nsamples = 24\nvalue = [22, 6]"] ;
57 -> 58 ;
59 [label="X[875] <= 0.5\ngini = 0.3018\nsamples = 23\nvalue = [22, 5]"] ;
58 -> 59 ;
60 [label="X[81] <= 0.5\ngini = 0.3299\nsamples = 22\nvalue = [19, 5]"] ;
59 -> 60 ;
61 [label="X[1074] <= 0.5\ngini = 0.3403\nsamples = 21\nvalue = [18, 5]"] ;
60 -> 61 ;
62 [label="X[251] <= 0.5\ngini = 0.3512\nsamples = 20\nvalue = [17, 5]"] ;
61 -> 62 ;
63 [label="X[12] <= 0.5\ngini = 0.375\nsamples = 18\nvalue = [15, 5]"] ;
62 -> 63 ;
64 [label="X[450] <= 0.5\ngini = 0.3878\nsamples = 17\nvalue = [14, 5]"] ;
63 -> 64 ;
65 [label="X[317] <= 0.5\ngini = 0.4152\nsamples = 16\nvalue = [12, 5]"] ;
64 -> 65 ;
66 [label="X[802] <= 0.5\ngini = 0.4592\nsamples = 14\nvalue = [9, 5]"] ;
65 -> 66 ;
67 [label="X[103] <= 0.5\ngini = 0.4734\nsamples = 13\nvalue = [8, 5]"] ;
66 -> 67 ;
68 [label="X[1121] <= 0.5\ngini = 0.4444\nsamples = 12\nvalue = [8, 4]"] ;
67 -> 68 ;
69 [label="X[498] <= 0.5\ngini = 0.4628\nsamples = 11\nvalue = [7, 4]"] ;
68 -> 69 ;
70 [label="X[909] <= 0.5\ngini = 0.48\nsamples = 10\nvalue = [6, 4]"] ;
69 -> 70 ;
71 [label="X[487] <= 0.5\ngini = 0.4938\nsamples = 9\nvalue = [5, 4]"] ;
70 -> 71 ;
72 [label="X[3] <= 0.5\ngini = 0.5\nsamples = 8\nvalue = [4, 4]"] ;
71 -> 72 ;
73 [label="X[697] <= 0.5\ngini = 0.4898\nsamples = 7\nvalue = [4, 3]"] ;
72 -> 73 ;
74 [label="X[427] <= 0.5\ngini = 0.5\nsamples = 6\nvalue = [3, 3]"] ;
73 -> 74 ;
75 [label="X[474] <= 0.5\ngini = 0.48\nsamples = 5\nvalue = [2, 3]"] ;
74 -> 75 ;
76 [label="X[439] <= 0.5\ngini = 0.5\nsamples = 4\nvalue = [2, 2]"] ;
75 -> 76 ;
77 [label="X[986] <= 0.5\ngini = 0.4444\nsamples = 3\nvalue = [1, 2]"] ;
76 -> 77 ;
78 [label="X[83] <= 0.5\ngini = 0.5\nsamples = 2\nvalue = [1, 1]"] ;
77 -> 78 ;
79 [label="gini = 0.0\nsamples = 1\nvalue = [1, 0]"] ;
78 -> 79 ;
80 [label="gini = 0.0\nsamples = 1\nvalue = [0, 1]"] ;
78 -> 80 ;
81 [label="gini = 0.0\nsamples = 1\nvalue = [0, 1]"] ;
77 -> 81 ;
82 [label="gini = 0.0\nsamples = 1\nvalue = [1, 0]"] ;
76 -> 82 ;
83 [label="gini = 0.0\nsamples = 1\nvalue = [0, 1]"] ;
75 -> 83 ;
84 [label="gini = 0.0\nsamples = 1\nvalue = [1, 0]"] ;
74 -> 84 ;
85 [label="gini = 0.0\nsamples = 1\nvalue = [1, 0]"] ;
73 -> 85 ;
86 [label="gini = 0.0\nsamples = 1\nvalue = [0, 1]"] ;
72 -> 86 ;
87 [label="gini = 0.0\nsamples = 1\nvalue = [1, 0]"] ;
71 -> 87 ;
88 [label="gini = 0.0\nsamples = 1\nvalue = [1, 0]"] ;
70 -> 88 ;
89 [label="gini = 0.0\nsamples = 1\nvalue = [1, 0]"] ;
69 -> 89 ;
90 [label="gini = 0.0\nsamples = 1\nvalue = [1, 0]"] ;
68 -> 90 ;
91 [label="gini = 0.0\nsamples = 1\nvalue = [0, 1]"] ;
67 -> 91 ;
92 [label="gini = 0.0\nsamples = 1\nvalue = [1, 0]"] ;
66 -> 92 ;
93 [label="gini = 0.0\nsamples = 2\nvalue = [3, 0]"] ;
65 -> 93 ;
94 [label="gini = 0.0\nsamples = 1\nvalue = [2, 0]"] ;
64 -> 94 ;
95 [label="gini = 0.0\nsamples = 1\nvalue = [1, 0]"] ;
63 -> 95 ;
96 [label="gini = 0.0\nsamples = 2\nvalue = [2, 0]"] ;
62 -> 96 ;
97 [label="gini = 0.0\nsamples = 1\nvalue = [1, 0]"] ;
61 -> 97 ;
98 [label="gini = 0.0\nsamples = 1\nvalue = [1, 0]"] ;
60 -> 98 ;
99 [label="gini = 0.0\nsamples = 1\nvalue = [3, 0]"] ;
59 -> 99 ;
100 [label="gini = 0.0\nsamples = 1\nvalue = [0, 1]"] ;
58 -> 100 ;
101 [label="gini = 0.0\nsamples = 1\nvalue = [0, 1]"] ;
57 -> 101 ;
102 [label="gini = 0.0\nsamples = 1\nvalue = [1, 0]"] ;
56 -> 102 ;
103 [label="gini = 0.0\nsamples = 1\nvalue = [1, 0]"] ;
55 -> 103 ;
104 [label="gini = 0.0\nsamples = 1\nvalue = [2, 0]"] ;
54 -> 104 ;
105 [label="gini = 0.0\nsamples = 1\nvalue = [0, 1]"] ;
53 -> 105 ;
106 [label="gini = 0.0\nsamples = 1\nvalue = [1, 0]"] ;
52 -> 106 ;
107 [label="gini = 0.0\nsamples = 1\nvalue = [2, 0]"] ;
51 -> 107 ;
108 [label="gini = 0.0\nsamples = 1\nvalue = [1, 0]"] ;
50 -> 108 ;
109 [label="gini = 0.0\nsamples = 1\nvalue = [1, 0]"] ;
49 -> 109 ;
110 [label="gini = 0.0\nsamples = 1\nvalue = [1, 0]"] ;
48 -> 110 ;
111 [label="gini = 0.0\nsamples = 1\nvalue = [0, 1]"] ;
47 -> 111 ;
112 [label="gini = 0.0\nsamples = 1\nvalue = [0, 2]"] ;
46 -> 112 ;
113 [label="X[76] <= 0.5\ngini = 0.5\nsamples = 2\nvalue = [1, 1]"] ;
45 -> 113 ;
114 [label="gini = 0.0\nsamples = 1\nvalue = [0, 1]"] ;
113 -> 114 ;
115 [label="gini = 0.0\nsamples = 1\nvalue = [1, 0]"] ;
113 -> 115 ;
116 [label="gini = 0.0\nsamples = 1\nvalue = [1, 0]"] ;
44 -> 116 ;
117 [label="gini = 0.0\nsamples = 1\nvalue = [2, 0]"] ;
43 -> 117 ;
118 [label="gini = 0.0\nsamples = 1\nvalue = [0, 2]"] ;
42 -> 118 ;
119 [label="gini = 0.0\nsamples = 1\nvalue = [1, 0]"] ;
41 -> 119 ;
120 [label="gini = 0.0\nsamples = 1\nvalue = [0, 1]"] ;
40 -> 120 ;
121 [label="gini = 0.0\nsamples = 1\nvalue = [1, 0]"] ;
39 -> 121 ;
122 [label="gini = 0.0\nsamples = 1\nvalue = [0, 1]"] ;
38 -> 122 ;
123 [label="gini = 0.0\nsamples = 1\nvalue = [0, 4]"] ;
37 -> 123 ;
124 [label="gini = 0.0\nsamples = 1\nvalue = [1, 0]"] ;
36 -> 124 ;
125 [label="X[317] <= 0.5\ngini = 0.4444\nsamples = 2\nvalue = [1, 2]"] ;
35 -> 125 ;
126 [label="gini = 0.0\nsamples = 1\nvalue = [0, 2]"] ;
125 -> 126 ;
127 [label="gini = 0.0\nsamples = 1\nvalue = [1, 0]"] ;
125 -> 127 ;
128 [label="gini = 0.0\nsamples = 2\nvalue = [0, 3]"] ;
34 -> 128 ;
129 [label="gini = 0.0\nsamples = 1\nvalue = [1, 0]"] ;
33 -> 129 ;
130 [label="gini = 0.0\nsamples = 1\nvalue = [1, 0]"] ;
32 -> 130 ;
131 [label="gini = 0.0\nsamples = 1\nvalue = [0, 2]"] ;
31 -> 131 ;
132 [label="gini = 0.0\nsamples = 1\nvalue = [0, 1]"] ;
30 -> 132 ;
133 [label="gini = 0.0\nsamples = 1\nvalue = [3, 0]"] ;
29 -> 133 ;
134 [label="gini = 0.0\nsamples = 1\nvalue = [0, 1]"] ;
28 -> 134 ;
135 [label="gini = 0.0\nsamples = 1\nvalue = [2, 0]"] ;
27 -> 135 ;
136 [label="gini = 0.0\nsamples = 1\nvalue = [0, 2]"] ;
26 -> 136 ;
137 [label="gini = 0.0\nsamples = 1\nvalue = [0, 1]"] ;
25 -> 137 ;
138 [label="gini = 0.0\nsamples = 1\nvalue = [1, 0]"] ;
24 -> 138 ;
139 [label="gini = 0.0\nsamples = 1\nvalue = [0, 2]"] ;
23 -> 139 ;
140 [label="gini = 0.0\nsamples = 1\nvalue = [0, 2]"] ;
22 -> 140 ;
141 [label="gini = 0.0\nsamples = 2\nvalue = [0, 3]"] ;
21 -> 141 ;
142 [label="gini = 0.0\nsamples = 1\nvalue = [2, 0]"] ;
20 -> 142 ;
143 [label="gini = 0.0\nsamples = 2\nvalue = [4, 0]"] ;
19 -> 143 ;
144 [label="gini = 0.0\nsamples = 1\nvalue = [0, 3]"] ;
18 -> 144 ;
145 [label="gini = 0.0\nsamples = 1\nvalue = [2, 0]"] ;
17 -> 145 ;
146 [label="gini = 0.0\nsamples = 1\nvalue = [1, 0]"] ;
16 -> 146 ;
147 [label="gini = 0.0\nsamples = 1\nvalue = [0, 1]"] ;
15 -> 147 ;
148 [label="gini = 0.0\nsamples = 1\nvalue = [0, 2]"] ;
14 -> 148 ;
149 [label="gini = 0.0\nsamples = 2\nvalue = [4, 0]"] ;
13 -> 149 ;
150 [label="gini = 0.0\nsamples = 1\nvalue = [2, 0]"] ;
12 -> 150 ;
151 [label="gini = 0.0\nsamples = 1\nvalue = [4, 0]"] ;
11 -> 151 ;
152 [label="gini = 0.0\nsamples = 1\nvalue = [0, 1]"] ;
10 -> 152 ;
153 [label="gini = 0.0\nsamples = 1\nvalue = [4, 0]"] ;
9 -> 153 ;
154 [label="gini = 0.0\nsamples = 1\nvalue = [0, 2]"] ;
8 -> 154 ;
155 [label="gini = 0.0\nsamples = 2\nvalue = [0, 3]"] ;
7 -> 155 ;
156 [label="gini = 0.0\nsamples = 1\nvalue = [0, 2]"] ;
6 -> 156 ;
157 [label="gini = 0.0\nsamples = 1\nvalue = [0, 2]"] ;
5 -> 157 ;
158 [label="gini = 0.0\nsamples = 1\nvalue = [0, 2]"] ;
4 -> 158 ;
159 [label="gini = 0.0\nsamples = 1\nvalue = [2, 0]"] ;
3 -> 159 ;
160 [label="gini = 0.0\nsamples = 1\nvalue = [0, 1]"] ;
2 -> 160 ;
161 [label="gini = 0.0\nsamples = 1\nvalue = [0, 3]"] ;
1 -> 161 ;
162 [label="gini = 0.0\nsamples = 1\nvalue = [0, 2]"] ;
0 -> 162 [labeldistance=2.5, labelangle=-45, headlabel="False"] ;
}