digraph Tree {
node [shape=box] ;
0 [label="X[4725] <= 0.5\ngini = 0.4989\nsamples = 1192\nvalue = [1002, 911]"] ;
1 [label="X[4999] <= 0.5\ngini = 0.499\nsamples = 1189\nvalue = [997, 911]"] ;
0 -> 1 [labeldistance=2.5, labelangle=45, headlabel="True"] ;
2 [label="X[245] <= 0.5\ngini = 0.4991\nsamples = 1188\nvalue = [994, 911]"] ;
1 -> 2 ;
3 [label="X[3545] <= 0.5\ngini = 0.4992\nsamples = 1184\nvalue = [989, 911]"] ;
2 -> 3 ;
4 [label="X[2562] <= 0.5\ngini = 0.4992\nsamples = 1183\nvalue = [985, 911]"] ;
3 -> 4 ;
5 [label="X[731] <= 0.5\ngini = 0.4994\nsamples = 1179\nvalue = [979, 911]"] ;
4 -> 5 ;
6 [label="X[1709] <= 0.5\ngini = 0.4995\nsamples = 1176\nvalue = [973, 911]"] ;
5 -> 6 ;
7 [label="X[429] <= 0.5\ngini = 0.4994\nsamples = 1174\nvalue = [973, 908]"] ;
6 -> 7 ;
8 [label="X[1158] <= 0.5\ngini = 0.4995\nsamples = 1168\nvalue = [965, 908]"] ;
7 -> 8 ;
9 [label="X[2046] <= 0.5\ngini = 0.4996\nsamples = 1166\nvalue = [958, 908]"] ;
8 -> 9 ;
10 [label="X[1584] <= 0.5\ngini = 0.4998\nsamples = 1161\nvalue = [948, 908]"] ;
9 -> 10 ;
11 [label="X[4087] <= 0.5\ngini = 0.4997\nsamples = 1160\nvalue = [948, 905]"] ;
10 -> 11 ;
12 [label="X[4212] <= 0.5\ngini = 0.4998\nsamples = 1156\nvalue = [943, 905]"] ;
11 -> 12 ;
13 [label="X[2343] <= 0.5\ngini = 0.5\nsamples = 1143\nvalue = [915, 905]"] ;
12 -> 13 ;
14 [label="X[2665] <= 0.5\ngini = 0.5\nsamples = 1140\nvalue = [910, 905]"] ;
13 -> 14 ;
15 [label="X[376] <= 0.5\ngini = 0.5\nsamples = 1139\nvalue = [910, 901]"] ;
14 -> 15 ;
16 [label="X[4414] <= 0.5\ngini = 0.5\nsamples = 1138\nvalue = [910, 897]"] ;
15 -> 16 ;
17 [label="X[726] <= 0.5\ngini = 0.5\nsamples = 1136\nvalue = [907, 897]"] ;
16 -> 17 ;
18 [label="X[659] <= 0.5\ngini = 0.5\nsamples = 1134\nvalue = [903, 897]"] ;
17 -> 18 ;
19 [label="X[4197] <= 0.5\ngini = 0.5\nsamples = 1129\nvalue = [893, 897]"] ;
18 -> 19 ;
20 [label="X[538] <= 0.5\ngini = 0.5\nsamples = 1128\nvalue = [893, 894]"] ;
19 -> 20 ;
21 [label="X[3211] <= 0.5\ngini = 0.5\nsamples = 1124\nvalue = [887, 894]"] ;
20 -> 21 ;
22 [label="X[4686] <= 0.5\ngini = 0.5\nsamples = 1122\nvalue = [883, 894]"] ;
21 -> 22 ;
23 [label="X[4701] <= 0.5\ngini = 0.5\nsamples = 1120\nvalue = [883, 890]"] ;
22 -> 23 ;
24 [label="X[1668] <= 0.5\ngini = 0.5\nsamples = 1114\nvalue = [873, 890]"] ;
23 -> 24 ;
25 [label="X[3278] <= 0.5\ngini = 0.4999\nsamples = 1111\nvalue = [867, 890]"] ;
24 -> 25 ;
26 [label="X[2722] <= 0.5\ngini = 0.4999\nsamples = 1110\nvalue = [864, 890]"] ;
25 -> 26 ;
27 [label="X[1688] <= 0.5\ngini = 0.4998\nsamples = 1107\nvalue = [858, 890]"] ;
26 -> 27 ;
28 [label="X[164] <= 0.5\ngini = 0.4998\nsamples = 1103\nvalue = [854, 890]"] ;
27 -> 28 ;
29 [label="X[4084] <= 0.5\ngini = 0.4998\nsamples = 1102\nvalue = [852, 890]"] ;
28 -> 29 ;
30 [label="X[2247] <= 0.5\ngini = 0.4997\nsamples = 1101\nvalue = [850, 890]"] ;
29 -> 30 ;
31 [label="X[4604] <= 0.5\ngini = 0.4997\nsamples = 1100\nvalue = [848, 890]"] ;
30 -> 31 ;
32 [label="X[626] <= 0.5\ngini = 0.4999\nsamples = 1089\nvalue = [845, 872]"] ;
31 -> 32 ;
33 [label="X[335] <= 0.5\ngini = 0.4999\nsamples = 1087\nvalue = [845, 869]"] ;
32 -> 33 ;
34 [label="X[3433] <= 0.5\ngini = 0.4999\nsamples = 1085\nvalue = [842, 869]"] ;
33 -> 34 ;
35 [label="X[765] <= 0.5\ngini = 0.4998\nsamples = 1080\nvalue = [835, 868]"] ;
34 -> 35 ;
36 [label="X[3127] <= 0.5\ngini = 0.4998\nsamples = 1079\nvalue = [835, 866]"] ;
35 -> 36 ;
37 [label="X[1324] <= 0.5\ngini = 0.4998\nsamples = 1078\nvalue = [835, 865]"] ;
36 -> 37 ;
38 [label="X[4052] <= 0.5\ngini = 0.4997\nsamples = 1073\nvalue = [827, 865]"] ;
37 -> 38 ;
39 [label="X[3859] <= 0.5\ngini = 0.4997\nsamples = 1061\nvalue = [816, 858]"] ;
38 -> 39 ;
40 [label="X[1488] <= 0.5\ngini = 0.4996\nsamples = 1060\nvalue = [813, 858]"] ;
39 -> 40 ;
41 [label="X[947] <= 0.5\ngini = 0.4996\nsamples = 1058\nvalue = [810, 858]"] ;
40 -> 41 ;
42 [label="X[1183] <= 0.5\ngini = 0.4996\nsamples = 1057\nvalue = [809, 858]"] ;
41 -> 42 ;
43 [label="X[4060] <= 0.5\ngini = 0.4995\nsamples = 1056\nvalue = [805, 858]"] ;
42 -> 43 ;
44 [label="X[2199] <= 0.5\ngini = 0.4993\nsamples = 1052\nvalue = [798, 858]"] ;
43 -> 44 ;
45 [label="X[4784] <= 0.5\ngini = 0.4994\nsamples = 1051\nvalue = [798, 856]"] ;
44 -> 45 ;
46 [label="X[2361] <= 0.5\ngini = 0.4993\nsamples = 1049\nvalue = [795, 856]"] ;
45 -> 46 ;
47 [label="X[1905] <= 0.5\ngini = 0.4992\nsamples = 1043\nvalue = [787, 854]"] ;
46 -> 47 ;
48 [label="X[4026] <= 0.5\ngini = 0.4993\nsamples = 1041\nvalue = [787, 849]"] ;
47 -> 48 ;
49 [label="X[3657] <= 0.5\ngini = 0.4992\nsamples = 1039\nvalue = [785, 849]"] ;
48 -> 49 ;
50 [label="X[3800] <= 0.5\ngini = 0.4992\nsamples = 1038\nvalue = [783, 849]"] ;
49 -> 50 ;
51 [label="X[4644] <= 0.5\ngini = 0.4991\nsamples = 1037\nvalue = [781, 849]"] ;
50 -> 51 ;
52 [label="X[3750] <= 0.5\ngini = 0.4991\nsamples = 1036\nvalue = [780, 849]"] ;
51 -> 52 ;
53 [label="X[1386] <= 0.5\ngini = 0.4992\nsamples = 1034\nvalue = [780, 846]"] ;
52 -> 53 ;
54 [label="X[4302] <= 0.5\ngini = 0.499\nsamples = 1032\nvalue = [774, 846]"] ;
53 -> 54 ;
55 [label="X[1810] <= 0.5\ngini = 0.499\nsamples = 1030\nvalue = [772, 846]"] ;
54 -> 55 ;
56 [label="X[2112] <= 0.5\ngini = 0.4988\nsamples = 1028\nvalue = [767, 846]"] ;
55 -> 56 ;
57 [label="X[2042] <= 0.5\ngini = 0.4987\nsamples = 1027\nvalue = [765, 846]"] ;
56 -> 57 ;
58 [label="X[2993] <= 0.5\ngini = 0.4986\nsamples = 1025\nvalue = [761, 846]"] ;
57 -> 58 ;
59 [label="X[1103] <= 0.5\ngini = 0.4985\nsamples = 1024\nvalue = [757, 846]"] ;
58 -> 59 ;
60 [label="X[4324] <= 0.5\ngini = 0.4986\nsamples = 1020\nvalue = [757, 841]"] ;
59 -> 60 ;
61 [label="X[1153] <= 0.5\ngini = 0.4984\nsamples = 1017\nvalue = [752, 841]"] ;
60 -> 61 ;
62 [label="X[3075] <= 0.5\ngini = 0.4983\nsamples = 1015\nvalue = [748, 841]"] ;
61 -> 62 ;
63 [label="X[2437] <= 0.5\ngini = 0.4985\nsamples = 1013\nvalue = [748, 836]"] ;
62 -> 63 ;
64 [label="X[410] <= 0.5\ngini = 0.4986\nsamples = 1012\nvalue = [748, 830]"] ;
63 -> 64 ;
65 [label="X[3189] <= 0.5\ngini = 0.4987\nsamples = 1011\nvalue = [748, 828]"] ;
64 -> 65 ;
66 [label="X[4851] <= 0.5\ngini = 0.4986\nsamples = 1008\nvalue = [744, 828]"] ;
65 -> 66 ;
67 [label="X[1992] <= 0.5\ngini = 0.4984\nsamples = 1006\nvalue = [740, 828]"] ;
66 -> 67 ;
68 [label="X[1678] <= 0.5\ngini = 0.4983\nsamples = 1005\nvalue = [737, 828]"] ;
67 -> 68 ;
69 [label="X[453] <= 0.5\ngini = 0.498\nsamples = 1000\nvalue = [729, 828]"] ;
68 -> 69 ;
70 [label="X[3480] <= 0.5\ngini = 0.4982\nsamples = 997\nvalue = [729, 823]"] ;
69 -> 70 ;
71 [label="X[79] <= 0.5\ngini = 0.498\nsamples = 995\nvalue = [726, 823]"] ;
70 -> 71 ;
72 [label="X[1595] <= 0.5\ngini = 0.498\nsamples = 994\nvalue = [725, 823]"] ;
71 -> 72 ;
73 [label="X[1307] <= 0.5\ngini = 0.4978\nsamples = 992\nvalue = [721, 823]"] ;
72 -> 73 ;
74 [label="X[311] <= 0.5\ngini = 0.4979\nsamples = 991\nvalue = [721, 820]"] ;
73 -> 74 ;
75 [label="X[2920] <= 0.5\ngini = 0.4977\nsamples = 987\nvalue = [715, 820]"] ;
74 -> 75 ;
76 [label="X[642] <= 0.5\ngini = 0.4976\nsamples = 985\nvalue = [713, 820]"] ;
75 -> 76 ;
77 [label="X[1627] <= 0.5\ngini = 0.4972\nsamples = 983\nvalue = [706, 820]"] ;
76 -> 77 ;
78 [label="X[1339] <= 0.5\ngini = 0.497\nsamples = 982\nvalue = [703, 820]"] ;
77 -> 78 ;
79 [label="X[3967] <= 0.5\ngini = 0.4972\nsamples = 980\nvalue = [703, 817]"] ;
78 -> 79 ;
80 [label="X[1520] <= 0.5\ngini = 0.497\nsamples = 978\nvalue = [699, 817]"] ;
79 -> 80 ;
81 [label="X[2372] <= 0.5\ngini = 0.4969\nsamples = 977\nvalue = [697, 817]"] ;
80 -> 81 ;
82 [label="X[68] <= 0.5\ngini = 0.4966\nsamples = 973\nvalue = [692, 817]"] ;
81 -> 82 ;
83 [label="X[2138] <= 0.5\ngini = 0.4964\nsamples = 971\nvalue = [689, 817]"] ;
82 -> 83 ;
84 [label="X[1113] <= 0.5\ngini = 0.4963\nsamples = 970\nvalue = [687, 817]"] ;
83 -> 84 ;
85 [label="X[907] <= 0.5\ngini = 0.4957\nsamples = 967\nvalue = [678, 817]"] ;
84 -> 85 ;
86 [label="X[1742] <= 0.5\ngini = 0.4953\nsamples = 964\nvalue = [673, 817]"] ;
85 -> 86 ;
87 [label="X[3347] <= 0.5\ngini = 0.4952\nsamples = 963\nvalue = [671, 817]"] ;
86 -> 87 ;
88 [label="X[2171] <= 0.5\ngini = 0.495\nsamples = 962\nvalue = [668, 817]"] ;
87 -> 88 ;
89 [label="X[597] <= 0.5\ngini = 0.4952\nsamples = 960\nvalue = [668, 813]"] ;
88 -> 89 ;
90 [label="X[4997] <= 0.5\ngini = 0.4943\nsamples = 952\nvalue = [656, 813]"] ;
89 -> 90 ;
91 [label="X[2900] <= 0.5\ngini = 0.4947\nsamples = 949\nvalue = [656, 806]"] ;
90 -> 91 ;
92 [label="X[4816] <= 0.5\ngini = 0.4949\nsamples = 948\nvalue = [656, 804]"] ;
91 -> 92 ;
93 [label="X[599] <= 0.5\ngini = 0.4945\nsamples = 945\nvalue = [651, 804]"] ;
92 -> 93 ;
94 [label="X[3820] <= 0.5\ngini = 0.4943\nsamples = 943\nvalue = [649, 804]"] ;
93 -> 94 ;
95 [label="X[2957] <= 0.5\ngini = 0.4941\nsamples = 942\nvalue = [646, 804]"] ;
94 -> 95 ;
96 [label="X[1167] <= 0.5\ngini = 0.4938\nsamples = 940\nvalue = [643, 804]"] ;
95 -> 96 ;
97 [label="X[4717] <= 0.5\ngini = 0.4939\nsamples = 939\nvalue = [643, 802]"] ;
96 -> 97 ;
98 [label="X[3526] <= 0.5\ngini = 0.4938\nsamples = 938\nvalue = [641, 802]"] ;
97 -> 98 ;
99 [label="X[2066] <= 0.5\ngini = 0.494\nsamples = 936\nvalue = [641, 798]"] ;
98 -> 99 ;
100 [label="X[1251] <= 0.5\ngini = 0.4942\nsamples = 935\nvalue = [641, 796]"] ;
99 -> 100 ;
101 [label="X[1930] <= 0.5\ngini = 0.494\nsamples = 934\nvalue = [639, 796]"] ;
100 -> 101 ;
102 [label="X[4591] <= 0.5\ngini = 0.4938\nsamples = 933\nvalue = [637, 796]"] ;
101 -> 102 ;
103 [label="X[2941] <= 0.5\ngini = 0.4936\nsamples = 932\nvalue = [634, 796]"] ;
102 -> 103 ;
104 [label="X[1267] <= 0.5\ngini = 0.4938\nsamples = 929\nvalue = [634, 793]"] ;
103 -> 104 ;
105 [label="X[2529] <= 0.5\ngini = 0.4941\nsamples = 927\nvalue = [634, 788]"] ;
104 -> 105 ;
106 [label="X[1534] <= 0.5\ngini = 0.4931\nsamples = 917\nvalue = [622, 788]"] ;
105 -> 106 ;
107 [label="X[695] <= 0.5\ngini = 0.4933\nsamples = 915\nvalue = [622, 785]"] ;
106 -> 107 ;
108 [label="X[2911] <= 0.5\ngini = 0.4929\nsamples = 912\nvalue = [618, 785]"] ;
107 -> 108 ;
109 [label="X[86] <= 0.5\ngini = 0.4928\nsamples = 911\nvalue = [617, 785]"] ;
108 -> 109 ;
110 [label="X[3741] <= 0.5\ngini = 0.4923\nsamples = 910\nvalue = [612, 785]"] ;
109 -> 110 ;
111 [label="X[1192] <= 0.5\ngini = 0.492\nsamples = 908\nvalue = [609, 785]"] ;
110 -> 111 ;
112 [label="X[4501] <= 0.5\ngini = 0.4912\nsamples = 901\nvalue = [601, 785]"] ;
111 -> 112 ;
113 [label="X[4834] <= 0.5\ngini = 0.4909\nsamples = 899\nvalue = [598, 785]"] ;
112 -> 113 ;
114 [label="X[2211] <= 0.5\ngini = 0.4905\nsamples = 896\nvalue = [595, 785]"] ;
113 -> 114 ;
115 [label="X[984] <= 0.5\ngini = 0.4906\nsamples = 895\nvalue = [595, 784]"] ;
114 -> 115 ;
116 [label="X[3733] <= 0.5\ngini = 0.4903\nsamples = 892\nvalue = [592, 784]"] ;
115 -> 116 ;
117 [label="X[1100] <= 0.5\ngini = 0.4897\nsamples = 890\nvalue = [587, 784]"] ;
116 -> 117 ;
118 [label="X[3835] <= 0.5\ngini = 0.4901\nsamples = 888\nvalue = [587, 779]"] ;
117 -> 118 ;
119 [label="X[4998] <= 0.5\ngini = 0.4896\nsamples = 886\nvalue = [583, 779]"] ;
118 -> 119 ;
120 [label="X[4541] <= 0.5\ngini = 0.4902\nsamples = 883\nvalue = [583, 773]"] ;
119 -> 120 ;
121 [label="X[3081] <= 0.5\ngini = 0.4899\nsamples = 882\nvalue = [581, 773]"] ;
120 -> 121 ;
122 [label="X[1169] <= 0.5\ngini = 0.4898\nsamples = 881\nvalue = [580, 773]"] ;
121 -> 122 ;
123 [label="X[136] <= 0.5\ngini = 0.4902\nsamples = 878\nvalue = [580, 769]"] ;
122 -> 123 ;
124 [label="X[340] <= 0.5\ngini = 0.4899\nsamples = 876\nvalue = [578, 769]"] ;
123 -> 124 ;
125 [label="X[4061] <= 0.5\ngini = 0.4898\nsamples = 875\nvalue = [577, 769]"] ;
124 -> 125 ;
126 [label="X[4316] <= 0.5\ngini = 0.4896\nsamples = 874\nvalue = [575, 769]"] ;
125 -> 126 ;
127 [label="X[2876] <= 0.5\ngini = 0.4891\nsamples = 872\nvalue = [571, 769]"] ;
126 -> 127 ;
128 [label="X[1210] <= 0.5\ngini = 0.4892\nsamples = 871\nvalue = [571, 768]"] ;
127 -> 128 ;
129 [label="X[749] <= 0.5\ngini = 0.4891\nsamples = 870\nvalue = [570, 768]"] ;
128 -> 129 ;
130 [label="X[989] <= 0.5\ngini = 0.4888\nsamples = 868\nvalue = [568, 768]"] ;
129 -> 130 ;
131 [label="X[1619] <= 0.5\ngini = 0.4884\nsamples = 865\nvalue = [565, 768]"] ;
130 -> 131 ;
132 [label="X[2442] <= 0.5\ngini = 0.4881\nsamples = 864\nvalue = [563, 768]"] ;
131 -> 132 ;
133 [label="X[3561] <= 0.5\ngini = 0.4886\nsamples = 861\nvalue = [563, 763]"] ;
132 -> 133 ;
134 [label="X[276] <= 0.5\ngini = 0.4884\nsamples = 859\nvalue = [561, 763]"] ;
133 -> 134 ;
135 [label="X[2482] <= 0.5\ngini = 0.4879\nsamples = 855\nvalue = [557, 762]"] ;
134 -> 135 ;
136 [label="X[3616] <= 0.5\ngini = 0.4882\nsamples = 853\nvalue = [557, 759]"] ;
135 -> 136 ;
137 [label="X[424] <= 0.5\ngini = 0.4886\nsamples = 850\nvalue = [557, 755]"] ;
136 -> 137 ;
138 [label="X[3041] <= 0.5\ngini = 0.4882\nsamples = 848\nvalue = [554, 755]"] ;
137 -> 138 ;
139 [label="X[2877] <= 0.5\ngini = 0.4881\nsamples = 847\nvalue = [553, 755]"] ;
138 -> 139 ;
140 [label="X[964] <= 0.5\ngini = 0.4878\nsamples = 846\nvalue = [551, 755]"] ;
139 -> 140 ;
141 [label="X[3426] <= 0.5\ngini = 0.4877\nsamples = 845\nvalue = [550, 755]"] ;
140 -> 141 ;
142 [label="X[3183] <= 0.5\ngini = 0.488\nsamples = 844\nvalue = [550, 752]"] ;
141 -> 142 ;
143 [label="X[3485] <= 0.5\ngini = 0.4874\nsamples = 840\nvalue = [545, 751]"] ;
142 -> 143 ;
144 [label="X[3550] <= 0.5\ngini = 0.4872\nsamples = 839\nvalue = [544, 751]"] ;
143 -> 144 ;
145 [label="X[272] <= 0.5\ngini = 0.4874\nsamples = 837\nvalue = [544, 749]"] ;
144 -> 145 ;
146 [label="X[199] <= 0.5\ngini = 0.4871\nsamples = 836\nvalue = [542, 749]"] ;
145 -> 146 ;
147 [label="X[1168] <= 0.5\ngini = 0.4874\nsamples = 834\nvalue = [542, 747]"] ;
146 -> 147 ;
148 [label="X[1408] <= 0.5\ngini = 0.4871\nsamples = 833\nvalue = [540, 747]"] ;
147 -> 148 ;
149 [label="X[1418] <= 0.5\ngini = 0.4873\nsamples = 832\nvalue = [540, 745]"] ;
148 -> 149 ;
150 [label="X[402] <= 0.5\ngini = 0.4875\nsamples = 831\nvalue = [540, 743]"] ;
149 -> 150 ;
151 [label="X[3990] <= 0.5\ngini = 0.4872\nsamples = 830\nvalue = [538, 743]"] ;
150 -> 151 ;
152 [label="X[97] <= 0.5\ngini = 0.4883\nsamples = 825\nvalue = [538, 732]"] ;
151 -> 152 ;
153 [label="X[4783] <= 0.5\ngini = 0.4879\nsamples = 824\nvalue = [535, 732]"] ;
152 -> 153 ;
154 [label="X[2737] <= 0.5\ngini = 0.4882\nsamples = 823\nvalue = [535, 729]"] ;
153 -> 154 ;
155 [label="X[3825] <= 0.5\ngini = 0.4879\nsamples = 822\nvalue = [533, 729]"] ;
154 -> 155 ;
156 [label="X[2883] <= 0.5\ngini = 0.4877\nsamples = 821\nvalue = [531, 729]"] ;
155 -> 156 ;
157 [label="X[3150] <= 0.5\ngini = 0.4882\nsamples = 819\nvalue = [531, 724]"] ;
156 -> 157 ;
158 [label="X[2292] <= 0.5\ngini = 0.4885\nsamples = 817\nvalue = [531, 721]"] ;
157 -> 158 ;
159 [label="X[898] <= 0.5\ngini = 0.4882\nsamples = 816\nvalue = [529, 721]"] ;
158 -> 159 ;
160 [label="X[4761] <= 0.5\ngini = 0.4885\nsamples = 811\nvalue = [528, 717]"] ;
159 -> 160 ;
161 [label="X[8] <= 0.5\ngini = 0.4882\nsamples = 810\nvalue = [526, 717]"] ;
160 -> 161 ;
162 [label="X[4358] <= 0.5\ngini = 0.4885\nsamples = 808\nvalue = [526, 714]"] ;
161 -> 162 ;
163 [label="X[1764] <= 0.5\ngini = 0.4887\nsamples = 807\nvalue = [526, 712]"] ;
162 -> 163 ;
164 [label="X[2948] <= 0.5\ngini = 0.4883\nsamples = 806\nvalue = [523, 712]"] ;
163 -> 164 ;
165 [label="X[1550] <= 0.5\ngini = 0.488\nsamples = 804\nvalue = [521, 712]"] ;
164 -> 165 ;
166 [label="X[3888] <= 0.5\ngini = 0.4882\nsamples = 803\nvalue = [521, 710]"] ;
165 -> 166 ;
167 [label="X[1423] <= 0.5\ngini = 0.4879\nsamples = 801\nvalue = [519, 710]"] ;
166 -> 167 ;
168 [label="X[4478] <= 0.5\ngini = 0.4876\nsamples = 799\nvalue = [517, 710]"] ;
167 -> 168 ;
169 [label="X[2632] <= 0.5\ngini = 0.4873\nsamples = 798\nvalue = [515, 710]"] ;
168 -> 169 ;
170 [label="X[4439] <= 0.5\ngini = 0.4874\nsamples = 797\nvalue = [515, 709]"] ;
169 -> 170 ;
171 [label="X[4808] <= 0.5\ngini = 0.487\nsamples = 795\nvalue = [512, 709]"] ;
170 -> 171 ;
172 [label="X[444] <= 0.5\ngini = 0.4864\nsamples = 792\nvalue = [507, 707]"] ;
171 -> 172 ;
173 [label="X[4889] <= 0.5\ngini = 0.4867\nsamples = 790\nvalue = [507, 705]"] ;
172 -> 173 ;
174 [label="X[4734] <= 0.5\ngini = 0.4868\nsamples = 789\nvalue = [507, 704]"] ;
173 -> 174 ;
175 [label="X[769] <= 0.5\ngini = 0.4863\nsamples = 788\nvalue = [504, 704]"] ;
174 -> 175 ;
176 [label="X[619] <= 0.5\ngini = 0.4854\nsamples = 783\nvalue = [498, 703]"] ;
175 -> 176 ;
177 [label="X[1215] <= 0.5\ngini = 0.4858\nsamples = 781\nvalue = [498, 700]"] ;
176 -> 177 ;
178 [label="X[3724] <= 0.5\ngini = 0.4853\nsamples = 779\nvalue = [495, 700]"] ;
177 -> 178 ;
179 [label="X[2709] <= 0.5\ngini = 0.4855\nsamples = 778\nvalue = [495, 698]"] ;
178 -> 179 ;
180 [label="X[4164] <= 0.5\ngini = 0.4858\nsamples = 776\nvalue = [495, 696]"] ;
179 -> 180 ;
181 [label="X[1222] <= 0.5\ngini = 0.4841\nsamples = 770\nvalue = [484, 694]"] ;
180 -> 181 ;
182 [label="X[2689] <= 0.5\ngini = 0.4845\nsamples = 768\nvalue = [484, 691]"] ;
181 -> 182 ;
183 [label="X[2] <= 0.5\ngini = 0.4852\nsamples = 765\nvalue = [484, 685]"] ;
182 -> 183 ;
184 [label="X[243] <= 0.5\ngini = 0.4855\nsamples = 764\nvalue = [484, 683]"] ;
183 -> 184 ;
185 [label="X[570] <= 0.5\ngini = 0.4859\nsamples = 762\nvalue = [484, 679]"] ;
184 -> 185 ;
186 [label="X[1967] <= 0.5\ngini = 0.4853\nsamples = 760\nvalue = [480, 679]"] ;
185 -> 186 ;
187 [label="X[504] <= 0.5\ngini = 0.4853\nsamples = 757\nvalue = [478, 676]"] ;
186 -> 187 ;
188 [label="X[846] <= 0.5\ngini = 0.4849\nsamples = 756\nvalue = [476, 676]"] ;
187 -> 188 ;
189 [label="X[250] <= 0.5\ngini = 0.4846\nsamples = 755\nvalue = [474, 676]"] ;
188 -> 189 ;
190 [label="X[494] <= 0.5\ngini = 0.4844\nsamples = 754\nvalue = [473, 676]"] ;
189 -> 190 ;
191 [label="X[3756] <= 0.5\ngini = 0.4842\nsamples = 753\nvalue = [472, 676]"] ;
190 -> 191 ;
192 [label="X[4764] <= 0.5\ngini = 0.4838\nsamples = 752\nvalue = [470, 676]"] ;
191 -> 192 ;
193 [label="X[687] <= 0.5\ngini = 0.4833\nsamples = 750\nvalue = [467, 676]"] ;
192 -> 193 ;
194 [label="X[2054] <= 0.5\ngini = 0.4829\nsamples = 749\nvalue = [465, 676]"] ;
193 -> 194 ;
195 [label="X[3966] <= 0.5\ngini = 0.4825\nsamples = 748\nvalue = [463, 676]"] ;
194 -> 195 ;
196 [label="X[1124] <= 0.5\ngini = 0.4821\nsamples = 746\nvalue = [461, 676]"] ;
195 -> 196 ;
197 [label="X[3036] <= 0.5\ngini = 0.4817\nsamples = 744\nvalue = [459, 676]"] ;
196 -> 197 ;
198 [label="X[4662] <= 0.5\ngini = 0.4809\nsamples = 735\nvalue = [451, 670]"] ;
197 -> 198 ;
199 [label="X[24] <= 0.5\ngini = 0.4811\nsamples = 734\nvalue = [451, 669]"] ;
198 -> 199 ;
200 [label="X[2286] <= 0.5\ngini = 0.4798\nsamples = 730\nvalue = [445, 669]"] ;
199 -> 200 ;
201 [label="X[4242] <= 0.5\ngini = 0.4791\nsamples = 729\nvalue = [442, 669]"] ;
200 -> 201 ;
202 [label="X[3682] <= 0.5\ngini = 0.4789\nsamples = 728\nvalue = [441, 669]"] ;
201 -> 202 ;
203 [label="X[1405] <= 0.5\ngini = 0.4785\nsamples = 727\nvalue = [439, 669]"] ;
202 -> 203 ;
204 [label="X[993] <= 0.5\ngini = 0.4782\nsamples = 726\nvalue = [438, 669]"] ;
203 -> 204 ;
205 [label="X[977] <= 0.5\ngini = 0.478\nsamples = 725\nvalue = [437, 669]"] ;
204 -> 205 ;
206 [label="X[353] <= 0.5\ngini = 0.4778\nsamples = 724\nvalue = [436, 669]"] ;
205 -> 206 ;
207 [label="X[4193] <= 0.5\ngini = 0.4773\nsamples = 723\nvalue = [434, 669]"] ;
206 -> 207 ;
208 [label="X[1447] <= 0.5\ngini = 0.4766\nsamples = 721\nvalue = [431, 669]"] ;
207 -> 208 ;
209 [label="X[2137] <= 0.5\ngini = 0.4767\nsamples = 720\nvalue = [431, 668]"] ;
208 -> 209 ;
210 [label="X[759] <= 0.5\ngini = 0.4772\nsamples = 719\nvalue = [431, 665]"] ;
209 -> 210 ;
211 [label="X[675] <= 0.5\ngini = 0.477\nsamples = 718\nvalue = [430, 665]"] ;
210 -> 211 ;
212 [label="X[1583] <= 0.5\ngini = 0.4774\nsamples = 717\nvalue = [430, 662]"] ;
211 -> 212 ;
213 [label="X[3221] <= 0.5\ngini = 0.4772\nsamples = 716\nvalue = [429, 662]"] ;
212 -> 213 ;
214 [label="X[2592] <= 0.5\ngini = 0.4767\nsamples = 715\nvalue = [427, 662]"] ;
213 -> 214 ;
215 [label="X[3898] <= 0.5\ngini = 0.477\nsamples = 713\nvalue = [427, 660]"] ;
214 -> 215 ;
216 [label="X[3533] <= 0.5\ngini = 0.4768\nsamples = 712\nvalue = [426, 660]"] ;
215 -> 216 ;
217 [label="X[2761] <= 0.5\ngini = 0.4773\nsamples = 710\nvalue = [426, 657]"] ;
216 -> 217 ;
218 [label="X[1661] <= 0.5\ngini = 0.4765\nsamples = 708\nvalue = [423, 657]"] ;
217 -> 218 ;
219 [label="X[266] <= 0.5\ngini = 0.476\nsamples = 707\nvalue = [421, 657]"] ;
218 -> 219 ;
220 [label="X[2708] <= 0.5\ngini = 0.4746\nsamples = 698\nvalue = [412, 652]"] ;
219 -> 220 ;
221 [label="X[4587] <= 0.5\ngini = 0.4735\nsamples = 696\nvalue = [408, 652]"] ;
220 -> 221 ;
222 [label="X[1009] <= 0.5\ngini = 0.473\nsamples = 694\nvalue = [406, 652]"] ;
221 -> 222 ;
223 [label="X[3511] <= 0.5\ngini = 0.4733\nsamples = 693\nvalue = [406, 650]"] ;
222 -> 223 ;
224 [label="X[3846] <= 0.5\ngini = 0.474\nsamples = 691\nvalue = [406, 646]"] ;
223 -> 224 ;
225 [label="X[4036] <= 0.5\ngini = 0.4734\nsamples = 690\nvalue = [404, 646]"] ;
224 -> 225 ;
226 [label="X[3885] <= 0.5\ngini = 0.4741\nsamples = 687\nvalue = [404, 642]"] ;
225 -> 226 ;
227 [label="X[1659] <= 0.5\ngini = 0.4728\nsamples = 685\nvalue = [399, 642]"] ;
226 -> 227 ;
228 [label="X[322] <= 0.5\ngini = 0.4729\nsamples = 684\nvalue = [399, 641]"] ;
227 -> 228 ;
229 [label="X[2281] <= 0.5\ngini = 0.4724\nsamples = 683\nvalue = [397, 641]"] ;
228 -> 229 ;
230 [label="X[1029] <= 0.5\ngini = 0.4718\nsamples = 682\nvalue = [395, 641]"] ;
229 -> 230 ;
231 [label="X[352] <= 0.5\ngini = 0.4712\nsamples = 681\nvalue = [393, 641]"] ;
230 -> 231 ;
232 [label="X[507] <= 0.5\ngini = 0.4718\nsamples = 679\nvalue = [393, 638]"] ;
231 -> 232 ;
233 [label="X[4872] <= 0.5\ngini = 0.4715\nsamples = 678\nvalue = [392, 638]"] ;
232 -> 233 ;
234 [label="X[3243] <= 0.5\ngini = 0.4706\nsamples = 677\nvalue = [389, 638]"] ;
233 -> 234 ;
235 [label="X[650] <= 0.5\ngini = 0.4717\nsamples = 672\nvalue = [389, 632]"] ;
234 -> 235 ;
236 [label="X[308] <= 0.5\ngini = 0.469\nsamples = 667\nvalue = [380, 632]"] ;
235 -> 236 ;
237 [label="X[327] <= 0.5\ngini = 0.4687\nsamples = 666\nvalue = [379, 632]"] ;
236 -> 237 ;
238 [label="X[3003] <= 0.5\ngini = 0.4681\nsamples = 664\nvalue = [377, 632]"] ;
237 -> 238 ;
239 [label="X[3011] <= 0.5\ngini = 0.4688\nsamples = 660\nvalue = [377, 628]"] ;
238 -> 239 ;
240 [label="X[4279] <= 0.5\ngini = 0.4682\nsamples = 658\nvalue = [375, 628]"] ;
239 -> 240 ;
241 [label="X[4196] <= 0.5\ngini = 0.4679\nsamples = 657\nvalue = [374, 628]"] ;
240 -> 241 ;
242 [label="X[1632] <= 0.5\ngini = 0.4676\nsamples = 656\nvalue = [373, 628]"] ;
241 -> 242 ;
243 [label="X[1694] <= 0.5\ngini = 0.4681\nsamples = 655\nvalue = [373, 625]"] ;
242 -> 243 ;
244 [label="X[2881] <= 0.5\ngini = 0.468\nsamples = 653\nvalue = [372, 624]"] ;
243 -> 244 ;
245 [label="X[4340] <= 0.5\ngini = 0.4674\nsamples = 652\nvalue = [370, 624]"] ;
244 -> 245 ;
246 [label="X[3633] <= 0.5\ngini = 0.4669\nsamples = 650\nvalue = [368, 623]"] ;
245 -> 246 ;
247 [label="X[1801] <= 0.5\ngini = 0.4673\nsamples = 648\nvalue = [368, 621]"] ;
246 -> 247 ;
248 [label="X[2727] <= 0.5\ngini = 0.467\nsamples = 647\nvalue = [367, 621]"] ;
247 -> 248 ;
249 [label="X[3921] <= 0.5\ngini = 0.4666\nsamples = 646\nvalue = [366, 621]"] ;
248 -> 249 ;
250 [label="X[561] <= 0.5\ngini = 0.4663\nsamples = 645\nvalue = [365, 621]"] ;
249 -> 250 ;
251 [label="X[2058] <= 0.5\ngini = 0.466\nsamples = 644\nvalue = [364, 621]"] ;
250 -> 251 ;
252 [label="X[96] <= 0.5\ngini = 0.4662\nsamples = 643\nvalue = [364, 620]"] ;
251 -> 252 ;
253 [label="X[4933] <= 0.5\ngini = 0.4665\nsamples = 641\nvalue = [364, 618]"] ;
252 -> 253 ;
254 [label="X[824] <= 0.5\ngini = 0.4667\nsamples = 640\nvalue = [364, 617]"] ;
253 -> 254 ;
255 [label="X[3165] <= 0.5\ngini = 0.464\nsamples = 638\nvalue = [356, 617]"] ;
254 -> 255 ;
256 [label="X[3903] <= 0.5\ngini = 0.4644\nsamples = 637\nvalue = [356, 615]"] ;
255 -> 256 ;
257 [label="X[4162] <= 0.5\ngini = 0.4648\nsamples = 636\nvalue = [356, 613]"] ;
256 -> 257 ;
258 [label="X[2264] <= 0.5\ngini = 0.4647\nsamples = 634\nvalue = [355, 612]"] ;
257 -> 258 ;
259 [label="X[534] <= 0.5\ngini = 0.4629\nsamples = 632\nvalue = [350, 612]"] ;
258 -> 259 ;
260 [label="X[3050] <= 0.5\ngini = 0.4635\nsamples = 630\nvalue = [350, 609]"] ;
259 -> 260 ;
261 [label="X[4655] <= 0.5\ngini = 0.4632\nsamples = 629\nvalue = [349, 609]"] ;
260 -> 261 ;
262 [label="X[2398] <= 0.5\ngini = 0.4636\nsamples = 628\nvalue = [349, 607]"] ;
261 -> 262 ;
263 [label="X[1385] <= 0.5\ngini = 0.4632\nsamples = 627\nvalue = [348, 607]"] ;
262 -> 263 ;
264 [label="X[452] <= 0.5\ngini = 0.4625\nsamples = 625\nvalue = [346, 607]"] ;
263 -> 264 ;
265 [label="X[2085] <= 0.5\ngini = 0.4634\nsamples = 620\nvalue = [344, 599]"] ;
264 -> 265 ;
266 [label="X[519] <= 0.5\ngini = 0.4636\nsamples = 619\nvalue = [344, 598]"] ;
265 -> 266 ;
267 [label="X[3492] <= 0.5\ngini = 0.4614\nsamples = 616\nvalue = [338, 598]"] ;
266 -> 267 ;
268 [label="X[2544] <= 0.5\ngini = 0.461\nsamples = 615\nvalue = [337, 598]"] ;
267 -> 268 ;
269 [label="X[108] <= 0.5\ngini = 0.4615\nsamples = 614\nvalue = [337, 596]"] ;
268 -> 269 ;
270 [label="X[3218] <= 0.5\ngini = 0.4617\nsamples = 613\nvalue = [337, 595]"] ;
269 -> 270 ;
271 [label="X[2996] <= 0.5\ngini = 0.4619\nsamples = 612\nvalue = [337, 594]"] ;
270 -> 271 ;
272 [label="X[685] <= 0.5\ngini = 0.4615\nsamples = 611\nvalue = [336, 594]"] ;
271 -> 272 ;
273 [label="X[4310] <= 0.5\ngini = 0.46\nsamples = 610\nvalue = [332, 594]"] ;
272 -> 273 ;
274 [label="X[2792] <= 0.5\ngini = 0.4602\nsamples = 609\nvalue = [332, 593]"] ;
273 -> 274 ;
275 [label="X[804] <= 0.5\ngini = 0.4594\nsamples = 607\nvalue = [330, 593]"] ;
274 -> 275 ;
276 [label="X[1814] <= 0.5\ngini = 0.4598\nsamples = 606\nvalue = [330, 591]"] ;
275 -> 276 ;
277 [label="X[3482] <= 0.5\ngini = 0.4603\nsamples = 604\nvalue = [330, 589]"] ;
276 -> 277 ;
278 [label="X[176] <= 0.5\ngini = 0.4599\nsamples = 603\nvalue = [329, 589]"] ;
277 -> 278 ;
279 [label="X[294] <= 0.5\ngini = 0.4606\nsamples = 602\nvalue = [329, 586]"] ;
278 -> 279 ;
280 [label="X[3232] <= 0.5\ngini = 0.461\nsamples = 600\nvalue = [329, 584]"] ;
279 -> 280 ;
281 [label="X[4206] <= 0.5\ngini = 0.4606\nsamples = 599\nvalue = [328, 584]"] ;
280 -> 281 ;
282 [label="X[4852] <= 0.5\ngini = 0.4598\nsamples = 598\nvalue = [326, 584]"] ;
281 -> 282 ;
283 [label="X[1309] <= 0.5\ngini = 0.46\nsamples = 597\nvalue = [326, 583]"] ;
282 -> 283 ;
284 [label="X[287] <= 0.5\ngini = 0.4596\nsamples = 596\nvalue = [325, 583]"] ;
283 -> 284 ;
285 [label="X[3870] <= 0.5\ngini = 0.4599\nsamples = 595\nvalue = [325, 582]"] ;
284 -> 285 ;
286 [label="X[160] <= 0.5\ngini = 0.4595\nsamples = 594\nvalue = [324, 582]"] ;
285 -> 286 ;
287 [label="X[785] <= 0.5\ngini = 0.4601\nsamples = 592\nvalue = [324, 579]"] ;
286 -> 287 ;
288 [label="X[4843] <= 0.5\ngini = 0.4604\nsamples = 591\nvalue = [324, 578]"] ;
287 -> 288 ;
289 [label="X[4979] <= 0.5\ngini = 0.4595\nsamples = 590\nvalue = [322, 578]"] ;
288 -> 289 ;
290 [label="X[2882] <= 0.5\ngini = 0.4591\nsamples = 589\nvalue = [321, 578]"] ;
289 -> 290 ;
291 [label="X[4114] <= 0.5\ngini = 0.4594\nsamples = 588\nvalue = [321, 577]"] ;
290 -> 291 ;
292 [label="X[3111] <= 0.5\ngini = 0.4585\nsamples = 587\nvalue = [319, 577]"] ;
291 -> 292 ;
293 [label="X[2414] <= 0.5\ngini = 0.459\nsamples = 586\nvalue = [319, 575]"] ;
292 -> 293 ;
294 [label="X[4059] <= 0.5\ngini = 0.4584\nsamples = 583\nvalue = [317, 574]"] ;
293 -> 294 ;
295 [label="X[827] <= 0.5\ngini = 0.4571\nsamples = 582\nvalue = [314, 574]"] ;
294 -> 295 ;
296 [label="X[499] <= 0.5\ngini = 0.4567\nsamples = 581\nvalue = [313, 574]"] ;
295 -> 296 ;
297 [label="X[4883] <= 0.5\ngini = 0.4554\nsamples = 579\nvalue = [310, 574]"] ;
296 -> 297 ;
298 [label="X[3196] <= 0.5\ngini = 0.455\nsamples = 578\nvalue = [309, 574]"] ;
297 -> 298 ;
299 [label="X[4135] <= 0.5\ngini = 0.4554\nsamples = 577\nvalue = [309, 572]"] ;
298 -> 299 ;
300 [label="X[1846] <= 0.5\ngini = 0.4546\nsamples = 576\nvalue = [307, 572]"] ;
299 -> 300 ;
301 [label="X[2369] <= 0.5\ngini = 0.4541\nsamples = 575\nvalue = [306, 572]"] ;
300 -> 301 ;
302 [label="X[847] <= 0.5\ngini = 0.4537\nsamples = 574\nvalue = [305, 572]"] ;
301 -> 302 ;
303 [label="X[3838] <= 0.5\ngini = 0.4532\nsamples = 573\nvalue = [304, 572]"] ;
302 -> 303 ;
304 [label="X[702] <= 0.5\ngini = 0.4534\nsamples = 572\nvalue = [304, 571]"] ;
303 -> 304 ;
305 [label="X[1805] <= 0.5\ngini = 0.4542\nsamples = 570\nvalue = [304, 568]"] ;
304 -> 305 ;
306 [label="X[2014] <= 0.5\ngini = 0.4537\nsamples = 569\nvalue = [303, 568]"] ;
305 -> 306 ;
307 [label="X[1369] <= 0.5\ngini = 0.4533\nsamples = 568\nvalue = [302, 568]"] ;
306 -> 307 ;
308 [label="X[3392] <= 0.5\ngini = 0.4528\nsamples = 566\nvalue = [300, 566]"] ;
307 -> 308 ;
309 [label="X[551] <= 0.5\ngini = 0.4524\nsamples = 565\nvalue = [299, 566]"] ;
308 -> 309 ;
310 [label="X[2889] <= 0.5\ngini = 0.4505\nsamples = 563\nvalue = [295, 566]"] ;
309 -> 310 ;
311 [label="X[1180] <= 0.5\ngini = 0.4517\nsamples = 561\nvalue = [295, 561]"] ;
310 -> 311 ;
312 [label="X[3948] <= 0.5\ngini = 0.4512\nsamples = 560\nvalue = [294, 561]"] ;
311 -> 312 ;
313 [label="X[1295] <= 0.5\ngini = 0.451\nsamples = 558\nvalue = [293, 560]"] ;
312 -> 313 ;
314 [label="X[4128] <= 0.5\ngini = 0.4513\nsamples = 557\nvalue = [293, 559]"] ;
313 -> 314 ;
315 [label="X[4109] <= 0.5\ngini = 0.452\nsamples = 553\nvalue = [292, 554]"] ;
314 -> 315 ;
316 [label="X[3254] <= 0.5\ngini = 0.4511\nsamples = 552\nvalue = [290, 554]"] ;
315 -> 316 ;
317 [label="X[4169] <= 0.5\ngini = 0.4513\nsamples = 551\nvalue = [290, 553]"] ;
316 -> 317 ;
318 [label="X[4615] <= 0.5\ngini = 0.4516\nsamples = 550\nvalue = [290, 552]"] ;
317 -> 318 ;
319 [label="X[1010] <= 0.5\ngini = 0.4521\nsamples = 549\nvalue = [290, 550]"] ;
318 -> 319 ;
320 [label="X[3350] <= 0.5\ngini = 0.4501\nsamples = 548\nvalue = [286, 550]"] ;
319 -> 320 ;
321 [label="X[4972] <= 0.5\ngini = 0.4504\nsamples = 547\nvalue = [286, 549]"] ;
320 -> 321 ;
322 [label="X[664] <= 0.5\ngini = 0.4517\nsamples = 545\nvalue = [286, 544]"] ;
321 -> 322 ;
323 [label="X[3142] <= 0.5\ngini = 0.4519\nsamples = 544\nvalue = [286, 543]"] ;
322 -> 323 ;
324 [label="X[1277] <= 0.5\ngini = 0.4522\nsamples = 543\nvalue = [286, 542]"] ;
323 -> 324 ;
325 [label="X[1445] <= 0.5\ngini = 0.4512\nsamples = 542\nvalue = [284, 542]"] ;
324 -> 325 ;
326 [label="X[4335] <= 0.5\ngini = 0.4507\nsamples = 541\nvalue = [283, 542]"] ;
325 -> 326 ;
327 [label="X[486] <= 0.5\ngini = 0.451\nsamples = 540\nvalue = [283, 541]"] ;
326 -> 327 ;
328 [label="X[1699] <= 0.5\ngini = 0.4518\nsamples = 539\nvalue = [283, 538]"] ;
327 -> 328 ;
329 [label="X[1927] <= 0.5\ngini = 0.452\nsamples = 538\nvalue = [283, 537]"] ;
328 -> 329 ;
330 [label="X[2144] <= 0.5\ngini = 0.4525\nsamples = 536\nvalue = [283, 535]"] ;
329 -> 330 ;
331 [label="X[1957] <= 0.5\ngini = 0.4516\nsamples = 535\nvalue = [281, 535]"] ;
330 -> 331 ;
332 [label="X[2990] <= 0.5\ngini = 0.4511\nsamples = 534\nvalue = [280, 535]"] ;
331 -> 332 ;
333 [label="X[2234] <= 0.5\ngini = 0.4501\nsamples = 531\nvalue = [277, 533]"] ;
332 -> 333 ;
334 [label="X[1201] <= 0.5\ngini = 0.4501\nsamples = 529\nvalue = [276, 531]"] ;
333 -> 334 ;
335 [label="X[4149] <= 0.5\ngini = 0.4496\nsamples = 528\nvalue = [275, 531]"] ;
334 -> 335 ;
336 [label="X[2215] <= 0.5\ngini = 0.4485\nsamples = 526\nvalue = [273, 531]"] ;
335 -> 336 ;
337 [label="X[4132] <= 0.5\ngini = 0.4496\nsamples = 525\nvalue = [273, 527]"] ;
336 -> 337 ;
338 [label="X[4799] <= 0.5\ngini = 0.4491\nsamples = 524\nvalue = [272, 527]"] ;
337 -> 338 ;
339 [label="X[4022] <= 0.5\ngini = 0.4496\nsamples = 522\nvalue = [272, 525]"] ;
338 -> 339 ;
340 [label="X[1229] <= 0.5\ngini = 0.4486\nsamples = 520\nvalue = [270, 525]"] ;
339 -> 340 ;
341 [label="X[4868] <= 0.5\ngini = 0.4491\nsamples = 519\nvalue = [270, 523]"] ;
340 -> 341 ;
342 [label="X[1358] <= 0.5\ngini = 0.4486\nsamples = 518\nvalue = [269, 523]"] ;
341 -> 342 ;
343 [label="X[2548] <= 0.5\ngini = 0.448\nsamples = 517\nvalue = [268, 523]"] ;
342 -> 343 ;
344 [label="X[3233] <= 0.5\ngini = 0.4483\nsamples = 516\nvalue = [268, 522]"] ;
343 -> 344 ;
345 [label="X[498] <= 0.5\ngini = 0.4486\nsamples = 515\nvalue = [268, 521]"] ;
344 -> 345 ;
346 [label="X[2731] <= 0.5\ngini = 0.4481\nsamples = 514\nvalue = [267, 521]"] ;
345 -> 346 ;
347 [label="X[2468] <= 0.5\ngini = 0.4492\nsamples = 511\nvalue = [267, 517]"] ;
346 -> 347 ;
348 [label="X[1547] <= 0.5\ngini = 0.4475\nsamples = 510\nvalue = [264, 517]"] ;
347 -> 348 ;
349 [label="X[957] <= 0.5\ngini = 0.4481\nsamples = 509\nvalue = [264, 515]"] ;
348 -> 349 ;
350 [label="X[3475] <= 0.5\ngini = 0.4475\nsamples = 508\nvalue = [263, 515]"] ;
349 -> 350 ;
351 [label="X[2100] <= 0.5\ngini = 0.4478\nsamples = 507\nvalue = [263, 514]"] ;
350 -> 351 ;
352 [label="X[4278] <= 0.5\ngini = 0.4481\nsamples = 506\nvalue = [263, 513]"] ;
351 -> 352 ;
353 [label="X[1313] <= 0.5\ngini = 0.4487\nsamples = 505\nvalue = [263, 511]"] ;
352 -> 353 ;
354 [label="X[2856] <= 0.5\ngini = 0.4495\nsamples = 503\nvalue = [263, 508]"] ;
353 -> 354 ;
355 [label="X[925] <= 0.5\ngini = 0.4473\nsamples = 501\nvalue = [259, 508]"] ;
354 -> 355 ;
356 [label="X[1095] <= 0.5\ngini = 0.4479\nsamples = 500\nvalue = [259, 506]"] ;
355 -> 356 ;
357 [label="X[4179] <= 0.5\ngini = 0.4487\nsamples = 499\nvalue = [259, 503]"] ;
356 -> 357 ;
358 [label="X[3699] <= 0.5\ngini = 0.449\nsamples = 498\nvalue = [259, 502]"] ;
357 -> 358 ;
359 [label="X[2318] <= 0.5\ngini = 0.4493\nsamples = 497\nvalue = [259, 501]"] ;
358 -> 359 ;
360 [label="X[2591] <= 0.5\ngini = 0.4476\nsamples = 496\nvalue = [256, 501]"] ;
359 -> 360 ;
361 [label="X[1133] <= 0.5\ngini = 0.4482\nsamples = 494\nvalue = [256, 499]"] ;
360 -> 361 ;
362 [label="X[3193] <= 0.5\ngini = 0.4471\nsamples = 493\nvalue = [254, 499]"] ;
361 -> 362 ;
363 [label="X[3040] <= 0.5\ngini = 0.4471\nsamples = 491\nvalue = [253, 497]"] ;
362 -> 363 ;
364 [label="X[4397] <= 0.5\ngini = 0.4459\nsamples = 490\nvalue = [251, 497]"] ;
363 -> 364 ;
365 [label="X[1948] <= 0.5\ngini = 0.4468\nsamples = 489\nvalue = [251, 494]"] ;
364 -> 365 ;
366 [label="X[3958] <= 0.5\ngini = 0.4474\nsamples = 488\nvalue = [251, 492]"] ;
365 -> 366 ;
367 [label="X[2765] <= 0.5\ngini = 0.4477\nsamples = 487\nvalue = [251, 491]"] ;
366 -> 367 ;
368 [label="X[331] <= 0.5\ngini = 0.4459\nsamples = 486\nvalue = [248, 491]"] ;
367 -> 368 ;
369 [label="X[2363] <= 0.5\ngini = 0.4447\nsamples = 485\nvalue = [246, 491]"] ;
368 -> 369 ;
370 [label="X[2594] <= 0.5\ngini = 0.4453\nsamples = 483\nvalue = [246, 489]"] ;
369 -> 370 ;
371 [label="X[4099] <= 0.5\ngini = 0.4463\nsamples = 481\nvalue = [246, 486]"] ;
370 -> 371 ;
372 [label="X[4974] <= 0.5\ngini = 0.4457\nsamples = 480\nvalue = [245, 486]"] ;
371 -> 372 ;
373 [label="X[3356] <= 0.5\ngini = 0.4438\nsamples = 479\nvalue = [242, 486]"] ;
372 -> 373 ;
374 [label="X[1382] <= 0.5\ngini = 0.4426\nsamples = 478\nvalue = [240, 486]"] ;
373 -> 374 ;
375 [label="X[4154] <= 0.5\ngini = 0.4407\nsamples = 477\nvalue = [237, 486]"] ;
374 -> 375 ;
376 [label="X[1610] <= 0.5\ngini = 0.4401\nsamples = 476\nvalue = [236, 486]"] ;
375 -> 376 ;
377 [label="X[3512] <= 0.5\ngini = 0.4388\nsamples = 474\nvalue = [234, 486]"] ;
376 -> 377 ;
378 [label="X[3093] <= 0.5\ngini = 0.4394\nsamples = 473\nvalue = [234, 484]"] ;
377 -> 378 ;
379 [label="X[715] <= 0.5\ngini = 0.4381\nsamples = 472\nvalue = [232, 484]"] ;
378 -> 379 ;
380 [label="X[3210] <= 0.5\ngini = 0.4367\nsamples = 471\nvalue = [230, 484]"] ;
379 -> 380 ;
381 [label="X[1719] <= 0.5\ngini = 0.437\nsamples = 470\nvalue = [230, 483]"] ;
380 -> 381 ;
382 [label="X[1596] <= 0.5\ngini = 0.4374\nsamples = 469\nvalue = [230, 482]"] ;
381 -> 382 ;
383 [label="X[4095] <= 0.5\ngini = 0.4346\nsamples = 467\nvalue = [226, 482]"] ;
382 -> 383 ;
384 [label="X[4272] <= 0.5\ngini = 0.4339\nsamples = 466\nvalue = [225, 482]"] ;
383 -> 384 ;
385 [label="X[4647] <= 0.5\ngini = 0.4356\nsamples = 463\nvalue = [225, 477]"] ;
384 -> 385 ;
386 [label="X[1858] <= 0.5\ngini = 0.4362\nsamples = 462\nvalue = [225, 475]"] ;
385 -> 386 ;
387 [label="X[4116] <= 0.5\ngini = 0.4366\nsamples = 461\nvalue = [225, 474]"] ;
386 -> 387 ;
388 [label="X[2612] <= 0.5\ngini = 0.4359\nsamples = 460\nvalue = [224, 474]"] ;
387 -> 388 ;
389 [label="X[701] <= 0.5\ngini = 0.4365\nsamples = 459\nvalue = [224, 472]"] ;
388 -> 389 ;
390 [label="X[446] <= 0.5\ngini = 0.4337\nsamples = 457\nvalue = [220, 472]"] ;
389 -> 390 ;
391 [label="X[1571] <= 0.5\ngini = 0.4315\nsamples = 454\nvalue = [217, 472]"] ;
390 -> 391 ;
392 [label="X[2795] <= 0.5\ngini = 0.4319\nsamples = 453\nvalue = [217, 471]"] ;
391 -> 392 ;
393 [label="X[1885] <= 0.5\ngini = 0.4311\nsamples = 452\nvalue = [216, 471]"] ;
392 -> 393 ;
394 [label="X[1299] <= 0.5\ngini = 0.4318\nsamples = 451\nvalue = [216, 469]"] ;
393 -> 394 ;
395 [label="X[4533] <= 0.5\ngini = 0.4309\nsamples = 446\nvalue = [213, 465]"] ;
394 -> 395 ;
396 [label="X[882] <= 0.5\ngini = 0.4323\nsamples = 444\nvalue = [213, 461]"] ;
395 -> 396 ;
397 [label="X[2904] <= 0.5\ngini = 0.4327\nsamples = 443\nvalue = [213, 460]"] ;
396 -> 397 ;
398 [label="X[3314] <= 0.5\ngini = 0.4315\nsamples = 441\nvalue = [211, 459]"] ;
397 -> 398 ;
399 [label="X[4581] <= 0.5\ngini = 0.4307\nsamples = 440\nvalue = [210, 459]"] ;
398 -> 399 ;
400 [label="X[1345] <= 0.5\ngini = 0.4318\nsamples = 439\nvalue = [210, 456]"] ;
399 -> 400 ;
401 [label="X[2464] <= 0.5\ngini = 0.4321\nsamples = 438\nvalue = [210, 455]"] ;
400 -> 401 ;
402 [label="X[2572] <= 0.5\ngini = 0.4328\nsamples = 437\nvalue = [210, 453]"] ;
401 -> 402 ;
403 [label="X[3386] <= 0.5\ngini = 0.4346\nsamples = 434\nvalue = [210, 448]"] ;
402 -> 403 ;
404 [label="X[3184] <= 0.5\ngini = 0.4349\nsamples = 433\nvalue = [210, 447]"] ;
403 -> 404 ;
405 [label="X[3423] <= 0.5\ngini = 0.437\nsamples = 429\nvalue = [210, 441]"] ;
404 -> 405 ;
406 [label="X[4682] <= 0.5\ngini = 0.4374\nsamples = 428\nvalue = [210, 440]"] ;
405 -> 406 ;
407 [label="X[222] <= 0.5\ngini = 0.4359\nsamples = 427\nvalue = [208, 440]"] ;
406 -> 407 ;
408 [label="X[582] <= 0.5\ngini = 0.4363\nsamples = 426\nvalue = [208, 439]"] ;
407 -> 408 ;
409 [label="X[3828] <= 0.5\ngini = 0.437\nsamples = 424\nvalue = [208, 437]"] ;
408 -> 409 ;
410 [label="X[4659] <= 0.5\ngini = 0.4373\nsamples = 423\nvalue = [208, 436]"] ;
409 -> 410 ;
411 [label="X[1258] <= 0.5\ngini = 0.4366\nsamples = 422\nvalue = [207, 436]"] ;
410 -> 411 ;
412 [label="X[4943] <= 0.5\ngini = 0.438\nsamples = 420\nvalue = [207, 432]"] ;
411 -> 412 ;
413 [label="X[1511] <= 0.5\ngini = 0.4357\nsamples = 419\nvalue = [204, 432]"] ;
412 -> 413 ;
414 [label="X[3672] <= 0.5\ngini = 0.4368\nsamples = 418\nvalue = [204, 429]"] ;
413 -> 414 ;
415 [label="X[2517] <= 0.5\ngini = 0.4376\nsamples = 417\nvalue = [204, 427]"] ;
414 -> 415 ;
416 [label="X[2193] <= 0.5\ngini = 0.436\nsamples = 416\nvalue = [202, 427]"] ;
415 -> 416 ;
417 [label="X[1800] <= 0.5\ngini = 0.4368\nsamples = 414\nvalue = [202, 425]"] ;
416 -> 417 ;
418 [label="X[4779] <= 0.5\ngini = 0.4307\nsamples = 408\nvalue = [194, 424]"] ;
417 -> 418 ;
419 [label="X[3976] <= 0.5\ngini = 0.4315\nsamples = 407\nvalue = [194, 422]"] ;
418 -> 419 ;
420 [label="X[554] <= 0.5\ngini = 0.4307\nsamples = 406\nvalue = [193, 422]"] ;
419 -> 420 ;
421 [label="X[414] <= 0.5\ngini = 0.4298\nsamples = 405\nvalue = [192, 422]"] ;
420 -> 421 ;
422 [label="X[2887] <= 0.5\ngini = 0.4306\nsamples = 403\nvalue = [192, 420]"] ;
421 -> 422 ;
423 [label="X[4284] <= 0.5\ngini = 0.4314\nsamples = 401\nvalue = [192, 418]"] ;
422 -> 423 ;
424 [label="X[4371] <= 0.5\ngini = 0.4305\nsamples = 400\nvalue = [191, 418]"] ;
423 -> 424 ;
425 [label="X[835] <= 0.5\ngini = 0.4309\nsamples = 399\nvalue = [191, 417]"] ;
424 -> 425 ;
426 [label="X[1713] <= 0.5\ngini = 0.4313\nsamples = 398\nvalue = [191, 416]"] ;
425 -> 426 ;
427 [label="X[2225] <= 0.5\ngini = 0.4288\nsamples = 397\nvalue = [188, 416]"] ;
426 -> 427 ;
428 [label="X[4085] <= 0.5\ngini = 0.4279\nsamples = 396\nvalue = [187, 416]"] ;
427 -> 428 ;
429 [label="X[558] <= 0.5\ngini = 0.4283\nsamples = 395\nvalue = [187, 415]"] ;
428 -> 429 ;
430 [label="X[1351] <= 0.5\ngini = 0.4287\nsamples = 394\nvalue = [187, 414]"] ;
429 -> 430 ;
431 [label="X[562] <= 0.5\ngini = 0.4269\nsamples = 393\nvalue = [185, 414]"] ;
430 -> 431 ;
432 [label="X[2613] <= 0.5\ngini = 0.4277\nsamples = 392\nvalue = [185, 412]"] ;
431 -> 432 ;
433 [label="X[1848] <= 0.5\ngini = 0.4285\nsamples = 391\nvalue = [185, 410]"] ;
432 -> 433 ;
434 [label="X[4673] <= 0.5\ngini = 0.4301\nsamples = 388\nvalue = [185, 406]"] ;
433 -> 434 ;
435 [label="X[1985] <= 0.5\ngini = 0.4287\nsamples = 386\nvalue = [183, 405]"] ;
434 -> 435 ;
436 [label="X[648] <= 0.5\ngini = 0.4291\nsamples = 385\nvalue = [183, 404]"] ;
435 -> 436 ;
437 [label="X[4394] <= 0.5\ngini = 0.4282\nsamples = 384\nvalue = [182, 404]"] ;
436 -> 437 ;
438 [label="X[2413] <= 0.5\ngini = 0.429\nsamples = 383\nvalue = [182, 402]"] ;
437 -> 438 ;
439 [label="X[377] <= 0.5\ngini = 0.4273\nsamples = 382\nvalue = [180, 402]"] ;
438 -> 439 ;
440 [label="X[1477] <= 0.5\ngini = 0.4289\nsamples = 379\nvalue = [180, 398]"] ;
439 -> 440 ;
441 [label="X[2950] <= 0.5\ngini = 0.4301\nsamples = 377\nvalue = [180, 395]"] ;
440 -> 441 ;
442 [label="X[3163] <= 0.5\ngini = 0.4283\nsamples = 376\nvalue = [178, 395]"] ;
441 -> 442 ;
443 [label="X[2590] <= 0.5\ngini = 0.4287\nsamples = 375\nvalue = [178, 394]"] ;
442 -> 443 ;
444 [label="X[649] <= 0.5\ngini = 0.4278\nsamples = 374\nvalue = [177, 394]"] ;
443 -> 444 ;
445 [label="X[2466] <= 0.5\ngini = 0.4259\nsamples = 373\nvalue = [175, 394]"] ;
444 -> 445 ;
446 [label="X[889] <= 0.5\ngini = 0.425\nsamples = 372\nvalue = [174, 394]"] ;
445 -> 446 ;
447 [label="X[286] <= 0.5\ngini = 0.4271\nsamples = 370\nvalue = [174, 389]"] ;
446 -> 447 ;
448 [label="X[1986] <= 0.5\ngini = 0.4275\nsamples = 369\nvalue = [174, 388]"] ;
447 -> 448 ;
449 [label="X[4952] <= 0.5\ngini = 0.4279\nsamples = 368\nvalue = [174, 387]"] ;
448 -> 449 ;
450 [label="X[4172] <= 0.5\ngini = 0.4283\nsamples = 367\nvalue = [174, 386]"] ;
449 -> 450 ;
451 [label="X[1577] <= 0.5\ngini = 0.4288\nsamples = 366\nvalue = [174, 385]"] ;
450 -> 451 ;
452 [label="X[2703] <= 0.5\ngini = 0.43\nsamples = 364\nvalue = [174, 382]"] ;
451 -> 452 ;
453 [label="X[3714] <= 0.5\ngini = 0.4272\nsamples = 362\nvalue = [171, 382]"] ;
452 -> 453 ;
454 [label="X[4077] <= 0.5\ngini = 0.4281\nsamples = 361\nvalue = [171, 380]"] ;
453 -> 454 ;
455 [label="X[459] <= 0.5\ngini = 0.4293\nsamples = 360\nvalue = [171, 377]"] ;
454 -> 455 ;
456 [label="X[3709] <= 0.5\ngini = 0.4284\nsamples = 359\nvalue = [170, 377]"] ;
455 -> 456 ;
457 [label="X[4677] <= 0.5\ngini = 0.4288\nsamples = 358\nvalue = [170, 376]"] ;
456 -> 457 ;
458 [label="X[874] <= 0.5\ngini = 0.4269\nsamples = 356\nvalue = [168, 376]"] ;
457 -> 458 ;
459 [label="X[4810] <= 0.5\ngini = 0.4259\nsamples = 355\nvalue = [167, 376]"] ;
458 -> 459 ;
460 [label="X[1327] <= 0.5\ngini = 0.4268\nsamples = 354\nvalue = [167, 374]"] ;
459 -> 460 ;
461 [label="X[4320] <= 0.5\ngini = 0.4248\nsamples = 353\nvalue = [165, 374]"] ;
460 -> 461 ;
462 [label="X[132] <= 0.5\ngini = 0.4228\nsamples = 352\nvalue = [163, 374]"] ;
461 -> 462 ;
463 [label="X[3191] <= 0.5\ngini = 0.4207\nsamples = 351\nvalue = [161, 374]"] ;
462 -> 463 ;
464 [label="X[1932] <= 0.5\ngini = 0.4216\nsamples = 349\nvalue = [161, 372]"] ;
463 -> 464 ;
465 [label="X[3067] <= 0.5\ngini = 0.4221\nsamples = 348\nvalue = [161, 371]"] ;
464 -> 465 ;
466 [label="X[2173] <= 0.5\ngini = 0.423\nsamples = 347\nvalue = [161, 369]"] ;
465 -> 466 ;
467 [label="X[4094] <= 0.5\ngini = 0.422\nsamples = 346\nvalue = [160, 369]"] ;
466 -> 467 ;
468 [label="X[4668] <= 0.5\ngini = 0.4209\nsamples = 345\nvalue = [159, 369]"] ;
467 -> 468 ;
469 [label="X[2559] <= 0.5\ngini = 0.4218\nsamples = 344\nvalue = [159, 367]"] ;
468 -> 469 ;
470 [label="X[1984] <= 0.5\ngini = 0.4232\nsamples = 342\nvalue = [159, 364]"] ;
469 -> 470 ;
471 [label="X[4509] <= 0.5\ngini = 0.425\nsamples = 340\nvalue = [159, 360]"] ;
470 -> 471 ;
472 [label="X[2859] <= 0.5\ngini = 0.4255\nsamples = 339\nvalue = [159, 359]"] ;
471 -> 472 ;
473 [label="X[1847] <= 0.5\ngini = 0.4259\nsamples = 338\nvalue = [159, 358]"] ;
472 -> 473 ;
474 [label="X[987] <= 0.5\ngini = 0.4264\nsamples = 337\nvalue = [159, 357]"] ;
473 -> 474 ;
475 [label="X[3641] <= 0.5\ngini = 0.4273\nsamples = 336\nvalue = [159, 355]"] ;
474 -> 475 ;
476 [label="X[2317] <= 0.5\ngini = 0.4252\nsamples = 335\nvalue = [157, 355]"] ;
475 -> 476 ;
477 [label="X[116] <= 0.5\ngini = 0.4231\nsamples = 333\nvalue = [155, 355]"] ;
476 -> 477 ;
478 [label="X[3471] <= 0.5\ngini = 0.4219\nsamples = 331\nvalue = [153, 353]"] ;
477 -> 478 ;
479 [label="X[4464] <= 0.5\ngini = 0.4228\nsamples = 330\nvalue = [153, 351]"] ;
478 -> 479 ;
480 [label="X[2311] <= 0.5\ngini = 0.4238\nsamples = 329\nvalue = [153, 349]"] ;
479 -> 480 ;
481 [label="X[2190] <= 0.5\ngini = 0.4205\nsamples = 328\nvalue = [150, 349]"] ;
480 -> 481 ;
482 [label="X[3789] <= 0.5\ngini = 0.421\nsamples = 327\nvalue = [150, 348]"] ;
481 -> 482 ;
483 [label="X[2340] <= 0.5\ngini = 0.4214\nsamples = 326\nvalue = [150, 347]"] ;
482 -> 483 ;
484 [label="X[2270] <= 0.5\ngini = 0.4219\nsamples = 325\nvalue = [150, 346]"] ;
483 -> 484 ;
485 [label="X[4535] <= 0.5\ngini = 0.4224\nsamples = 324\nvalue = [150, 345]"] ;
484 -> 485 ;
486 [label="X[790] <= 0.5\ngini = 0.4312\nsamples = 311\nvalue = [150, 327]"] ;
485 -> 486 ;
487 [label="X[4354] <= 0.5\ngini = 0.4321\nsamples = 310\nvalue = [150, 325]"] ;
486 -> 487 ;
488 [label="X[837] <= 0.5\ngini = 0.4298\nsamples = 307\nvalue = [146, 321]"] ;
487 -> 488 ;
489 [label="X[1352] <= 0.5\ngini = 0.4303\nsamples = 306\nvalue = [146, 320]"] ;
488 -> 489 ;
490 [label="X[2187] <= 0.5\ngini = 0.4292\nsamples = 305\nvalue = [145, 320]"] ;
489 -> 490 ;
491 [label="X[3168] <= 0.5\ngini = 0.4312\nsamples = 303\nvalue = [145, 316]"] ;
490 -> 491 ;
492 [label="X[2813] <= 0.5\ngini = 0.4322\nsamples = 302\nvalue = [145, 314]"] ;
491 -> 492 ;
493 [label="X[1375] <= 0.5\ngini = 0.4332\nsamples = 301\nvalue = [145, 312]"] ;
492 -> 493 ;
494 [label="X[773] <= 0.5\ngini = 0.4337\nsamples = 300\nvalue = [145, 311]"] ;
493 -> 494 ;
495 [label="X[4857] <= 0.5\ngini = 0.4342\nsamples = 299\nvalue = [145, 310]"] ;
494 -> 495 ;
496 [label="X[153] <= 0.5\ngini = 0.4332\nsamples = 298\nvalue = [144, 310]"] ;
495 -> 496 ;
497 [label="X[2929] <= 0.5\ngini = 0.4372\nsamples = 296\nvalue = [144, 302]"] ;
496 -> 497 ;
498 [label="X[4904] <= 0.5\ngini = 0.4362\nsamples = 295\nvalue = [143, 302]"] ;
497 -> 498 ;
499 [label="X[2086] <= 0.5\ngini = 0.4377\nsamples = 293\nvalue = [143, 299]"] ;
498 -> 499 ;
500 [label="X[612] <= 0.5\ngini = 0.4398\nsamples = 292\nvalue = [143, 295]"] ;
499 -> 500 ;
501 [label="X[524] <= 0.5\ngini = 0.4408\nsamples = 291\nvalue = [143, 293]"] ;
500 -> 501 ;
502 [label="X[4231] <= 0.5\ngini = 0.4376\nsamples = 290\nvalue = [140, 293]"] ;
501 -> 502 ;
503 [label="X[3349] <= 0.5\ngini = 0.4365\nsamples = 289\nvalue = [139, 293]"] ;
502 -> 503 ;
504 [label="X[3140] <= 0.5\ngini = 0.437\nsamples = 288\nvalue = [139, 292]"] ;
503 -> 504 ;
505 [label="X[3076] <= 0.5\ngini = 0.4375\nsamples = 287\nvalue = [139, 291]"] ;
504 -> 505 ;
506 [label="X[3955] <= 0.5\ngini = 0.4381\nsamples = 286\nvalue = [139, 290]"] ;
505 -> 506 ;
507 [label="X[3240] <= 0.5\ngini = 0.4347\nsamples = 284\nvalue = [136, 290]"] ;
506 -> 507 ;
508 [label="X[826] <= 0.5\ngini = 0.434\nsamples = 282\nvalue = [135, 289]"] ;
507 -> 508 ;
509 [label="X[2893] <= 0.5\ngini = 0.4329\nsamples = 281\nvalue = [134, 289]"] ;
508 -> 509 ;
510 [label="X[2892] <= 0.5\ngini = 0.4334\nsamples = 280\nvalue = [134, 288]"] ;
509 -> 510 ;
511 [label="X[3670] <= 0.5\ngini = 0.434\nsamples = 279\nvalue = [134, 287]"] ;
510 -> 511 ;
512 [label="X[4982] <= 0.5\ngini = 0.4345\nsamples = 278\nvalue = [134, 286]"] ;
511 -> 512 ;
513 [label="X[2512] <= 0.5\ngini = 0.4351\nsamples = 277\nvalue = [134, 285]"] ;
512 -> 513 ;
514 [label="X[2381] <= 0.5\ngini = 0.4327\nsamples = 276\nvalue = [132, 285]"] ;
513 -> 514 ;
515 [label="X[3027] <= 0.5\ngini = 0.4332\nsamples = 275\nvalue = [132, 284]"] ;
514 -> 515 ;
516 [label="X[4628] <= 0.5\ngini = 0.4338\nsamples = 274\nvalue = [132, 283]"] ;
515 -> 516 ;
517 [label="X[261] <= 0.5\ngini = 0.4344\nsamples = 273\nvalue = [132, 282]"] ;
516 -> 517 ;
518 [label="X[3204] <= 0.5\ngini = 0.4332\nsamples = 272\nvalue = [131, 282]"] ;
517 -> 518 ;
519 [label="X[1287] <= 0.5\ngini = 0.4337\nsamples = 271\nvalue = [131, 281]"] ;
518 -> 519 ;
520 [label="X[3504] <= 0.5\ngini = 0.4325\nsamples = 270\nvalue = [130, 281]"] ;
519 -> 520 ;
521 [label="X[3464] <= 0.5\ngini = 0.4342\nsamples = 269\nvalue = [130, 278]"] ;
520 -> 521 ;
522 [label="X[3708] <= 0.5\ngini = 0.4353\nsamples = 268\nvalue = [130, 276]"] ;
521 -> 522 ;
523 [label="X[808] <= 0.5\ngini = 0.4341\nsamples = 267\nvalue = [129, 276]"] ;
522 -> 523 ;
524 [label="X[3936] <= 0.5\ngini = 0.4347\nsamples = 266\nvalue = [129, 275]"] ;
523 -> 524 ;
525 [label="X[320] <= 0.5\ngini = 0.4335\nsamples = 265\nvalue = [128, 275]"] ;
524 -> 525 ;
526 [label="X[1863] <= 0.5\ngini = 0.4322\nsamples = 264\nvalue = [127, 275]"] ;
525 -> 526 ;
527 [label="X[2312] <= 0.5\ngini = 0.4328\nsamples = 263\nvalue = [127, 274]"] ;
526 -> 527 ;
528 [label="X[2749] <= 0.5\ngini = 0.4316\nsamples = 262\nvalue = [126, 274]"] ;
527 -> 528 ;
529 [label="X[2816] <= 0.5\ngini = 0.4303\nsamples = 261\nvalue = [125, 274]"] ;
528 -> 529 ;
530 [label="X[2526] <= 0.5\ngini = 0.4309\nsamples = 260\nvalue = [125, 273]"] ;
529 -> 530 ;
531 [label="X[2736] <= 0.5\ngini = 0.4332\nsamples = 259\nvalue = [125, 269]"] ;
530 -> 531 ;
532 [label="X[1877] <= 0.5\ngini = 0.4338\nsamples = 258\nvalue = [125, 268]"] ;
531 -> 532 ;
533 [label="X[4554] <= 0.5\ngini = 0.4344\nsamples = 257\nvalue = [125, 267]"] ;
532 -> 533 ;
534 [label="X[2191] <= 0.5\ngini = 0.4331\nsamples = 256\nvalue = [124, 267]"] ;
533 -> 534 ;
535 [label="X[3571] <= 0.5\ngini = 0.4385\nsamples = 253\nvalue = [124, 258]"] ;
534 -> 535 ;
536 [label="X[4656] <= 0.5\ngini = 0.4403\nsamples = 251\nvalue = [124, 255]"] ;
535 -> 536 ;
537 [label="X[1711] <= 0.5\ngini = 0.4409\nsamples = 250\nvalue = [124, 254]"] ;
536 -> 537 ;
538 [label="X[1867] <= 0.5\ngini = 0.4396\nsamples = 249\nvalue = [123, 254]"] ;
537 -> 538 ;
539 [label="X[1] <= 0.5\ngini = 0.4414\nsamples = 248\nvalue = [123, 251]"] ;
538 -> 539 ;
540 [label="X[1999] <= 0.5\ngini = 0.442\nsamples = 247\nvalue = [123, 250]"] ;
539 -> 540 ;
541 [label="X[395] <= 0.5\ngini = 0.4426\nsamples = 246\nvalue = [123, 249]"] ;
540 -> 541 ;
542 [label="X[1510] <= 0.5\ngini = 0.4432\nsamples = 245\nvalue = [123, 248]"] ;
541 -> 542 ;
543 [label="X[293] <= 0.5\ngini = 0.4438\nsamples = 244\nvalue = [123, 247]"] ;
542 -> 543 ;
544 [label="X[2224] <= 0.5\ngini = 0.4444\nsamples = 243\nvalue = [123, 246]"] ;
543 -> 544 ;
545 [label="X[2978] <= 0.5\ngini = 0.4432\nsamples = 242\nvalue = [122, 246]"] ;
544 -> 545 ;
546 [label="X[719] <= 0.5\ngini = 0.4444\nsamples = 241\nvalue = [122, 244]"] ;
545 -> 546 ;
547 [label="X[2673] <= 0.5\ngini = 0.4451\nsamples = 240\nvalue = [122, 243]"] ;
546 -> 547 ;
548 [label="X[3087] <= 0.5\ngini = 0.4438\nsamples = 239\nvalue = [121, 243]"] ;
547 -> 548 ;
549 [label="X[1903] <= 0.5\ngini = 0.4413\nsamples = 238\nvalue = [119, 243]"] ;
548 -> 549 ;
550 [label="X[557] <= 0.5\ngini = 0.4426\nsamples = 237\nvalue = [119, 241]"] ;
549 -> 550 ;
551 [label="X[4611] <= 0.5\ngini = 0.4346\nsamples = 236\nvalue = [113, 241]"] ;
550 -> 551 ;
552 [label="X[1093] <= 0.5\ngini = 0.4318\nsamples = 235\nvalue = [111, 241]"] ;
551 -> 552 ;
553 [label="X[707] <= 0.5\ngini = 0.4304\nsamples = 234\nvalue = [110, 241]"] ;
552 -> 553 ;
554 [label="X[255] <= 0.5\ngini = 0.431\nsamples = 233\nvalue = [110, 240]"] ;
553 -> 554 ;
555 [label="X[3499] <= 0.5\ngini = 0.4281\nsamples = 232\nvalue = [108, 240]"] ;
554 -> 555 ;
556 [label="X[4391] <= 0.5\ngini = 0.4287\nsamples = 231\nvalue = [108, 239]"] ;
555 -> 556 ;
557 [label="X[2685] <= 0.5\ngini = 0.4294\nsamples = 230\nvalue = [108, 238]"] ;
556 -> 557 ;
558 [label="X[4630] <= 0.5\ngini = 0.4279\nsamples = 229\nvalue = [107, 238]"] ;
557 -> 558 ;
559 [label="X[3029] <= 0.5\ngini = 0.4248\nsamples = 228\nvalue = [105, 238]"] ;
558 -> 559 ;
560 [label="X[1164] <= 0.5\ngini = 0.4255\nsamples = 227\nvalue = [105, 237]"] ;
559 -> 560 ;
561 [label="X[4944] <= 0.5\ngini = 0.4262\nsamples = 226\nvalue = [105, 236]"] ;
560 -> 561 ;
562 [label="X[332] <= 0.5\ngini = 0.4276\nsamples = 225\nvalue = [105, 234]"] ;
561 -> 562 ;
563 [label="X[4544] <= 0.5\ngini = 0.426\nsamples = 224\nvalue = [104, 234]"] ;
562 -> 563 ;
564 [label="X[2850] <= 0.5\ngini = 0.4244\nsamples = 223\nvalue = [103, 234]"] ;
563 -> 564 ;
565 [label="X[1669] <= 0.5\ngini = 0.4228\nsamples = 222\nvalue = [102, 234]"] ;
564 -> 565 ;
566 [label="X[4729] <= 0.5\ngini = 0.4212\nsamples = 221\nvalue = [101, 234]"] ;
565 -> 566 ;
567 [label="X[2207] <= 0.5\ngini = 0.4195\nsamples = 220\nvalue = [100, 234]"] ;
566 -> 567 ;
568 [label="X[816] <= 0.5\ngini = 0.4202\nsamples = 219\nvalue = [100, 233]"] ;
567 -> 568 ;
569 [label="X[2910] <= 0.5\ngini = 0.4185\nsamples = 218\nvalue = [99, 233]"] ;
568 -> 569 ;
570 [label="X[2457] <= 0.5\ngini = 0.4115\nsamples = 216\nvalue = [95, 233]"] ;
569 -> 570 ;
571 [label="X[2188] <= 0.5\ngini = 0.4122\nsamples = 215\nvalue = [95, 232]"] ;
570 -> 571 ;
572 [label="X[1246] <= 0.5\ngini = 0.4137\nsamples = 214\nvalue = [95, 230]"] ;
571 -> 572 ;
573 [label="X[2915] <= 0.5\ngini = 0.4145\nsamples = 213\nvalue = [95, 229]"] ;
572 -> 573 ;
574 [label="X[1997] <= 0.5\ngini = 0.4152\nsamples = 212\nvalue = [95, 228]"] ;
573 -> 574 ;
575 [label="X[4200] <= 0.5\ngini = 0.4134\nsamples = 211\nvalue = [94, 228]"] ;
574 -> 575 ;
576 [label="X[1910] <= 0.5\ngini = 0.4142\nsamples = 210\nvalue = [94, 227]"] ;
575 -> 576 ;
577 [label="X[1695] <= 0.5\ngini = 0.4164\nsamples = 208\nvalue = [94, 224]"] ;
576 -> 577 ;
578 [label="X[115] <= 0.5\ngini = 0.4146\nsamples = 207\nvalue = [93, 224]"] ;
577 -> 578 ;
579 [label="X[1532] <= 0.5\ngini = 0.4154\nsamples = 206\nvalue = [93, 223]"] ;
578 -> 579 ;
580 [label="X[2290] <= 0.5\ngini = 0.4169\nsamples = 205\nvalue = [93, 221]"] ;
579 -> 580 ;
581 [label="X[4946] <= 0.5\ngini = 0.4113\nsamples = 204\nvalue = [90, 221]"] ;
580 -> 581 ;
582 [label="X[4649] <= 0.5\ngini = 0.4121\nsamples = 203\nvalue = [90, 220]"] ;
581 -> 582 ;
583 [label="X[2394] <= 0.5\ngini = 0.4129\nsamples = 202\nvalue = [90, 219]"] ;
582 -> 583 ;
584 [label="X[2924] <= 0.5\ngini = 0.4136\nsamples = 201\nvalue = [90, 218]"] ;
583 -> 584 ;
585 [label="X[3422] <= 0.5\ngini = 0.4098\nsamples = 200\nvalue = [88, 218]"] ;
584 -> 585 ;
586 [label="X[4104] <= 0.5\ngini = 0.4114\nsamples = 199\nvalue = [88, 216]"] ;
585 -> 586 ;
587 [label="X[4393] <= 0.5\ngini = 0.4122\nsamples = 198\nvalue = [88, 215]"] ;
586 -> 587 ;
588 [label="X[2735] <= 0.5\ngini = 0.413\nsamples = 197\nvalue = [88, 214]"] ;
587 -> 588 ;
589 [label="X[958] <= 0.5\ngini = 0.4146\nsamples = 196\nvalue = [88, 212]"] ;
588 -> 589 ;
590 [label="X[4317] <= 0.5\ngini = 0.4126\nsamples = 195\nvalue = [87, 212]"] ;
589 -> 590 ;
591 [label="X[774] <= 0.5\ngini = 0.4151\nsamples = 194\nvalue = [87, 209]"] ;
590 -> 591 ;
592 [label="X[4935] <= 0.5\ngini = 0.4167\nsamples = 193\nvalue = [87, 207]"] ;
591 -> 592 ;
593 [label="X[1378] <= 0.5\ngini = 0.4183\nsamples = 192\nvalue = [87, 205]"] ;
592 -> 593 ;
594 [label="X[38] <= 0.5\ngini = 0.4164\nsamples = 191\nvalue = [86, 205]"] ;
593 -> 594 ;
595 [label="X[3965] <= 0.5\ngini = 0.4144\nsamples = 190\nvalue = [85, 205]"] ;
594 -> 595 ;
596 [label="X[4901] <= 0.5\ngini = 0.4103\nsamples = 188\nvalue = [83, 205]"] ;
595 -> 596 ;
597 [label="X[2274] <= 0.5\ngini = 0.406\nsamples = 187\nvalue = [81, 205]"] ;
596 -> 597 ;
598 [label="X[4364] <= 0.5\ngini = 0.4047\nsamples = 185\nvalue = [80, 204]"] ;
597 -> 598 ;
599 [label="X[2717] <= 0.5\ngini = 0.4055\nsamples = 184\nvalue = [80, 203]"] ;
598 -> 599 ;
600 [label="X[104] <= 0.5\ngini = 0.4073\nsamples = 183\nvalue = [80, 201]"] ;
599 -> 600 ;
601 [label="X[1869] <= 0.5\ngini = 0.4099\nsamples = 182\nvalue = [80, 198]"] ;
600 -> 601 ;
602 [label="X[645] <= 0.5\ngini = 0.4032\nsamples = 181\nvalue = [77, 198]"] ;
601 -> 602 ;
603 [label="X[290] <= 0.5\ngini = 0.3961\nsamples = 180\nvalue = [74, 198]"] ;
602 -> 603 ;
604 [label="X[244] <= 0.5\ngini = 0.3936\nsamples = 179\nvalue = [73, 198]"] ;
603 -> 604 ;
605 [label="X[3259] <= 0.5\ngini = 0.3886\nsamples = 178\nvalue = [71, 198]"] ;
604 -> 605 ;
606 [label="X[4225] <= 0.5\ngini = 0.3895\nsamples = 177\nvalue = [71, 197]"] ;
605 -> 606 ;
607 [label="X[4926] <= 0.5\ngini = 0.3913\nsamples = 176\nvalue = [71, 195]"] ;
606 -> 607 ;
608 [label="X[278] <= 0.5\ngini = 0.3932\nsamples = 175\nvalue = [71, 193]"] ;
607 -> 608 ;
609 [label="X[2728] <= 0.5\ngini = 0.388\nsamples = 174\nvalue = [69, 193]"] ;
608 -> 609 ;
610 [label="X[2733] <= 0.5\ngini = 0.3899\nsamples = 173\nvalue = [69, 191]"] ;
609 -> 610 ;
611 [label="X[4108] <= 0.5\ngini = 0.3918\nsamples = 172\nvalue = [69, 189]"] ;
610 -> 611 ;
612 [label="X[4395] <= 0.5\ngini = 0.3928\nsamples = 171\nvalue = [69, 188]"] ;
611 -> 612 ;
613 [label="X[1916] <= 0.5\ngini = 0.3938\nsamples = 170\nvalue = [69, 187]"] ;
612 -> 613 ;
614 [label="X[2127] <= 0.5\ngini = 0.3941\nsamples = 167\nvalue = [68, 184]"] ;
613 -> 614 ;
615 [label="X[4522] <= 0.5\ngini = 0.395\nsamples = 166\nvalue = [68, 183]"] ;
614 -> 615 ;
616 [label="X[4050] <= 0.5\ngini = 0.3924\nsamples = 165\nvalue = [67, 183]"] ;
615 -> 616 ;
617 [label="X[369] <= 0.5\ngini = 0.3896\nsamples = 164\nvalue = [66, 183]"] ;
616 -> 617 ;
618 [label="X[4806] <= 0.5\ngini = 0.3906\nsamples = 163\nvalue = [66, 182]"] ;
617 -> 618 ;
619 [label="X[1868] <= 0.5\ngini = 0.382\nsamples = 162\nvalue = [63, 182]"] ;
618 -> 619 ;
620 [label="X[3853] <= 0.5\ngini = 0.3791\nsamples = 161\nvalue = [62, 182]"] ;
619 -> 620 ;
621 [label="X[4614] <= 0.5\ngini = 0.376\nsamples = 160\nvalue = [61, 182]"] ;
620 -> 621 ;
622 [label="X[3940] <= 0.5\ngini = 0.3665\nsamples = 159\nvalue = [58, 182]"] ;
621 -> 622 ;
623 [label="X[4159] <= 0.5\ngini = 0.3686\nsamples = 158\nvalue = [58, 180]"] ;
622 -> 623 ;
624 [label="X[2216] <= 0.5\ngini = 0.3707\nsamples = 157\nvalue = [58, 178]"] ;
623 -> 624 ;
625 [label="X[917] <= 0.5\ngini = 0.3718\nsamples = 156\nvalue = [58, 177]"] ;
624 -> 625 ;
626 [label="X[1817] <= 0.5\ngini = 0.3739\nsamples = 155\nvalue = [58, 175]"] ;
625 -> 626 ;
627 [label="X[4840] <= 0.5\ngini = 0.3707\nsamples = 154\nvalue = [57, 175]"] ;
626 -> 627 ;
628 [label="X[2469] <= 0.5\ngini = 0.3728\nsamples = 153\nvalue = [57, 173]"] ;
627 -> 628 ;
629 [label="X[1920] <= 0.5\ngini = 0.3661\nsamples = 152\nvalue = [55, 173]"] ;
628 -> 629 ;
630 [label="X[405] <= 0.5\ngini = 0.3672\nsamples = 151\nvalue = [55, 172]"] ;
629 -> 630 ;
631 [label="X[730] <= 0.5\ngini = 0.3683\nsamples = 150\nvalue = [55, 171]"] ;
630 -> 631 ;
632 [label="X[1628] <= 0.5\ngini = 0.3716\nsamples = 147\nvalue = [54, 165]"] ;
631 -> 632 ;
633 [label="X[3998] <= 0.5\ngini = 0.368\nsamples = 146\nvalue = [53, 165]"] ;
632 -> 633 ;
634 [label="X[1499] <= 0.5\ngini = 0.3692\nsamples = 145\nvalue = [53, 164]"] ;
633 -> 634 ;
635 [label="X[3732] <= 0.5\ngini = 0.3656\nsamples = 144\nvalue = [52, 164]"] ;
634 -> 635 ;
636 [label="X[2393] <= 0.5\ngini = 0.3667\nsamples = 143\nvalue = [52, 163]"] ;
635 -> 636 ;
637 [label="X[3557] <= 0.5\ngini = 0.3691\nsamples = 142\nvalue = [52, 161]"] ;
636 -> 637 ;
638 [label="X[3510] <= 0.5\ngini = 0.3702\nsamples = 141\nvalue = [52, 160]"] ;
637 -> 638 ;
639 [label="X[706] <= 0.5\ngini = 0.3714\nsamples = 140\nvalue = [52, 159]"] ;
638 -> 639 ;
640 [label="X[2210] <= 0.5\ngini = 0.3726\nsamples = 139\nvalue = [52, 158]"] ;
639 -> 640 ;
641 [label="X[4505] <= 0.5\ngini = 0.3738\nsamples = 138\nvalue = [52, 157]"] ;
640 -> 641 ;
642 [label="X[1216] <= 0.5\ngini = 0.375\nsamples = 137\nvalue = [52, 156]"] ;
641 -> 642 ;
643 [label="X[2227] <= 0.5\ngini = 0.3714\nsamples = 136\nvalue = [51, 156]"] ;
642 -> 643 ;
644 [label="X[1642] <= 0.5\ngini = 0.3558\nsamples = 135\nvalue = [47, 156]"] ;
643 -> 644 ;
645 [label="X[1099] <= 0.5\ngini = 0.3571\nsamples = 134\nvalue = [47, 155]"] ;
644 -> 645 ;
646 [label="X[3812] <= 0.5\ngini = 0.3608\nsamples = 133\nvalue = [47, 152]"] ;
645 -> 646 ;
647 [label="X[899] <= 0.5\ngini = 0.3525\nsamples = 132\nvalue = [45, 152]"] ;
646 -> 647 ;
648 [label="X[4281] <= 0.5\ngini = 0.3538\nsamples = 131\nvalue = [45, 151]"] ;
647 -> 648 ;
649 [label="X[3544] <= 0.5\ngini = 0.3576\nsamples = 130\nvalue = [45, 148]"] ;
648 -> 649 ;
650 [label="X[3507] <= 0.5\ngini = 0.3444\nsamples = 129\nvalue = [42, 148]"] ;
649 -> 650 ;
651 [label="X[2230] <= 0.5\ngini = 0.3457\nsamples = 128\nvalue = [42, 147]"] ;
650 -> 651 ;
652 [label="X[375] <= 0.5\ngini = 0.347\nsamples = 127\nvalue = [42, 146]"] ;
651 -> 652 ;
653 [label="X[506] <= 0.5\ngini = 0.351\nsamples = 126\nvalue = [42, 143]"] ;
652 -> 653 ;
654 [label="X[2319] <= 0.5\ngini = 0.3463\nsamples = 125\nvalue = [41, 143]"] ;
653 -> 654 ;
655 [label="X[4176] <= 0.5\ngini = 0.3477\nsamples = 124\nvalue = [41, 142]"] ;
654 -> 655 ;
656 [label="X[4740] <= 0.5\ngini = 0.3491\nsamples = 123\nvalue = [41, 141]"] ;
655 -> 656 ;
657 [label="gini = 0.3443\nsamples = 122\nvalue = [40, 141]"] ;
656 -> 657 ;
658 [label="gini = 0.0\nsamples = 1\nvalue = [1, 0]"] ;
656 -> 658 ;
659 [label="gini = 0.0\nsamples = 1\nvalue = [0, 1]"] ;
655 -> 659 ;
660 [label="gini = 0.0\nsamples = 1\nvalue = [0, 1]"] ;
654 -> 660 ;
661 [label="gini = 0.0\nsamples = 1\nvalue = [1, 0]"] ;
653 -> 661 ;
662 [label="gini = 0.0\nsamples = 1\nvalue = [0, 3]"] ;
652 -> 662 ;
663 [label="gini = 0.0\nsamples = 1\nvalue = [0, 1]"] ;
651 -> 663 ;
664 [label="gini = 0.0\nsamples = 1\nvalue = [0, 1]"] ;
650 -> 664 ;
665 [label="gini = 0.0\nsamples = 1\nvalue = [3, 0]"] ;
649 -> 665 ;
666 [label="gini = 0.0\nsamples = 1\nvalue = [0, 3]"] ;
648 -> 666 ;
667 [label="gini = 0.0\nsamples = 1\nvalue = [0, 1]"] ;
647 -> 667 ;
668 [label="gini = 0.0\nsamples = 1\nvalue = [2, 0]"] ;
646 -> 668 ;
669 [label="gini = 0.0\nsamples = 1\nvalue = [0, 3]"] ;
645 -> 669 ;
670 [label="gini = 0.0\nsamples = 1\nvalue = [0, 1]"] ;
644 -> 670 ;
671 [label="gini = 0.0\nsamples = 1\nvalue = [4, 0]"] ;
643 -> 671 ;
672 [label="gini = 0.0\nsamples = 1\nvalue = [1, 0]"] ;
642 -> 672 ;
673 [label="gini = 0.0\nsamples = 1\nvalue = [0, 1]"] ;
641 -> 673 ;
674 [label="gini = 0.0\nsamples = 1\nvalue = [0, 1]"] ;
640 -> 674 ;
675 [label="gini = 0.0\nsamples = 1\nvalue = [0, 1]"] ;
639 -> 675 ;
676 [label="gini = 0.0\nsamples = 1\nvalue = [0, 1]"] ;
638 -> 676 ;
677 [label="gini = 0.0\nsamples = 1\nvalue = [0, 1]"] ;
637 -> 677 ;
678 [label="gini = 0.0\nsamples = 1\nvalue = [0, 2]"] ;
636 -> 678 ;
679 [label="gini = 0.0\nsamples = 1\nvalue = [0, 1]"] ;
635 -> 679 ;
680 [label="gini = 0.0\nsamples = 1\nvalue = [1, 0]"] ;
634 -> 680 ;
681 [label="gini = 0.0\nsamples = 1\nvalue = [0, 1]"] ;
633 -> 681 ;
682 [label="gini = 0.0\nsamples = 1\nvalue = [1, 0]"] ;
632 -> 682 ;
683 [label="X[333] <= 0.5\ngini = 0.2449\nsamples = 3\nvalue = [1, 6]"] ;
631 -> 683 ;
684 [label="X[746] <= 0.5\ngini = 0.4444\nsamples = 2\nvalue = [1, 2]"] ;
683 -> 684 ;
685 [label="gini = 0.0\nsamples = 1\nvalue = [1, 0]"] ;
684 -> 685 ;
686 [label="gini = 0.0\nsamples = 1\nvalue = [0, 2]"] ;
684 -> 686 ;
687 [label="gini = 0.0\nsamples = 1\nvalue = [0, 4]"] ;
683 -> 687 ;
688 [label="gini = 0.0\nsamples = 1\nvalue = [0, 1]"] ;
630 -> 688 ;
689 [label="gini = 0.0\nsamples = 1\nvalue = [0, 1]"] ;
629 -> 689 ;
690 [label="gini = 0.0\nsamples = 1\nvalue = [2, 0]"] ;
628 -> 690 ;
691 [label="gini = 0.0\nsamples = 1\nvalue = [0, 2]"] ;
627 -> 691 ;
692 [label="gini = 0.0\nsamples = 1\nvalue = [1, 0]"] ;
626 -> 692 ;
693 [label="gini = 0.0\nsamples = 1\nvalue = [0, 2]"] ;
625 -> 693 ;
694 [label="gini = 0.0\nsamples = 1\nvalue = [0, 1]"] ;
624 -> 694 ;
695 [label="gini = 0.0\nsamples = 1\nvalue = [0, 2]"] ;
623 -> 695 ;
696 [label="gini = 0.0\nsamples = 1\nvalue = [0, 2]"] ;
622 -> 696 ;
697 [label="gini = 0.0\nsamples = 1\nvalue = [3, 0]"] ;
621 -> 697 ;
698 [label="gini = 0.0\nsamples = 1\nvalue = [1, 0]"] ;
620 -> 698 ;
699 [label="gini = 0.0\nsamples = 1\nvalue = [1, 0]"] ;
619 -> 699 ;
700 [label="gini = 0.0\nsamples = 1\nvalue = [3, 0]"] ;
618 -> 700 ;
701 [label="gini = 0.0\nsamples = 1\nvalue = [0, 1]"] ;
617 -> 701 ;
702 [label="gini = 0.0\nsamples = 1\nvalue = [1, 0]"] ;
616 -> 702 ;
703 [label="gini = 0.0\nsamples = 1\nvalue = [1, 0]"] ;
615 -> 703 ;
704 [label="gini = 0.0\nsamples = 1\nvalue = [0, 1]"] ;
614 -> 704 ;
705 [label="X[2909] <= 0.5\ngini = 0.375\nsamples = 3\nvalue = [1, 3]"] ;
613 -> 705 ;
706 [label="gini = 0.0\nsamples = 2\nvalue = [0, 3]"] ;
705 -> 706 ;
707 [label="gini = 0.0\nsamples = 1\nvalue = [1, 0]"] ;
705 -> 707 ;
708 [label="gini = 0.0\nsamples = 1\nvalue = [0, 1]"] ;
612 -> 708 ;
709 [label="gini = 0.0\nsamples = 1\nvalue = [0, 1]"] ;
611 -> 709 ;
710 [label="gini = 0.0\nsamples = 1\nvalue = [0, 2]"] ;
610 -> 710 ;
711 [label="gini = 0.0\nsamples = 1\nvalue = [0, 2]"] ;
609 -> 711 ;
712 [label="gini = 0.0\nsamples = 1\nvalue = [2, 0]"] ;
608 -> 712 ;
713 [label="gini = 0.0\nsamples = 1\nvalue = [0, 2]"] ;
607 -> 713 ;
714 [label="gini = 0.0\nsamples = 1\nvalue = [0, 2]"] ;
606 -> 714 ;
715 [label="gini = 0.0\nsamples = 1\nvalue = [0, 1]"] ;
605 -> 715 ;
716 [label="gini = 0.0\nsamples = 1\nvalue = [2, 0]"] ;
604 -> 716 ;
717 [label="gini = 0.0\nsamples = 1\nvalue = [1, 0]"] ;
603 -> 717 ;
718 [label="gini = 0.0\nsamples = 1\nvalue = [3, 0]"] ;
602 -> 718 ;
719 [label="gini = 0.0\nsamples = 1\nvalue = [3, 0]"] ;
601 -> 719 ;
720 [label="gini = 0.0\nsamples = 1\nvalue = [0, 3]"] ;
600 -> 720 ;
721 [label="gini = 0.0\nsamples = 1\nvalue = [0, 2]"] ;
599 -> 721 ;
722 [label="gini = 0.0\nsamples = 1\nvalue = [0, 1]"] ;
598 -> 722 ;
723 [label="gini = 0.5\nsamples = 2\nvalue = [1, 1]"] ;
597 -> 723 ;
724 [label="gini = 0.0\nsamples = 1\nvalue = [2, 0]"] ;
596 -> 724 ;
725 [label="gini = 0.0\nsamples = 2\nvalue = [2, 0]"] ;
595 -> 725 ;
726 [label="gini = 0.0\nsamples = 1\nvalue = [1, 0]"] ;
594 -> 726 ;
727 [label="gini = 0.0\nsamples = 1\nvalue = [1, 0]"] ;
593 -> 727 ;
728 [label="gini = 0.0\nsamples = 1\nvalue = [0, 2]"] ;
592 -> 728 ;
729 [label="gini = 0.0\nsamples = 1\nvalue = [0, 2]"] ;
591 -> 729 ;
730 [label="gini = 0.0\nsamples = 1\nvalue = [0, 3]"] ;
590 -> 730 ;
731 [label="gini = 0.0\nsamples = 1\nvalue = [1, 0]"] ;
589 -> 731 ;
732 [label="gini = 0.0\nsamples = 1\nvalue = [0, 2]"] ;
588 -> 732 ;
733 [label="gini = 0.0\nsamples = 1\nvalue = [0, 1]"] ;
587 -> 733 ;
734 [label="gini = 0.0\nsamples = 1\nvalue = [0, 1]"] ;
586 -> 734 ;
735 [label="gini = 0.0\nsamples = 1\nvalue = [0, 2]"] ;
585 -> 735 ;
736 [label="gini = 0.0\nsamples = 1\nvalue = [2, 0]"] ;
584 -> 736 ;
737 [label="gini = 0.0\nsamples = 1\nvalue = [0, 1]"] ;
583 -> 737 ;
738 [label="gini = 0.0\nsamples = 1\nvalue = [0, 1]"] ;
582 -> 738 ;
739 [label="gini = 0.0\nsamples = 1\nvalue = [0, 1]"] ;
581 -> 739 ;
740 [label="gini = 0.0\nsamples = 1\nvalue = [3, 0]"] ;
580 -> 740 ;
741 [label="gini = 0.0\nsamples = 1\nvalue = [0, 2]"] ;
579 -> 741 ;
742 [label="gini = 0.0\nsamples = 1\nvalue = [0, 1]"] ;
578 -> 742 ;
743 [label="gini = 0.0\nsamples = 1\nvalue = [1, 0]"] ;
577 -> 743 ;
744 [label="gini = 0.0\nsamples = 2\nvalue = [0, 3]"] ;
576 -> 744 ;
745 [label="gini = 0.0\nsamples = 1\nvalue = [0, 1]"] ;
575 -> 745 ;
746 [label="gini = 0.0\nsamples = 1\nvalue = [1, 0]"] ;
574 -> 746 ;
747 [label="gini = 0.0\nsamples = 1\nvalue = [0, 1]"] ;
573 -> 747 ;
748 [label="gini = 0.0\nsamples = 1\nvalue = [0, 1]"] ;
572 -> 748 ;
749 [label="gini = 0.0\nsamples = 1\nvalue = [0, 2]"] ;
571 -> 749 ;
750 [label="gini = 0.0\nsamples = 1\nvalue = [0, 1]"] ;
570 -> 750 ;
751 [label="gini = 0.0\nsamples = 2\nvalue = [4, 0]"] ;
569 -> 751 ;
752 [label="gini = 0.0\nsamples = 1\nvalue = [1, 0]"] ;
568 -> 752 ;
753 [label="gini = 0.0\nsamples = 1\nvalue = [0, 1]"] ;
567 -> 753 ;
754 [label="gini = 0.0\nsamples = 1\nvalue = [1, 0]"] ;
566 -> 754 ;
755 [label="gini = 0.0\nsamples = 1\nvalue = [1, 0]"] ;
565 -> 755 ;
756 [label="gini = 0.0\nsamples = 1\nvalue = [1, 0]"] ;
564 -> 756 ;
757 [label="gini = 0.0\nsamples = 1\nvalue = [1, 0]"] ;
563 -> 757 ;
758 [label="gini = 0.0\nsamples = 1\nvalue = [1, 0]"] ;
562 -> 758 ;
759 [label="gini = 0.0\nsamples = 1\nvalue = [0, 2]"] ;
561 -> 759 ;
760 [label="gini = 0.0\nsamples = 1\nvalue = [0, 1]"] ;
560 -> 760 ;
761 [label="gini = 0.0\nsamples = 1\nvalue = [0, 1]"] ;
559 -> 761 ;
762 [label="gini = 0.0\nsamples = 1\nvalue = [2, 0]"] ;
558 -> 762 ;
763 [label="gini = 0.0\nsamples = 1\nvalue = [1, 0]"] ;
557 -> 763 ;
764 [label="gini = 0.0\nsamples = 1\nvalue = [0, 1]"] ;
556 -> 764 ;
765 [label="gini = 0.0\nsamples = 1\nvalue = [0, 1]"] ;
555 -> 765 ;
766 [label="gini = 0.0\nsamples = 1\nvalue = [2, 0]"] ;
554 -> 766 ;
767 [label="gini = 0.0\nsamples = 1\nvalue = [0, 1]"] ;
553 -> 767 ;
768 [label="gini = 0.0\nsamples = 1\nvalue = [1, 0]"] ;
552 -> 768 ;
769 [label="gini = 0.0\nsamples = 1\nvalue = [2, 0]"] ;
551 -> 769 ;
770 [label="gini = 0.0\nsamples = 1\nvalue = [6, 0]"] ;
550 -> 770 ;
771 [label="gini = 0.0\nsamples = 1\nvalue = [0, 2]"] ;
549 -> 771 ;
772 [label="gini = 0.0\nsamples = 1\nvalue = [2, 0]"] ;
548 -> 772 ;
773 [label="gini = 0.0\nsamples = 1\nvalue = [1, 0]"] ;
547 -> 773 ;
774 [label="gini = 0.0\nsamples = 1\nvalue = [0, 1]"] ;
546 -> 774 ;
775 [label="gini = 0.0\nsamples = 1\nvalue = [0, 2]"] ;
545 -> 775 ;
776 [label="gini = 0.0\nsamples = 1\nvalue = [1, 0]"] ;
544 -> 776 ;
777 [label="gini = 0.0\nsamples = 1\nvalue = [0, 1]"] ;
543 -> 777 ;
778 [label="gini = 0.0\nsamples = 1\nvalue = [0, 1]"] ;
542 -> 778 ;
779 [label="gini = 0.0\nsamples = 1\nvalue = [0, 1]"] ;
541 -> 779 ;
780 [label="gini = 0.0\nsamples = 1\nvalue = [0, 1]"] ;
540 -> 780 ;
781 [label="gini = 0.0\nsamples = 1\nvalue = [0, 1]"] ;
539 -> 781 ;
782 [label="gini = 0.0\nsamples = 1\nvalue = [0, 3]"] ;
538 -> 782 ;
783 [label="gini = 0.0\nsamples = 1\nvalue = [1, 0]"] ;
537 -> 783 ;
784 [label="gini = 0.0\nsamples = 1\nvalue = [0, 1]"] ;
536 -> 784 ;
785 [label="gini = 0.0\nsamples = 2\nvalue = [0, 3]"] ;
535 -> 785 ;
786 [label="gini = 0.0\nsamples = 3\nvalue = [0, 9]"] ;
534 -> 786 ;
787 [label="gini = 0.0\nsamples = 1\nvalue = [1, 0]"] ;
533 -> 787 ;
788 [label="gini = 0.0\nsamples = 1\nvalue = [0, 1]"] ;
532 -> 788 ;
789 [label="gini = 0.0\nsamples = 1\nvalue = [0, 1]"] ;
531 -> 789 ;
790 [label="gini = 0.0\nsamples = 1\nvalue = [0, 4]"] ;
530 -> 790 ;
791 [label="gini = 0.0\nsamples = 1\nvalue = [0, 1]"] ;
529 -> 791 ;
792 [label="gini = 0.0\nsamples = 1\nvalue = [1, 0]"] ;
528 -> 792 ;
793 [label="gini = 0.0\nsamples = 1\nvalue = [1, 0]"] ;
527 -> 793 ;
794 [label="gini = 0.0\nsamples = 1\nvalue = [0, 1]"] ;
526 -> 794 ;
795 [label="gini = 0.0\nsamples = 1\nvalue = [1, 0]"] ;
525 -> 795 ;
796 [label="gini = 0.0\nsamples = 1\nvalue = [1, 0]"] ;
524 -> 796 ;
797 [label="gini = 0.0\nsamples = 1\nvalue = [0, 1]"] ;
523 -> 797 ;
798 [label="gini = 0.0\nsamples = 1\nvalue = [1, 0]"] ;
522 -> 798 ;
799 [label="gini = 0.0\nsamples = 1\nvalue = [0, 2]"] ;
521 -> 799 ;
800 [label="gini = 0.0\nsamples = 1\nvalue = [0, 3]"] ;
520 -> 800 ;
801 [label="gini = 0.0\nsamples = 1\nvalue = [1, 0]"] ;
519 -> 801 ;
802 [label="gini = 0.0\nsamples = 1\nvalue = [0, 1]"] ;
518 -> 802 ;
803 [label="gini = 0.0\nsamples = 1\nvalue = [1, 0]"] ;
517 -> 803 ;
804 [label="gini = 0.0\nsamples = 1\nvalue = [0, 1]"] ;
516 -> 804 ;
805 [label="gini = 0.0\nsamples = 1\nvalue = [0, 1]"] ;
515 -> 805 ;
806 [label="gini = 0.0\nsamples = 1\nvalue = [0, 1]"] ;
514 -> 806 ;
807 [label="gini = 0.0\nsamples = 1\nvalue = [2, 0]"] ;
513 -> 807 ;
808 [label="gini = 0.0\nsamples = 1\nvalue = [0, 1]"] ;
512 -> 808 ;
809 [label="gini = 0.0\nsamples = 1\nvalue = [0, 1]"] ;
511 -> 809 ;
810 [label="gini = 0.0\nsamples = 1\nvalue = [0, 1]"] ;
510 -> 810 ;
811 [label="gini = 0.0\nsamples = 1\nvalue = [0, 1]"] ;
509 -> 811 ;
812 [label="gini = 0.0\nsamples = 1\nvalue = [1, 0]"] ;
508 -> 812 ;
813 [label="X[225] <= 0.5\ngini = 0.5\nsamples = 2\nvalue = [1, 1]"] ;
507 -> 813 ;
814 [label="gini = 0.0\nsamples = 1\nvalue = [1, 0]"] ;
813 -> 814 ;
815 [label="gini = 0.0\nsamples = 1\nvalue = [0, 1]"] ;
813 -> 815 ;
816 [label="gini = 0.0\nsamples = 2\nvalue = [3, 0]"] ;
506 -> 816 ;
817 [label="gini = 0.0\nsamples = 1\nvalue = [0, 1]"] ;
505 -> 817 ;
818 [label="gini = 0.0\nsamples = 1\nvalue = [0, 1]"] ;
504 -> 818 ;
819 [label="gini = 0.0\nsamples = 1\nvalue = [0, 1]"] ;
503 -> 819 ;
820 [label="gini = 0.0\nsamples = 1\nvalue = [1, 0]"] ;
502 -> 820 ;
821 [label="gini = 0.0\nsamples = 1\nvalue = [3, 0]"] ;
501 -> 821 ;
822 [label="gini = 0.0\nsamples = 1\nvalue = [0, 2]"] ;
500 -> 822 ;
823 [label="gini = 0.0\nsamples = 1\nvalue = [0, 4]"] ;
499 -> 823 ;
824 [label="gini = 0.0\nsamples = 2\nvalue = [0, 3]"] ;
498 -> 824 ;
825 [label="gini = 0.0\nsamples = 1\nvalue = [1, 0]"] ;
497 -> 825 ;
826 [label="gini = 0.0\nsamples = 2\nvalue = [0, 8]"] ;
496 -> 826 ;
827 [label="gini = 0.0\nsamples = 1\nvalue = [1, 0]"] ;
495 -> 827 ;
828 [label="gini = 0.0\nsamples = 1\nvalue = [0, 1]"] ;
494 -> 828 ;
829 [label="gini = 0.0\nsamples = 1\nvalue = [0, 1]"] ;
493 -> 829 ;
830 [label="gini = 0.0\nsamples = 1\nvalue = [0, 2]"] ;
492 -> 830 ;
831 [label="gini = 0.0\nsamples = 1\nvalue = [0, 2]"] ;
491 -> 831 ;
832 [label="gini = 0.0\nsamples = 2\nvalue = [0, 4]"] ;
490 -> 832 ;
833 [label="gini = 0.0\nsamples = 1\nvalue = [1, 0]"] ;
489 -> 833 ;
834 [label="gini = 0.0\nsamples = 1\nvalue = [0, 1]"] ;
488 -> 834 ;
835 [label="X[3965] <= 0.5\ngini = 0.5\nsamples = 3\nvalue = [4, 4]"] ;
487 -> 835 ;
836 [label="gini = 0.0\nsamples = 2\nvalue = [0, 4]"] ;
835 -> 836 ;
837 [label="gini = 0.0\nsamples = 1\nvalue = [4, 0]"] ;
835 -> 837 ;
838 [label="gini = 0.0\nsamples = 1\nvalue = [0, 2]"] ;
486 -> 838 ;
839 [label="gini = 0.0\nsamples = 13\nvalue = [0, 18]"] ;
485 -> 839 ;
840 [label="gini = 0.0\nsamples = 1\nvalue = [0, 1]"] ;
484 -> 840 ;
841 [label="gini = 0.0\nsamples = 1\nvalue = [0, 1]"] ;
483 -> 841 ;
842 [label="gini = 0.0\nsamples = 1\nvalue = [0, 1]"] ;
482 -> 842 ;
843 [label="gini = 0.0\nsamples = 1\nvalue = [0, 1]"] ;
481 -> 843 ;
844 [label="gini = 0.0\nsamples = 1\nvalue = [3, 0]"] ;
480 -> 844 ;
845 [label="gini = 0.0\nsamples = 1\nvalue = [0, 2]"] ;
479 -> 845 ;
846 [label="gini = 0.0\nsamples = 1\nvalue = [0, 2]"] ;
478 -> 846 ;
847 [label="X[4225] <= 0.5\ngini = 0.5\nsamples = 2\nvalue = [2, 2]"] ;
477 -> 847 ;
848 [label="gini = 0.0\nsamples = 1\nvalue = [0, 2]"] ;
847 -> 848 ;
849 [label="gini = 0.0\nsamples = 1\nvalue = [2, 0]"] ;
847 -> 849 ;
850 [label="gini = 0.0\nsamples = 2\nvalue = [2, 0]"] ;
476 -> 850 ;
851 [label="gini = 0.0\nsamples = 1\nvalue = [2, 0]"] ;
475 -> 851 ;
852 [label="gini = 0.0\nsamples = 1\nvalue = [0, 2]"] ;
474 -> 852 ;
853 [label="gini = 0.0\nsamples = 1\nvalue = [0, 1]"] ;
473 -> 853 ;
854 [label="gini = 0.0\nsamples = 1\nvalue = [0, 1]"] ;
472 -> 854 ;
855 [label="gini = 0.0\nsamples = 1\nvalue = [0, 1]"] ;
471 -> 855 ;
856 [label="gini = 0.0\nsamples = 2\nvalue = [0, 4]"] ;
470 -> 856 ;
857 [label="gini = 0.0\nsamples = 2\nvalue = [0, 3]"] ;
469 -> 857 ;
858 [label="gini = 0.0\nsamples = 1\nvalue = [0, 2]"] ;
468 -> 858 ;
859 [label="gini = 0.0\nsamples = 1\nvalue = [1, 0]"] ;
467 -> 859 ;
860 [label="gini = 0.0\nsamples = 1\nvalue = [1, 0]"] ;
466 -> 860 ;
861 [label="gini = 0.0\nsamples = 1\nvalue = [0, 2]"] ;
465 -> 861 ;
862 [label="gini = 0.0\nsamples = 1\nvalue = [0, 1]"] ;
464 -> 862 ;
863 [label="gini = 0.0\nsamples = 2\nvalue = [0, 2]"] ;
463 -> 863 ;
864 [label="gini = 0.0\nsamples = 1\nvalue = [2, 0]"] ;
462 -> 864 ;
865 [label="gini = 0.0\nsamples = 1\nvalue = [2, 0]"] ;
461 -> 865 ;
866 [label="gini = 0.0\nsamples = 1\nvalue = [2, 0]"] ;
460 -> 866 ;
867 [label="gini = 0.0\nsamples = 1\nvalue = [0, 2]"] ;
459 -> 867 ;
868 [label="gini = 0.0\nsamples = 1\nvalue = [1, 0]"] ;
458 -> 868 ;
869 [label="gini = 0.0\nsamples = 2\nvalue = [2, 0]"] ;
457 -> 869 ;
870 [label="gini = 0.0\nsamples = 1\nvalue = [0, 1]"] ;
456 -> 870 ;
871 [label="gini = 0.0\nsamples = 1\nvalue = [1, 0]"] ;
455 -> 871 ;
872 [label="gini = 0.0\nsamples = 1\nvalue = [0, 3]"] ;
454 -> 872 ;
873 [label="gini = 0.0\nsamples = 1\nvalue = [0, 2]"] ;
453 -> 873 ;
874 [label="gini = 0.0\nsamples = 2\nvalue = [3, 0]"] ;
452 -> 874 ;
875 [label="gini = 0.0\nsamples = 2\nvalue = [0, 3]"] ;
451 -> 875 ;
876 [label="gini = 0.0\nsamples = 1\nvalue = [0, 1]"] ;
450 -> 876 ;
877 [label="gini = 0.0\nsamples = 1\nvalue = [0, 1]"] ;
449 -> 877 ;
878 [label="gini = 0.0\nsamples = 1\nvalue = [0, 1]"] ;
448 -> 878 ;
879 [label="gini = 0.0\nsamples = 1\nvalue = [0, 1]"] ;
447 -> 879 ;
880 [label="gini = 0.0\nsamples = 2\nvalue = [0, 5]"] ;
446 -> 880 ;
881 [label="gini = 0.0\nsamples = 1\nvalue = [1, 0]"] ;
445 -> 881 ;
882 [label="gini = 0.0\nsamples = 1\nvalue = [2, 0]"] ;
444 -> 882 ;
883 [label="gini = 0.0\nsamples = 1\nvalue = [1, 0]"] ;
443 -> 883 ;
884 [label="gini = 0.0\nsamples = 1\nvalue = [0, 1]"] ;
442 -> 884 ;
885 [label="gini = 0.0\nsamples = 1\nvalue = [2, 0]"] ;
441 -> 885 ;
886 [label="gini = 0.0\nsamples = 2\nvalue = [0, 3]"] ;
440 -> 886 ;
887 [label="gini = 0.0\nsamples = 3\nvalue = [0, 4]"] ;
439 -> 887 ;
888 [label="gini = 0.0\nsamples = 1\nvalue = [2, 0]"] ;
438 -> 888 ;
889 [label="gini = 0.0\nsamples = 1\nvalue = [0, 2]"] ;
437 -> 889 ;
890 [label="gini = 0.0\nsamples = 1\nvalue = [1, 0]"] ;
436 -> 890 ;
891 [label="gini = 0.0\nsamples = 1\nvalue = [0, 1]"] ;
435 -> 891 ;
892 [label="X[4674] <= 0.5\ngini = 0.4444\nsamples = 2\nvalue = [2, 1]"] ;
434 -> 892 ;
893 [label="gini = 0.0\nsamples = 1\nvalue = [2, 0]"] ;
892 -> 893 ;
894 [label="gini = 0.0\nsamples = 1\nvalue = [0, 1]"] ;
892 -> 894 ;
895 [label="gini = 0.0\nsamples = 3\nvalue = [0, 4]"] ;
433 -> 895 ;
896 [label="gini = 0.0\nsamples = 1\nvalue = [0, 2]"] ;
432 -> 896 ;
897 [label="gini = 0.0\nsamples = 1\nvalue = [0, 2]"] ;
431 -> 897 ;
898 [label="gini = 0.0\nsamples = 1\nvalue = [2, 0]"] ;
430 -> 898 ;
899 [label="gini = 0.0\nsamples = 1\nvalue = [0, 1]"] ;
429 -> 899 ;
900 [label="gini = 0.0\nsamples = 1\nvalue = [0, 1]"] ;
428 -> 900 ;
901 [label="gini = 0.0\nsamples = 1\nvalue = [1, 0]"] ;
427 -> 901 ;
902 [label="gini = 0.0\nsamples = 1\nvalue = [3, 0]"] ;
426 -> 902 ;
903 [label="gini = 0.0\nsamples = 1\nvalue = [0, 1]"] ;
425 -> 903 ;
904 [label="gini = 0.0\nsamples = 1\nvalue = [0, 1]"] ;
424 -> 904 ;
905 [label="gini = 0.0\nsamples = 1\nvalue = [1, 0]"] ;
423 -> 905 ;
906 [label="gini = 0.0\nsamples = 2\nvalue = [0, 2]"] ;
422 -> 906 ;
907 [label="gini = 0.0\nsamples = 2\nvalue = [0, 2]"] ;
421 -> 907 ;
908 [label="gini = 0.0\nsamples = 1\nvalue = [1, 0]"] ;
420 -> 908 ;
909 [label="gini = 0.0\nsamples = 1\nvalue = [1, 0]"] ;
419 -> 909 ;
910 [label="gini = 0.0\nsamples = 1\nvalue = [0, 2]"] ;
418 -> 910 ;
911 [label="X[2476] <= 0.5\ngini = 0.1975\nsamples = 6\nvalue = [8, 1]"] ;
417 -> 911 ;
912 [label="X[1996] <= 0.5\ngini = 0.2188\nsamples = 5\nvalue = [7, 1]"] ;
911 -> 912 ;
913 [label="X[2057] <= 0.5\ngini = 0.2778\nsamples = 4\nvalue = [5, 1]"] ;
912 -> 913 ;
914 [label="X[497] <= 0.5\ngini = 0.375\nsamples = 3\nvalue = [3, 1]"] ;
913 -> 914 ;
915 [label="X[488] <= 0.5\ngini = 0.4444\nsamples = 2\nvalue = [2, 1]"] ;
914 -> 915 ;
916 [label="gini = 0.0\nsamples = 1\nvalue = [0, 1]"] ;
915 -> 916 ;
917 [label="gini = 0.0\nsamples = 1\nvalue = [2, 0]"] ;
915 -> 917 ;
918 [label="gini = 0.0\nsamples = 1\nvalue = [1, 0]"] ;
914 -> 918 ;
919 [label="gini = 0.0\nsamples = 1\nvalue = [2, 0]"] ;
913 -> 919 ;
920 [label="gini = 0.0\nsamples = 1\nvalue = [2, 0]"] ;
912 -> 920 ;
921 [label="gini = 0.0\nsamples = 1\nvalue = [1, 0]"] ;
911 -> 921 ;
922 [label="gini = 0.0\nsamples = 2\nvalue = [0, 2]"] ;
416 -> 922 ;
923 [label="gini = 0.0\nsamples = 1\nvalue = [2, 0]"] ;
415 -> 923 ;
924 [label="gini = 0.0\nsamples = 1\nvalue = [0, 2]"] ;
414 -> 924 ;
925 [label="gini = 0.0\nsamples = 1\nvalue = [0, 3]"] ;
413 -> 925 ;
926 [label="gini = 0.0\nsamples = 1\nvalue = [3, 0]"] ;
412 -> 926 ;
927 [label="gini = 0.0\nsamples = 2\nvalue = [0, 4]"] ;
411 -> 927 ;
928 [label="gini = 0.0\nsamples = 1\nvalue = [1, 0]"] ;
410 -> 928 ;
929 [label="gini = 0.0\nsamples = 1\nvalue = [0, 1]"] ;
409 -> 929 ;
930 [label="gini = 0.0\nsamples = 2\nvalue = [0, 2]"] ;
408 -> 930 ;
931 [label="gini = 0.0\nsamples = 1\nvalue = [0, 1]"] ;
407 -> 931 ;
932 [label="gini = 0.0\nsamples = 1\nvalue = [2, 0]"] ;
406 -> 932 ;
933 [label="gini = 0.0\nsamples = 1\nvalue = [0, 1]"] ;
405 -> 933 ;
934 [label="gini = 0.0\nsamples = 4\nvalue = [0, 6]"] ;
404 -> 934 ;
935 [label="gini = 0.0\nsamples = 1\nvalue = [0, 1]"] ;
403 -> 935 ;
936 [label="gini = 0.0\nsamples = 3\nvalue = [0, 5]"] ;
402 -> 936 ;
937 [label="gini = 0.0\nsamples = 1\nvalue = [0, 2]"] ;
401 -> 937 ;
938 [label="gini = 0.0\nsamples = 1\nvalue = [0, 1]"] ;
400 -> 938 ;
939 [label="gini = 0.0\nsamples = 1\nvalue = [0, 3]"] ;
399 -> 939 ;
940 [label="gini = 0.0\nsamples = 1\nvalue = [1, 0]"] ;
398 -> 940 ;
941 [label="X[1714] <= 0.5\ngini = 0.4444\nsamples = 2\nvalue = [2, 1]"] ;
397 -> 941 ;
942 [label="gini = 0.0\nsamples = 1\nvalue = [2, 0]"] ;
941 -> 942 ;
943 [label="gini = 0.0\nsamples = 1\nvalue = [0, 1]"] ;
941 -> 943 ;
944 [label="gini = 0.0\nsamples = 1\nvalue = [0, 1]"] ;
396 -> 944 ;
945 [label="gini = 0.0\nsamples = 2\nvalue = [0, 4]"] ;
395 -> 945 ;
946 [label="X[631] <= 0.5\ngini = 0.4898\nsamples = 5\nvalue = [3, 4]"] ;
394 -> 946 ;
947 [label="X[1254] <= 0.5\ngini = 0.5\nsamples = 4\nvalue = [3, 3]"] ;
946 -> 947 ;
948 [label="X[3230] <= 0.5\ngini = 0.48\nsamples = 3\nvalue = [3, 2]"] ;
947 -> 948 ;
949 [label="gini = 0.0\nsamples = 2\nvalue = [0, 2]"] ;
948 -> 949 ;
950 [label="gini = 0.0\nsamples = 1\nvalue = [3, 0]"] ;
948 -> 950 ;
951 [label="gini = 0.0\nsamples = 1\nvalue = [0, 1]"] ;
947 -> 951 ;
952 [label="gini = 0.0\nsamples = 1\nvalue = [0, 1]"] ;
946 -> 952 ;
953 [label="gini = 0.0\nsamples = 1\nvalue = [0, 2]"] ;
393 -> 953 ;
954 [label="gini = 0.0\nsamples = 1\nvalue = [1, 0]"] ;
392 -> 954 ;
955 [label="gini = 0.0\nsamples = 1\nvalue = [0, 1]"] ;
391 -> 955 ;
956 [label="gini = 0.0\nsamples = 3\nvalue = [3, 0]"] ;
390 -> 956 ;
957 [label="gini = 0.0\nsamples = 2\nvalue = [4, 0]"] ;
389 -> 957 ;
958 [label="gini = 0.0\nsamples = 1\nvalue = [0, 2]"] ;
388 -> 958 ;
959 [label="gini = 0.0\nsamples = 1\nvalue = [1, 0]"] ;
387 -> 959 ;
960 [label="gini = 0.0\nsamples = 1\nvalue = [0, 1]"] ;
386 -> 960 ;
961 [label="gini = 0.0\nsamples = 1\nvalue = [0, 2]"] ;
385 -> 961 ;
962 [label="gini = 0.0\nsamples = 3\nvalue = [0, 5]"] ;
384 -> 962 ;
963 [label="gini = 0.0\nsamples = 1\nvalue = [1, 0]"] ;
383 -> 963 ;
964 [label="gini = 0.0\nsamples = 2\nvalue = [4, 0]"] ;
382 -> 964 ;
965 [label="gini = 0.0\nsamples = 1\nvalue = [0, 1]"] ;
381 -> 965 ;
966 [label="gini = 0.0\nsamples = 1\nvalue = [0, 1]"] ;
380 -> 966 ;
967 [label="gini = 0.0\nsamples = 1\nvalue = [2, 0]"] ;
379 -> 967 ;
968 [label="gini = 0.0\nsamples = 1\nvalue = [2, 0]"] ;
378 -> 968 ;
969 [label="gini = 0.0\nsamples = 1\nvalue = [0, 2]"] ;
377 -> 969 ;
970 [label="gini = 0.0\nsamples = 2\nvalue = [2, 0]"] ;
376 -> 970 ;
971 [label="gini = 0.0\nsamples = 1\nvalue = [1, 0]"] ;
375 -> 971 ;
972 [label="gini = 0.0\nsamples = 1\nvalue = [3, 0]"] ;
374 -> 972 ;
973 [label="gini = 0.0\nsamples = 1\nvalue = [2, 0]"] ;
373 -> 973 ;
974 [label="gini = 0.0\nsamples = 1\nvalue = [3, 0]"] ;
372 -> 974 ;
975 [label="gini = 0.0\nsamples = 1\nvalue = [1, 0]"] ;
371 -> 975 ;
976 [label="gini = 0.0\nsamples = 2\nvalue = [0, 3]"] ;
370 -> 976 ;
977 [label="gini = 0.0\nsamples = 2\nvalue = [0, 2]"] ;
369 -> 977 ;
978 [label="gini = 0.0\nsamples = 1\nvalue = [2, 0]"] ;
368 -> 978 ;
979 [label="gini = 0.0\nsamples = 1\nvalue = [3, 0]"] ;
367 -> 979 ;
980 [label="gini = 0.0\nsamples = 1\nvalue = [0, 1]"] ;
366 -> 980 ;
981 [label="gini = 0.0\nsamples = 1\nvalue = [0, 2]"] ;
365 -> 981 ;
982 [label="gini = 0.0\nsamples = 1\nvalue = [0, 3]"] ;
364 -> 982 ;
983 [label="gini = 0.0\nsamples = 1\nvalue = [2, 0]"] ;
363 -> 983 ;
984 [label="X[3670] <= 0.5\ngini = 0.4444\nsamples = 2\nvalue = [1, 2]"] ;
362 -> 984 ;
985 [label="gini = 0.0\nsamples = 1\nvalue = [1, 0]"] ;
984 -> 985 ;
986 [label="gini = 0.0\nsamples = 1\nvalue = [0, 2]"] ;
984 -> 986 ;
987 [label="gini = 0.0\nsamples = 1\nvalue = [2, 0]"] ;
361 -> 987 ;
988 [label="gini = 0.0\nsamples = 2\nvalue = [0, 2]"] ;
360 -> 988 ;
989 [label="gini = 0.0\nsamples = 1\nvalue = [3, 0]"] ;
359 -> 989 ;
990 [label="gini = 0.0\nsamples = 1\nvalue = [0, 1]"] ;
358 -> 990 ;
991 [label="gini = 0.0\nsamples = 1\nvalue = [0, 1]"] ;
357 -> 991 ;
992 [label="gini = 0.0\nsamples = 1\nvalue = [0, 3]"] ;
356 -> 992 ;
993 [label="gini = 0.0\nsamples = 1\nvalue = [0, 2]"] ;
355 -> 993 ;
994 [label="gini = 0.0\nsamples = 2\nvalue = [4, 0]"] ;
354 -> 994 ;
995 [label="gini = 0.0\nsamples = 2\nvalue = [0, 3]"] ;
353 -> 995 ;
996 [label="gini = 0.0\nsamples = 1\nvalue = [0, 2]"] ;
352 -> 996 ;
997 [label="gini = 0.0\nsamples = 1\nvalue = [0, 1]"] ;
351 -> 997 ;
998 [label="gini = 0.0\nsamples = 1\nvalue = [0, 1]"] ;
350 -> 998 ;
999 [label="gini = 0.0\nsamples = 1\nvalue = [1, 0]"] ;
349 -> 999 ;
1000 [label="gini = 0.0\nsamples = 1\nvalue = [0, 2]"] ;
348 -> 1000 ;
1001 [label="gini = 0.0\nsamples = 1\nvalue = [3, 0]"] ;
347 -> 1001 ;
1002 [label="gini = 0.0\nsamples = 3\nvalue = [0, 4]"] ;
346 -> 1002 ;
1003 [label="gini = 0.0\nsamples = 1\nvalue = [1, 0]"] ;
345 -> 1003 ;
1004 [label="gini = 0.0\nsamples = 1\nvalue = [0, 1]"] ;
344 -> 1004 ;
1005 [label="gini = 0.0\nsamples = 1\nvalue = [0, 1]"] ;
343 -> 1005 ;
1006 [label="gini = 0.0\nsamples = 1\nvalue = [1, 0]"] ;
342 -> 1006 ;
1007 [label="gini = 0.0\nsamples = 1\nvalue = [1, 0]"] ;
341 -> 1007 ;
1008 [label="gini = 0.0\nsamples = 1\nvalue = [0, 2]"] ;
340 -> 1008 ;
1009 [label="gini = 0.0\nsamples = 2\nvalue = [2, 0]"] ;
339 -> 1009 ;
1010 [label="gini = 0.0\nsamples = 2\nvalue = [0, 2]"] ;
338 -> 1010 ;
1011 [label="gini = 0.0\nsamples = 1\nvalue = [1, 0]"] ;
337 -> 1011 ;
1012 [label="gini = 0.0\nsamples = 1\nvalue = [0, 4]"] ;
336 -> 1012 ;
1013 [label="gini = 0.0\nsamples = 2\nvalue = [2, 0]"] ;
335 -> 1013 ;
1014 [label="gini = 0.0\nsamples = 1\nvalue = [1, 0]"] ;
334 -> 1014 ;
1015 [label="X[4738] <= 0.5\ngini = 0.4444\nsamples = 2\nvalue = [1, 2]"] ;
333 -> 1015 ;
1016 [label="gini = 0.0\nsamples = 1\nvalue = [0, 2]"] ;
1015 -> 1016 ;
1017 [label="gini = 0.0\nsamples = 1\nvalue = [1, 0]"] ;
1015 -> 1017 ;
1018 [label="X[844] <= 0.5\ngini = 0.48\nsamples = 3\nvalue = [3, 2]"] ;
332 -> 1018 ;
1019 [label="gini = 0.0\nsamples = 2\nvalue = [0, 2]"] ;
1018 -> 1019 ;
1020 [label="gini = 0.0\nsamples = 1\nvalue = [3, 0]"] ;
1018 -> 1020 ;
1021 [label="gini = 0.0\nsamples = 1\nvalue = [1, 0]"] ;
331 -> 1021 ;
1022 [label="gini = 0.0\nsamples = 1\nvalue = [2, 0]"] ;
330 -> 1022 ;
1023 [label="gini = 0.0\nsamples = 2\nvalue = [0, 2]"] ;
329 -> 1023 ;
1024 [label="gini = 0.0\nsamples = 1\nvalue = [0, 1]"] ;
328 -> 1024 ;
1025 [label="gini = 0.0\nsamples = 1\nvalue = [0, 3]"] ;
327 -> 1025 ;
1026 [label="gini = 0.0\nsamples = 1\nvalue = [0, 1]"] ;
326 -> 1026 ;
1027 [label="gini = 0.0\nsamples = 1\nvalue = [1, 0]"] ;
325 -> 1027 ;
1028 [label="gini = 0.0\nsamples = 1\nvalue = [2, 0]"] ;
324 -> 1028 ;
1029 [label="gini = 0.0\nsamples = 1\nvalue = [0, 1]"] ;
323 -> 1029 ;
1030 [label="gini = 0.0\nsamples = 1\nvalue = [0, 1]"] ;
322 -> 1030 ;
1031 [label="gini = 0.0\nsamples = 2\nvalue = [0, 5]"] ;
321 -> 1031 ;
1032 [label="gini = 0.0\nsamples = 1\nvalue = [0, 1]"] ;
320 -> 1032 ;
1033 [label="gini = 0.0\nsamples = 1\nvalue = [4, 0]"] ;
319 -> 1033 ;
1034 [label="gini = 0.0\nsamples = 1\nvalue = [0, 2]"] ;
318 -> 1034 ;
1035 [label="gini = 0.0\nsamples = 1\nvalue = [0, 1]"] ;
317 -> 1035 ;
1036 [label="gini = 0.0\nsamples = 1\nvalue = [0, 1]"] ;
316 -> 1036 ;
1037 [label="gini = 0.0\nsamples = 1\nvalue = [2, 0]"] ;
315 -> 1037 ;
1038 [label="X[4930] <= 0.5\ngini = 0.2778\nsamples = 4\nvalue = [1, 5]"] ;
314 -> 1038 ;
1039 [label="X[2353] <= 0.5\ngini = 0.375\nsamples = 3\nvalue = [1, 3]"] ;
1038 -> 1039 ;
1040 [label="gini = 0.0\nsamples = 2\nvalue = [0, 3]"] ;
1039 -> 1040 ;
1041 [label="gini = 0.0\nsamples = 1\nvalue = [1, 0]"] ;
1039 -> 1041 ;
1042 [label="gini = 0.0\nsamples = 1\nvalue = [0, 2]"] ;
1038 -> 1042 ;
1043 [label="gini = 0.0\nsamples = 1\nvalue = [0, 1]"] ;
313 -> 1043 ;
1044 [label="X[393] <= 0.5\ngini = 0.5\nsamples = 2\nvalue = [1, 1]"] ;
312 -> 1044 ;
1045 [label="gini = 0.0\nsamples = 1\nvalue = [1, 0]"] ;
1044 -> 1045 ;
1046 [label="gini = 0.0\nsamples = 1\nvalue = [0, 1]"] ;
1044 -> 1046 ;
1047 [label="gini = 0.0\nsamples = 1\nvalue = [1, 0]"] ;
311 -> 1047 ;
1048 [label="gini = 0.0\nsamples = 2\nvalue = [0, 5]"] ;
310 -> 1048 ;
1049 [label="gini = 0.0\nsamples = 2\nvalue = [4, 0]"] ;
309 -> 1049 ;
1050 [label="gini = 0.0\nsamples = 1\nvalue = [1, 0]"] ;
308 -> 1050 ;
1051 [label="X[2279] <= 0.5\ngini = 0.5\nsamples = 2\nvalue = [2, 2]"] ;
307 -> 1051 ;
1052 [label="gini = 0.0\nsamples = 1\nvalue = [2, 0]"] ;
1051 -> 1052 ;
1053 [label="gini = 0.0\nsamples = 1\nvalue = [0, 2]"] ;
1051 -> 1053 ;
1054 [label="gini = 0.0\nsamples = 1\nvalue = [1, 0]"] ;
306 -> 1054 ;
1055 [label="gini = 0.0\nsamples = 1\nvalue = [1, 0]"] ;
305 -> 1055 ;
1056 [label="gini = 0.0\nsamples = 2\nvalue = [0, 3]"] ;
304 -> 1056 ;
1057 [label="gini = 0.0\nsamples = 1\nvalue = [0, 1]"] ;
303 -> 1057 ;
1058 [label="gini = 0.0\nsamples = 1\nvalue = [1, 0]"] ;
302 -> 1058 ;
1059 [label="gini = 0.0\nsamples = 1\nvalue = [1, 0]"] ;
301 -> 1059 ;
1060 [label="gini = 0.0\nsamples = 1\nvalue = [1, 0]"] ;
300 -> 1060 ;
1061 [label="gini = 0.0\nsamples = 1\nvalue = [2, 0]"] ;
299 -> 1061 ;
1062 [label="gini = 0.0\nsamples = 1\nvalue = [0, 2]"] ;
298 -> 1062 ;
1063 [label="gini = 0.0\nsamples = 1\nvalue = [1, 0]"] ;
297 -> 1063 ;
1064 [label="gini = 0.0\nsamples = 2\nvalue = [3, 0]"] ;
296 -> 1064 ;
1065 [label="gini = 0.0\nsamples = 1\nvalue = [1, 0]"] ;
295 -> 1065 ;
1066 [label="gini = 0.0\nsamples = 1\nvalue = [3, 0]"] ;
294 -> 1066 ;
1067 [label="X[1086] <= 0.5\ngini = 0.4444\nsamples = 3\nvalue = [2, 1]"] ;
293 -> 1067 ;
1068 [label="gini = 0.0\nsamples = 2\nvalue = [2, 0]"] ;
1067 -> 1068 ;
1069 [label="gini = 0.0\nsamples = 1\nvalue = [0, 1]"] ;
1067 -> 1069 ;
1070 [label="gini = 0.0\nsamples = 1\nvalue = [0, 2]"] ;
292 -> 1070 ;
1071 [label="gini = 0.0\nsamples = 1\nvalue = [2, 0]"] ;
291 -> 1071 ;
1072 [label="gini = 0.0\nsamples = 1\nvalue = [0, 1]"] ;
290 -> 1072 ;
1073 [label="gini = 0.0\nsamples = 1\nvalue = [1, 0]"] ;
289 -> 1073 ;
1074 [label="gini = 0.0\nsamples = 1\nvalue = [2, 0]"] ;
288 -> 1074 ;
1075 [label="gini = 0.0\nsamples = 1\nvalue = [0, 1]"] ;
287 -> 1075 ;
1076 [label="gini = 0.0\nsamples = 2\nvalue = [0, 3]"] ;
286 -> 1076 ;
1077 [label="gini = 0.0\nsamples = 1\nvalue = [1, 0]"] ;
285 -> 1077 ;
1078 [label="gini = 0.0\nsamples = 1\nvalue = [0, 1]"] ;
284 -> 1078 ;
1079 [label="gini = 0.0\nsamples = 1\nvalue = [1, 0]"] ;
283 -> 1079 ;
1080 [label="gini = 0.0\nsamples = 1\nvalue = [0, 1]"] ;
282 -> 1080 ;
1081 [label="gini = 0.0\nsamples = 1\nvalue = [2, 0]"] ;
281 -> 1081 ;
1082 [label="gini = 0.0\nsamples = 1\nvalue = [1, 0]"] ;
280 -> 1082 ;
1083 [label="gini = 0.0\nsamples = 2\nvalue = [0, 2]"] ;
279 -> 1083 ;
1084 [label="gini = 0.0\nsamples = 1\nvalue = [0, 3]"] ;
278 -> 1084 ;
1085 [label="gini = 0.0\nsamples = 1\nvalue = [1, 0]"] ;
277 -> 1085 ;
1086 [label="gini = 0.0\nsamples = 2\nvalue = [0, 2]"] ;
276 -> 1086 ;
1087 [label="gini = 0.0\nsamples = 1\nvalue = [0, 2]"] ;
275 -> 1087 ;
1088 [label="gini = 0.0\nsamples = 2\nvalue = [2, 0]"] ;
274 -> 1088 ;
1089 [label="gini = 0.0\nsamples = 1\nvalue = [0, 1]"] ;
273 -> 1089 ;
1090 [label="gini = 0.0\nsamples = 1\nvalue = [4, 0]"] ;
272 -> 1090 ;
1091 [label="gini = 0.0\nsamples = 1\nvalue = [1, 0]"] ;
271 -> 1091 ;
1092 [label="gini = 0.0\nsamples = 1\nvalue = [0, 1]"] ;
270 -> 1092 ;
1093 [label="gini = 0.0\nsamples = 1\nvalue = [0, 1]"] ;
269 -> 1093 ;
1094 [label="gini = 0.0\nsamples = 1\nvalue = [0, 2]"] ;
268 -> 1094 ;
1095 [label="gini = 0.0\nsamples = 1\nvalue = [1, 0]"] ;
267 -> 1095 ;
1096 [label="gini = 0.0\nsamples = 3\nvalue = [6, 0]"] ;
266 -> 1096 ;
1097 [label="gini = 0.0\nsamples = 1\nvalue = [0, 1]"] ;
265 -> 1097 ;
1098 [label="X[2156] <= 0.5\ngini = 0.32\nsamples = 5\nvalue = [2, 8]"] ;
264 -> 1098 ;
1099 [label="gini = 0.0\nsamples = 4\nvalue = [0, 8]"] ;
1098 -> 1099 ;
1100 [label="gini = 0.0\nsamples = 1\nvalue = [2, 0]"] ;
1098 -> 1100 ;
1101 [label="gini = 0.0\nsamples = 2\nvalue = [2, 0]"] ;
263 -> 1101 ;
1102 [label="gini = 0.0\nsamples = 1\nvalue = [1, 0]"] ;
262 -> 1102 ;
1103 [label="gini = 0.0\nsamples = 1\nvalue = [0, 2]"] ;
261 -> 1103 ;
1104 [label="gini = 0.0\nsamples = 1\nvalue = [1, 0]"] ;
260 -> 1104 ;
1105 [label="gini = 0.0\nsamples = 2\nvalue = [0, 3]"] ;
259 -> 1105 ;
1106 [label="gini = 0.0\nsamples = 2\nvalue = [5, 0]"] ;
258 -> 1106 ;
1107 [label="X[2495] <= 0.5\ngini = 0.5\nsamples = 2\nvalue = [1, 1]"] ;
257 -> 1107 ;
1108 [label="gini = 0.0\nsamples = 1\nvalue = [0, 1]"] ;
1107 -> 1108 ;
1109 [label="gini = 0.0\nsamples = 1\nvalue = [1, 0]"] ;
1107 -> 1109 ;
1110 [label="gini = 0.0\nsamples = 1\nvalue = [0, 2]"] ;
256 -> 1110 ;
1111 [label="gini = 0.0\nsamples = 1\nvalue = [0, 2]"] ;
255 -> 1111 ;
1112 [label="gini = 0.0\nsamples = 2\nvalue = [8, 0]"] ;
254 -> 1112 ;
1113 [label="gini = 0.0\nsamples = 1\nvalue = [0, 1]"] ;
253 -> 1113 ;
1114 [label="gini = 0.0\nsamples = 2\nvalue = [0, 2]"] ;
252 -> 1114 ;
1115 [label="gini = 0.0\nsamples = 1\nvalue = [0, 1]"] ;
251 -> 1115 ;
1116 [label="gini = 0.0\nsamples = 1\nvalue = [1, 0]"] ;
250 -> 1116 ;
1117 [label="gini = 0.0\nsamples = 1\nvalue = [1, 0]"] ;
249 -> 1117 ;
1118 [label="gini = 0.0\nsamples = 1\nvalue = [1, 0]"] ;
248 -> 1118 ;
1119 [label="gini = 0.0\nsamples = 1\nvalue = [1, 0]"] ;
247 -> 1119 ;
1120 [label="gini = 0.0\nsamples = 2\nvalue = [0, 2]"] ;
246 -> 1120 ;
1121 [label="X[3884] <= 0.5\ngini = 0.4444\nsamples = 2\nvalue = [2, 1]"] ;
245 -> 1121 ;
1122 [label="gini = 0.0\nsamples = 1\nvalue = [2, 0]"] ;
1121 -> 1122 ;
1123 [label="gini = 0.0\nsamples = 1\nvalue = [0, 1]"] ;
1121 -> 1123 ;
1124 [label="gini = 0.0\nsamples = 1\nvalue = [2, 0]"] ;
244 -> 1124 ;
1125 [label="X[1514] <= 0.5\ngini = 0.5\nsamples = 2\nvalue = [1, 1]"] ;
243 -> 1125 ;
1126 [label="gini = 0.0\nsamples = 1\nvalue = [1, 0]"] ;
1125 -> 1126 ;
1127 [label="gini = 0.0\nsamples = 1\nvalue = [0, 1]"] ;
1125 -> 1127 ;
1128 [label="gini = 0.0\nsamples = 1\nvalue = [0, 3]"] ;
242 -> 1128 ;
1129 [label="gini = 0.0\nsamples = 1\nvalue = [1, 0]"] ;
241 -> 1129 ;
1130 [label="gini = 0.0\nsamples = 1\nvalue = [1, 0]"] ;
240 -> 1130 ;
1131 [label="gini = 0.0\nsamples = 2\nvalue = [2, 0]"] ;
239 -> 1131 ;
1132 [label="gini = 0.0\nsamples = 4\nvalue = [0, 4]"] ;
238 -> 1132 ;
1133 [label="gini = 0.0\nsamples = 2\nvalue = [2, 0]"] ;
237 -> 1133 ;
1134 [label="gini = 0.0\nsamples = 1\nvalue = [1, 0]"] ;
236 -> 1134 ;
1135 [label="gini = 0.0\nsamples = 5\nvalue = [9, 0]"] ;
235 -> 1135 ;
1136 [label="gini = 0.0\nsamples = 5\nvalue = [0, 6]"] ;
234 -> 1136 ;
1137 [label="gini = 0.0\nsamples = 1\nvalue = [3, 0]"] ;
233 -> 1137 ;
1138 [label="gini = 0.0\nsamples = 1\nvalue = [1, 0]"] ;
232 -> 1138 ;
1139 [label="gini = 0.0\nsamples = 2\nvalue = [0, 3]"] ;
231 -> 1139 ;
1140 [label="gini = 0.0\nsamples = 1\nvalue = [2, 0]"] ;
230 -> 1140 ;
1141 [label="gini = 0.0\nsamples = 1\nvalue = [2, 0]"] ;
229 -> 1141 ;
1142 [label="gini = 0.0\nsamples = 1\nvalue = [2, 0]"] ;
228 -> 1142 ;
1143 [label="gini = 0.0\nsamples = 1\nvalue = [0, 1]"] ;
227 -> 1143 ;
1144 [label="gini = 0.0\nsamples = 2\nvalue = [5, 0]"] ;
226 -> 1144 ;
1145 [label="gini = 0.0\nsamples = 3\nvalue = [0, 4]"] ;
225 -> 1145 ;
1146 [label="gini = 0.0\nsamples = 1\nvalue = [2, 0]"] ;
224 -> 1146 ;
1147 [label="gini = 0.0\nsamples = 2\nvalue = [0, 4]"] ;
223 -> 1147 ;
1148 [label="gini = 0.0\nsamples = 1\nvalue = [0, 2]"] ;
222 -> 1148 ;
1149 [label="gini = 0.0\nsamples = 2\nvalue = [2, 0]"] ;
221 -> 1149 ;
1150 [label="gini = 0.0\nsamples = 2\nvalue = [4, 0]"] ;
220 -> 1150 ;
1151 [label="X[170] <= 0.5\ngini = 0.4592\nsamples = 9\nvalue = [9, 5]"] ;
219 -> 1151 ;
1152 [label="X[2791] <= 0.5\ngini = 0.4734\nsamples = 8\nvalue = [8, 5]"] ;
1151 -> 1152 ;
1153 [label="X[2771] <= 0.5\ngini = 0.4861\nsamples = 7\nvalue = [7, 5]"] ;
1152 -> 1153 ;
1154 [label="X[1800] <= 0.5\ngini = 0.5\nsamples = 6\nvalue = [5, 5]"] ;
1153 -> 1154 ;
1155 [label="X[2814] <= 0.5\ngini = 0.4082\nsamples = 5\nvalue = [5, 2]"] ;
1154 -> 1155 ;
1156 [label="X[1456] <= 0.5\ngini = 0.4444\nsamples = 4\nvalue = [4, 2]"] ;
1155 -> 1156 ;
1157 [label="X[785] <= 0.5\ngini = 0.48\nsamples = 3\nvalue = [3, 2]"] ;
1156 -> 1157 ;
1158 [label="gini = 0.0\nsamples = 2\nvalue = [3, 0]"] ;
1157 -> 1158 ;
1159 [label="gini = 0.0\nsamples = 1\nvalue = [0, 2]"] ;
1157 -> 1159 ;
1160 [label="gini = 0.0\nsamples = 1\nvalue = [1, 0]"] ;
1156 -> 1160 ;
1161 [label="gini = 0.0\nsamples = 1\nvalue = [1, 0]"] ;
1155 -> 1161 ;
1162 [label="gini = 0.0\nsamples = 1\nvalue = [0, 3]"] ;
1154 -> 1162 ;
1163 [label="gini = 0.0\nsamples = 1\nvalue = [2, 0]"] ;
1153 -> 1163 ;
1164 [label="gini = 0.0\nsamples = 1\nvalue = [1, 0]"] ;
1152 -> 1164 ;
1165 [label="gini = 0.0\nsamples = 1\nvalue = [1, 0]"] ;
1151 -> 1165 ;
1166 [label="gini = 0.0\nsamples = 1\nvalue = [2, 0]"] ;
218 -> 1166 ;
1167 [label="gini = 0.0\nsamples = 2\nvalue = [3, 0]"] ;
217 -> 1167 ;
1168 [label="gini = 0.0\nsamples = 2\nvalue = [0, 3]"] ;
216 -> 1168 ;
1169 [label="gini = 0.0\nsamples = 1\nvalue = [1, 0]"] ;
215 -> 1169 ;
1170 [label="gini = 0.0\nsamples = 2\nvalue = [0, 2]"] ;
214 -> 1170 ;
1171 [label="gini = 0.0\nsamples = 1\nvalue = [2, 0]"] ;
213 -> 1171 ;
1172 [label="gini = 0.0\nsamples = 1\nvalue = [1, 0]"] ;
212 -> 1172 ;
1173 [label="gini = 0.0\nsamples = 1\nvalue = [0, 3]"] ;
211 -> 1173 ;
1174 [label="gini = 0.0\nsamples = 1\nvalue = [1, 0]"] ;
210 -> 1174 ;
1175 [label="gini = 0.0\nsamples = 1\nvalue = [0, 3]"] ;
209 -> 1175 ;
1176 [label="gini = 0.0\nsamples = 1\nvalue = [0, 1]"] ;
208 -> 1176 ;
1177 [label="gini = 0.0\nsamples = 2\nvalue = [3, 0]"] ;
207 -> 1177 ;
1178 [label="gini = 0.0\nsamples = 1\nvalue = [2, 0]"] ;
206 -> 1178 ;
1179 [label="gini = 0.0\nsamples = 1\nvalue = [1, 0]"] ;
205 -> 1179 ;
1180 [label="gini = 0.0\nsamples = 1\nvalue = [1, 0]"] ;
204 -> 1180 ;
1181 [label="gini = 0.0\nsamples = 1\nvalue = [1, 0]"] ;
203 -> 1181 ;
1182 [label="gini = 0.0\nsamples = 1\nvalue = [2, 0]"] ;
202 -> 1182 ;
1183 [label="gini = 0.0\nsamples = 1\nvalue = [1, 0]"] ;
201 -> 1183 ;
1184 [label="gini = 0.0\nsamples = 1\nvalue = [3, 0]"] ;
200 -> 1184 ;
1185 [label="gini = 0.0\nsamples = 4\nvalue = [6, 0]"] ;
199 -> 1185 ;
1186 [label="gini = 0.0\nsamples = 1\nvalue = [0, 1]"] ;
198 -> 1186 ;
1187 [label="X[641] <= 0.5\ngini = 0.4898\nsamples = 9\nvalue = [8, 6]"] ;
197 -> 1187 ;
1188 [label="X[3264] <= 0.5\ngini = 0.4734\nsamples = 8\nvalue = [8, 5]"] ;
1187 -> 1188 ;
1189 [label="X[2898] <= 0.5\ngini = 0.4861\nsamples = 7\nvalue = [7, 5]"] ;
1188 -> 1189 ;
1190 [label="X[4017] <= 0.5\ngini = 0.42\nsamples = 6\nvalue = [7, 3]"] ;
1189 -> 1190 ;
1191 [label="X[1863] <= 0.5\ngini = 0.4444\nsamples = 5\nvalue = [6, 3]"] ;
1190 -> 1191 ;
1192 [label="X[3330] <= 0.5\ngini = 0.2449\nsamples = 4\nvalue = [6, 1]"] ;
1191 -> 1192 ;
1193 [label="gini = 0.0\nsamples = 3\nvalue = [6, 0]"] ;
1192 -> 1193 ;
1194 [label="gini = 0.0\nsamples = 1\nvalue = [0, 1]"] ;
1192 -> 1194 ;
1195 [label="gini = 0.0\nsamples = 1\nvalue = [0, 2]"] ;
1191 -> 1195 ;
1196 [label="gini = 0.0\nsamples = 1\nvalue = [1, 0]"] ;
1190 -> 1196 ;
1197 [label="gini = 0.0\nsamples = 1\nvalue = [0, 2]"] ;
1189 -> 1197 ;
1198 [label="gini = 0.0\nsamples = 1\nvalue = [1, 0]"] ;
1188 -> 1198 ;
1199 [label="gini = 0.0\nsamples = 1\nvalue = [0, 1]"] ;
1187 -> 1199 ;
1200 [label="gini = 0.0\nsamples = 2\nvalue = [2, 0]"] ;
196 -> 1200 ;
