digraph Tree {
node [shape=box] ;
0 [label="X[359] <= 0.5\ngini = 0.4999\nsamples = 89\nvalue = [67, 69]"] ;
1 [label="X[1084] <= 0.5\ngini = 0.4993\nsamples = 88\nvalue = [64, 69]"] ;
0 -> 1 [labeldistance=2.5, labelangle=45, headlabel="True"] ;
2 [label="X[820] <= 0.5\ngini = 0.4986\nsamples = 87\nvalue = [62, 69]"] ;
1 -> 2 ;
3 [label="X[84] <= 0.5\ngini = 0.4981\nsamples = 86\nvalue = [61, 69]"] ;
2 -> 3 ;
4 [label="X[76] <= 0.5\ngini = 0.4976\nsamples = 85\nvalue = [60, 69]"] ;
3 -> 4 ;
5 [label="X[782] <= 0.5\ngini = 0.4962\nsamples = 84\nvalue = [58, 69]"] ;
4 -> 5 ;
6 [label="X[570] <= 0.5\ngini = 0.4984\nsamples = 83\nvalue = [58, 65]"] ;
5 -> 6 ;
7 [label="X[373] <= 0.5\ngini = 0.4965\nsamples = 82\nvalue = [55, 65]"] ;
6 -> 7 ;
8 [label="X[1038] <= 0.5\ngini = 0.4948\nsamples = 81\nvalue = [53, 65]"] ;
7 -> 8 ;
9 [label="X[404] <= 0.5\ngini = 0.4938\nsamples = 80\nvalue = [52, 65]"] ;
8 -> 9 ;
10 [label="X[644] <= 0.5\ngini = 0.4962\nsamples = 79\nvalue = [52, 62]"] ;
9 -> 10 ;
11 [label="X[1072] <= 0.5\ngini = 0.4943\nsamples = 78\nvalue = [50, 62]"] ;
10 -> 11 ;
12 [label="X[421] <= 0.5\ngini = 0.4905\nsamples = 77\nvalue = [47, 62]"] ;
11 -> 12 ;
13 [label="X[827] <= 0.5\ngini = 0.4916\nsamples = 76\nvalue = [47, 61]"] ;
12 -> 13 ;
14 [label="X[417] <= 0.5\ngini = 0.4936\nsamples = 75\nvalue = [47, 59]"] ;
13 -> 14 ;
15 [label="X[8] <= 0.5\ngini = 0.4923\nsamples = 74\nvalue = [46, 59]"] ;
14 -> 15 ;
16 [label="X[171] <= 0.5\ngini = 0.4877\nsamples = 73\nvalue = [43, 59]"] ;
15 -> 16 ;
17 [label="X[376] <= 0.5\ngini = 0.4838\nsamples = 72\nvalue = [41, 59]"] ;
16 -> 17 ;
18 [label="X[81] <= 0.5\ngini = 0.488\nsamples = 71\nvalue = [41, 56]"] ;
17 -> 18 ;
19 [label="X[947] <= 0.5\ngini = 0.4833\nsamples = 69\nvalue = [38, 55]"] ;
18 -> 19 ;
20 [label="X[524] <= 0.5\ngini = 0.4849\nsamples = 68\nvalue = [38, 54]"] ;
19 -> 20 ;
21 [label="X[1097] <= 0.5\ngini = 0.4879\nsamples = 67\nvalue = [38, 52]"] ;
20 -> 21 ;
22 [label="X[95] <= 0.5\ngini = 0.4907\nsamples = 66\nvalue = [38, 50]"] ;
21 -> 22 ;
23 [label="X[83] <= 0.5\ngini = 0.4888\nsamples = 65\nvalue = [37, 50]"] ;
22 -> 23 ;
24 [label="X[859] <= 0.5\ngini = 0.4903\nsamples = 64\nvalue = [37, 49]"] ;
23 -> 24 ;
25 [label="X[1129] <= 0.5\ngini = 0.4929\nsamples = 63\nvalue = [37, 47]"] ;
24 -> 25 ;
26 [label="X[719] <= 0.5\ngini = 0.4952\nsamples = 62\nvalue = [37, 45]"] ;
25 -> 26 ;
27 [label="X[390] <= 0.5\ngini = 0.4972\nsamples = 61\nvalue = [37, 43]"] ;
26 -> 27 ;
28 [label="X[62] <= 0.5\ngini = 0.498\nsamples = 60\nvalue = [37, 42]"] ;
27 -> 28 ;
29 [label="X[693] <= 0.5\ngini = 0.4959\nsamples = 59\nvalue = [35, 42]"] ;
28 -> 29 ;
30 [label="X[500] <= 0.5\ngini = 0.4945\nsamples = 58\nvalue = [34, 42]"] ;
29 -> 30 ;
31 [label="X[525] <= 0.5\ngini = 0.4956\nsamples = 57\nvalue = [34, 41]"] ;
30 -> 31 ;
32 [label="X[121] <= 0.5\ngini = 0.4977\nsamples = 56\nvalue = [34, 39]"] ;
31 -> 32 ;
33 [label="X[143] <= 0.5\ngini = 0.4965\nsamples = 55\nvalue = [33, 39]"] ;
32 -> 33 ;
34 [label="X[190] <= 0.5\ngini = 0.4951\nsamples = 54\nvalue = [32, 39]"] ;
33 -> 34 ;
35 [label="X[416] <= 0.5\ngini = 0.4974\nsamples = 53\nvalue = [32, 37]"] ;
34 -> 35 ;
36 [label="X[97] <= 0.5\ngini = 0.4945\nsamples = 51\nvalue = [30, 37]"] ;
35 -> 36 ;
37 [label="X[881] <= 0.5\ngini = 0.4927\nsamples = 50\nvalue = [29, 37]"] ;
36 -> 37 ;
38 [label="X[194] <= 0.5\ngini = 0.4878\nsamples = 49\nvalue = [27, 37]"] ;
37 -> 38 ;
39 [label="X[948] <= 0.5\ngini = 0.4848\nsamples = 48\nvalue = [26, 37]"] ;
38 -> 39 ;
40 [label="X[684] <= 0.5\ngini = 0.4813\nsamples = 47\nvalue = [25, 37]"] ;
39 -> 40 ;
41 [label="X[1126] <= 0.5\ngini = 0.4861\nsamples = 45\nvalue = [25, 35]"] ;
40 -> 41 ;
42 [label="X[363] <= 0.5\ngini = 0.4943\nsamples = 42\nvalue = [25, 31]"] ;
41 -> 42 ;
43 [label="X[751] <= 0.5\ngini = 0.4959\nsamples = 41\nvalue = [25, 30]"] ;
42 -> 43 ;
44 [label="X[1116] <= 0.5\ngini = 0.4973\nsamples = 40\nvalue = [25, 29]"] ;
43 -> 44 ;
45 [label="X[986] <= 0.5\ngini = 0.4984\nsamples = 39\nvalue = [25, 28]"] ;
44 -> 45 ;
46 [label="X[487] <= 0.5\ngini = 0.5\nsamples = 38\nvalue = [25, 25]"] ;
45 -> 46 ;
47 [label="X[322] <= 0.5\ngini = 0.4998\nsamples = 37\nvalue = [24, 25]"] ;
46 -> 47 ;
48 [label="X[687] <= 0.5\ngini = 0.4991\nsamples = 36\nvalue = [23, 25]"] ;
47 -> 48 ;
49 [label="X[460] <= 0.5\ngini = 0.498\nsamples = 35\nvalue = [22, 25]"] ;
48 -> 49 ;
50 [label="X[1066] <= 0.5\ngini = 0.4962\nsamples = 34\nvalue = [21, 25]"] ;
49 -> 50 ;
51 [label="X[407] <= 0.5\ngini = 0.4907\nsamples = 33\nvalue = [19, 25]"] ;
50 -> 51 ;
52 [label="X[1032] <= 0.5\ngini = 0.4932\nsamples = 32\nvalue = [19, 24]"] ;
51 -> 52 ;
53 [label="X[799] <= 0.5\ngini = 0.4898\nsamples = 31\nvalue = [18, 24]"] ;
52 -> 53 ;
54 [label="X[1077] <= 0.5\ngini = 0.495\nsamples = 30\nvalue = [18, 22]"] ;
53 -> 54 ;
55 [label="X[1034] <= 0.5\ngini = 0.497\nsamples = 29\nvalue = [18, 21]"] ;
54 -> 55 ;
56 [label="X[122] <= 0.5\ngini = 0.4945\nsamples = 28\nvalue = [17, 21]"] ;
55 -> 56 ;
57 [label="X[438] <= 0.5\ngini = 0.4861\nsamples = 27\nvalue = [15, 21]"] ;
56 -> 57 ;
58 [label="X[860] <= 0.5\ngini = 0.4723\nsamples = 26\nvalue = [13, 21]"] ;
57 -> 58 ;
59 [label="X[1036] <= 0.5\ngini = 0.4775\nsamples = 25\nvalue = [13, 20]"] ;
58 -> 59 ;
60 [label="X[686] <= 0.5\ngini = 0.4688\nsamples = 24\nvalue = [12, 20]"] ;
59 -> 60 ;
61 [label="X[1131] <= 0.5\ngini = 0.4444\nsamples = 23\nvalue = [10, 20]"] ;
60 -> 61 ;
62 [label="X[1130] <= 0.5\ngini = 0.4518\nsamples = 22\nvalue = [10, 19]"] ;
61 -> 62 ;
63 [label="X[1019] <= 0.5\ngini = 0.4592\nsamples = 21\nvalue = [10, 18]"] ;
62 -> 63 ;
64 [label="X[871] <= 0.5\ngini = 0.4444\nsamples = 20\nvalue = [9, 18]"] ;
63 -> 64 ;
65 [label="X[630] <= 0.5\ngini = 0.4032\nsamples = 18\nvalue = [7, 18]"] ;
64 -> 65 ;
66 [label="X[1059] <= 0.5\ngini = 0.375\nsamples = 17\nvalue = [6, 18]"] ;
65 -> 66 ;
67 [label="X[878] <= 0.5\ngini = 0.3856\nsamples = 16\nvalue = [6, 17]"] ;
66 -> 67 ;
68 [label="X[383] <= 0.5\ngini = 0.3512\nsamples = 15\nvalue = [5, 17]"] ;
67 -> 68 ;
69 [label="X[746] <= 0.5\ngini = 0.3878\nsamples = 14\nvalue = [5, 14]"] ;
68 -> 69 ;
70 [label="X[557] <= 0.5\ngini = 0.4152\nsamples = 13\nvalue = [5, 12]"] ;
69 -> 70 ;
71 [label="X[1007] <= 0.5\ngini = 0.4297\nsamples = 12\nvalue = [5, 11]"] ;
70 -> 71 ;
72 [label="X[314] <= 0.5\ngini = 0.4592\nsamples = 11\nvalue = [5, 9]"] ;
71 -> 72 ;
73 [label="X[365] <= 0.5\ngini = 0.4861\nsamples = 10\nvalue = [5, 7]"] ;
72 -> 73 ;
74 [label="X[802] <= 0.5\ngini = 0.4959\nsamples = 9\nvalue = [5, 6]"] ;
73 -> 74 ;
75 [label="X[942] <= 0.5\ngini = 0.48\nsamples = 8\nvalue = [4, 6]"] ;
74 -> 75 ;
76 [label="X[785] <= 0.5\ngini = 0.4938\nsamples = 7\nvalue = [4, 5]"] ;
75 -> 76 ;
77 [label="X[33] <= 0.5\ngini = 0.4082\nsamples = 6\nvalue = [2, 5]"] ;
76 -> 77 ;
78 [label="X[435] <= 0.5\ngini = 0.48\nsamples = 5\nvalue = [2, 3]"] ;
77 -> 78 ;
79 [label="X[316] <= 0.5\ngini = 0.5\nsamples = 4\nvalue = [2, 2]"] ;
78 -> 79 ;
80 [label="X[382] <= 0.5\ngini = 0.4444\nsamples = 3\nvalue = [2, 1]"] ;
79 -> 80 ;
81 [label="X[1021] <= 0.5\ngini = 0.5\nsamples = 2\nvalue = [1, 1]"] ;
80 -> 81 ;
82 [label="gini = 0.0\nsamples = 1\nvalue = [1, 0]"] ;
81 -> 82 ;
83 [label="gini = 0.0\nsamples = 1\nvalue = [0, 1]"] ;
81 -> 83 ;
84 [label="gini = 0.0\nsamples = 1\nvalue = [1, 0]"] ;
80 -> 84 ;
85 [label="gini = 0.0\nsamples = 1\nvalue = [0, 1]"] ;
79 -> 85 ;
86 [label="gini = 0.0\nsamples = 1\nvalue = [0, 1]"] ;
78 -> 86 ;
87 [label="gini = 0.0\nsamples = 1\nvalue = [0, 2]"] ;
77 -> 87 ;
88 [label="gini = 0.0\nsamples = 1\nvalue = [2, 0]"] ;
76 -> 88 ;
89 [label="gini = 0.0\nsamples = 1\nvalue = [0, 1]"] ;
75 -> 89 ;
90 [label="gini = 0.0\nsamples = 1\nvalue = [1, 0]"] ;
74 -> 90 ;
91 [label="gini = 0.0\nsamples = 1\nvalue = [0, 1]"] ;
73 -> 91 ;
92 [label="gini = 0.0\nsamples = 1\nvalue = [0, 2]"] ;
72 -> 92 ;
93 [label="gini = 0.0\nsamples = 1\nvalue = [0, 2]"] ;
71 -> 93 ;
94 [label="gini = 0.0\nsamples = 1\nvalue = [0, 1]"] ;
70 -> 94 ;
95 [label="gini = 0.0\nsamples = 1\nvalue = [0, 2]"] ;
69 -> 95 ;
96 [label="gini = 0.0\nsamples = 1\nvalue = [0, 3]"] ;
68 -> 96 ;
97 [label="gini = 0.0\nsamples = 1\nvalue = [1, 0]"] ;
67 -> 97 ;
98 [label="gini = 0.0\nsamples = 1\nvalue = [0, 1]"] ;
66 -> 98 ;
99 [label="gini = 0.0\nsamples = 1\nvalue = [1, 0]"] ;
65 -> 99 ;
100 [label="gini = 0.0\nsamples = 2\nvalue = [2, 0]"] ;
64 -> 100 ;
101 [label="gini = 0.0\nsamples = 1\nvalue = [1, 0]"] ;
63 -> 101 ;
102 [label="gini = 0.0\nsamples = 1\nvalue = [0, 1]"] ;
62 -> 102 ;
103 [label="gini = 0.0\nsamples = 1\nvalue = [0, 1]"] ;
61 -> 103 ;
104 [label="gini = 0.0\nsamples = 1\nvalue = [2, 0]"] ;
60 -> 104 ;
105 [label="gini = 0.0\nsamples = 1\nvalue = [1, 0]"] ;
59 -> 105 ;
106 [label="gini = 0.0\nsamples = 1\nvalue = [0, 1]"] ;
58 -> 106 ;
107 [label="gini = 0.0\nsamples = 1\nvalue = [2, 0]"] ;
57 -> 107 ;
108 [label="gini = 0.0\nsamples = 1\nvalue = [2, 0]"] ;
56 -> 108 ;
109 [label="gini = 0.0\nsamples = 1\nvalue = [1, 0]"] ;
55 -> 109 ;
110 [label="gini = 0.0\nsamples = 1\nvalue = [0, 1]"] ;
54 -> 110 ;
111 [label="gini = 0.0\nsamples = 1\nvalue = [0, 2]"] ;
53 -> 111 ;
112 [label="gini = 0.0\nsamples = 1\nvalue = [1, 0]"] ;
52 -> 112 ;
113 [label="gini = 0.0\nsamples = 1\nvalue = [0, 1]"] ;
51 -> 113 ;
114 [label="gini = 0.0\nsamples = 1\nvalue = [2, 0]"] ;
50 -> 114 ;
115 [label="gini = 0.0\nsamples = 1\nvalue = [1, 0]"] ;
49 -> 115 ;
116 [label="gini = 0.0\nsamples = 1\nvalue = [1, 0]"] ;
48 -> 116 ;
117 [label="gini = 0.0\nsamples = 1\nvalue = [1, 0]"] ;
47 -> 117 ;
118 [label="gini = 0.0\nsamples = 1\nvalue = [1, 0]"] ;
46 -> 118 ;
119 [label="gini = 0.0\nsamples = 1\nvalue = [0, 3]"] ;
45 -> 119 ;
120 [label="gini = 0.0\nsamples = 1\nvalue = [0, 1]"] ;
44 -> 120 ;
121 [label="gini = 0.0\nsamples = 1\nvalue = [0, 1]"] ;
43 -> 121 ;
122 [label="gini = 0.0\nsamples = 1\nvalue = [0, 1]"] ;
42 -> 122 ;
123 [label="gini = 0.0\nsamples = 3\nvalue = [0, 4]"] ;
41 -> 123 ;
124 [label="gini = 0.0\nsamples = 2\nvalue = [0, 2]"] ;
40 -> 124 ;
125 [label="gini = 0.0\nsamples = 1\nvalue = [1, 0]"] ;
39 -> 125 ;
126 [label="gini = 0.0\nsamples = 1\nvalue = [1, 0]"] ;
38 -> 126 ;
127 [label="gini = 0.0\nsamples = 1\nvalue = [2, 0]"] ;
37 -> 127 ;
128 [label="gini = 0.0\nsamples = 1\nvalue = [1, 0]"] ;
36 -> 128 ;
129 [label="gini = 0.0\nsamples = 2\nvalue = [2, 0]"] ;
35 -> 129 ;
130 [label="gini = 0.0\nsamples = 1\nvalue = [0, 2]"] ;
34 -> 130 ;
131 [label="gini = 0.0\nsamples = 1\nvalue = [1, 0]"] ;
33 -> 131 ;
132 [label="gini = 0.0\nsamples = 1\nvalue = [1, 0]"] ;
32 -> 132 ;
133 [label="gini = 0.0\nsamples = 1\nvalue = [0, 2]"] ;
31 -> 133 ;
134 [label="gini = 0.0\nsamples = 1\nvalue = [0, 1]"] ;
30 -> 134 ;
135 [label="gini = 0.0\nsamples = 1\nvalue = [1, 0]"] ;
29 -> 135 ;
136 [label="gini = 0.0\nsamples = 1\nvalue = [2, 0]"] ;
28 -> 136 ;
137 [label="gini = 0.0\nsamples = 1\nvalue = [0, 1]"] ;
27 -> 137 ;
138 [label="gini = 0.0\nsamples = 1\nvalue = [0, 2]"] ;
26 -> 138 ;
139 [label="gini = 0.0\nsamples = 1\nvalue = [0, 2]"] ;
25 -> 139 ;
140 [label="gini = 0.0\nsamples = 1\nvalue = [0, 2]"] ;
24 -> 140 ;
141 [label="gini = 0.0\nsamples = 1\nvalue = [0, 1]"] ;
23 -> 141 ;
142 [label="gini = 0.0\nsamples = 1\nvalue = [1, 0]"] ;
22 -> 142 ;
143 [label="gini = 0.0\nsamples = 1\nvalue = [0, 2]"] ;
21 -> 143 ;
144 [label="gini = 0.0\nsamples = 1\nvalue = [0, 2]"] ;
20 -> 144 ;
145 [label="gini = 0.0\nsamples = 1\nvalue = [0, 1]"] ;
19 -> 145 ;
146 [label="X[446] <= 0.5\ngini = 0.375\nsamples = 2\nvalue = [3, 1]"] ;
18 -> 146 ;
147 [label="gini = 0.0\nsamples = 1\nvalue = [0, 1]"] ;
146 -> 147 ;
148 [label="gini = 0.0\nsamples = 1\nvalue = [3, 0]"] ;
146 -> 148 ;
149 [label="gini = 0.0\nsamples = 1\nvalue = [0, 3]"] ;
17 -> 149 ;
150 [label="gini = 0.0\nsamples = 1\nvalue = [2, 0]"] ;
16 -> 150 ;
151 [label="gini = 0.0\nsamples = 1\nvalue = [3, 0]"] ;
15 -> 151 ;
152 [label="gini = 0.0\nsamples = 1\nvalue = [1, 0]"] ;
14 -> 152 ;
153 [label="gini = 0.0\nsamples = 1\nvalue = [0, 2]"] ;
13 -> 153 ;
154 [label="gini = 0.0\nsamples = 1\nvalue = [0, 1]"] ;
12 -> 154 ;
155 [label="gini = 0.0\nsamples = 1\nvalue = [3, 0]"] ;
11 -> 155 ;
156 [label="gini = 0.0\nsamples = 1\nvalue = [2, 0]"] ;
10 -> 156 ;
157 [label="gini = 0.0\nsamples = 1\nvalue = [0, 3]"] ;
9 -> 157 ;
158 [label="gini = 0.0\nsamples = 1\nvalue = [1, 0]"] ;
8 -> 158 ;
159 [label="gini = 0.0\nsamples = 1\nvalue = [2, 0]"] ;
7 -> 159 ;
160 [label="gini = 0.0\nsamples = 1\nvalue = [3, 0]"] ;
6 -> 160 ;
161 [label="gini = 0.0\nsamples = 1\nvalue = [0, 4]"] ;
5 -> 161 ;
162 [label="gini = 0.0\nsamples = 1\nvalue = [2, 0]"] ;
4 -> 162 ;
163 [label="gini = 0.0\nsamples = 1\nvalue = [1, 0]"] ;
3 -> 163 ;
164 [label="gini = 0.0\nsamples = 1\nvalue = [1, 0]"] ;
2 -> 164 ;
165 [label="gini = 0.0\nsamples = 1\nvalue = [2, 0]"] ;
1 -> 165 ;
166 [label="gini = 0.0\nsamples = 1\nvalue = [3, 0]"] ;
0 -> 166 [labeldistance=2.5, labelangle=-45, headlabel="False"] ;
}