digraph Tree {
node [shape=box] ;
0 [label="X[635] <= 0.5\ngini = 0.4996\nsamples = 85\nvalue = [70, 66]"] ;
1 [label="X[10] <= 0.5\ngini = 0.4993\nsamples = 84\nvalue = [70, 65]"] ;
0 -> 1 [labeldistance=2.5, labelangle=45, headlabel="True"] ;
2 [label="X[359] <= 0.5\ngini = 0.4996\nsamples = 83\nvalue = [69, 65]"] ;
1 -> 2 ;
3 [label="X[326] <= 0.5\ngini = 0.5\nsamples = 82\nvalue = [64, 65]"] ;
2 -> 3 ;
4 [label="X[1137] <= 0.5\ngini = 0.5\nsamples = 81\nvalue = [64, 63]"] ;
3 -> 4 ;
5 [label="X[143] <= 0.5\ngini = 0.4999\nsamples = 80\nvalue = [64, 62]"] ;
4 -> 5 ;
6 [label="X[288] <= 0.5\ngini = 0.4991\nsamples = 76\nvalue = [57, 62]"] ;
5 -> 6 ;
7 [label="X[894] <= 0.5\ngini = 0.4987\nsamples = 75\nvalue = [56, 62]"] ;
6 -> 7 ;
8 [label="X[734] <= 0.5\ngini = 0.4976\nsamples = 74\nvalue = [54, 62]"] ;
7 -> 8 ;
9 [label="X[697] <= 0.5\ngini = 0.4962\nsamples = 72\nvalue = [52, 62]"] ;
8 -> 9 ;
10 [label="X[316] <= 0.5\ngini = 0.4931\nsamples = 71\nvalue = [49, 62]"] ;
9 -> 10 ;
11 [label="X[877] <= 0.5\ngini = 0.4965\nsamples = 69\nvalue = [49, 58]"] ;
10 -> 11 ;
12 [label="X[736] <= 0.5\ngini = 0.4956\nsamples = 68\nvalue = [48, 58]"] ;
11 -> 12 ;
13 [label="X[692] <= 0.5\ngini = 0.497\nsamples = 67\nvalue = [48, 56]"] ;
12 -> 13 ;
14 [label="X[307] <= 0.5\ngini = 0.4962\nsamples = 66\nvalue = [47, 56]"] ;
13 -> 14 ;
15 [label="X[81] <= 0.5\ngini = 0.4969\nsamples = 65\nvalue = [47, 55]"] ;
14 -> 15 ;
16 [label="X[175] <= 0.5\ngini = 0.4987\nsamples = 62\nvalue = [46, 51]"] ;
15 -> 16 ;
17 [label="X[905] <= 0.5\ngini = 0.4995\nsamples = 61\nvalue = [46, 49]"] ;
16 -> 17 ;
18 [label="X[210] <= 0.5\ngini = 0.4999\nsamples = 60\nvalue = [46, 47]"] ;
17 -> 18 ;
19 [label="X[765] <= 0.5\ngini = 0.499\nsamples = 59\nvalue = [43, 47]"] ;
18 -> 19 ;
20 [label="X[59] <= 0.5\ngini = 0.5\nsamples = 58\nvalue = [43, 43]"] ;
19 -> 20 ;
21 [label="X[864] <= 0.5\ngini = 0.4999\nsamples = 57\nvalue = [42, 43]"] ;
20 -> 21 ;
22 [label="X[838] <= 0.5\ngini = 0.4993\nsamples = 56\nvalue = [40, 43]"] ;
21 -> 22 ;
23 [label="X[51] <= 0.5\ngini = 0.4981\nsamples = 55\nvalue = [38, 43]"] ;
22 -> 23 ;
24 [label="X[1056] <= 0.5\ngini = 0.4961\nsamples = 53\nvalue = [36, 43]"] ;
23 -> 24 ;
25 [label="X[753] <= 0.5\ngini = 0.4947\nsamples = 52\nvalue = [35, 43]"] ;
24 -> 25 ;
26 [label="X[513] <= 0.5\ngini = 0.4978\nsamples = 51\nvalue = [35, 40]"] ;
25 -> 26 ;
27 [label="X[1105] <= 0.5\ngini = 0.4967\nsamples = 50\nvalue = [34, 40]"] ;
26 -> 27 ;
28 [label="X[802] <= 0.5\ngini = 0.4938\nsamples = 49\nvalue = [32, 40]"] ;
27 -> 28 ;
29 [label="X[699] <= 0.5\ngini = 0.492\nsamples = 48\nvalue = [31, 40]"] ;
28 -> 29 ;
30 [label="X[585] <= 0.5\ngini = 0.4949\nsamples = 47\nvalue = [31, 38]"] ;
29 -> 30 ;
31 [label="X[227] <= 0.5\ngini = 0.4982\nsamples = 45\nvalue = [31, 35]"] ;
30 -> 31 ;
32 [label="X[1099] <= 0.5\ngini = 0.4995\nsamples = 44\nvalue = [31, 33]"] ;
31 -> 32 ;
33 [label="X[578] <= 0.5\ngini = 0.5\nsamples = 43\nvalue = [31, 31]"] ;
32 -> 33 ;
34 [label="X[185] <= 0.5\ngini = 0.4999\nsamples = 42\nvalue = [31, 30]"] ;
33 -> 34 ;
35 [label="X[219] <= 0.5\ngini = 0.4994\nsamples = 41\nvalue = [31, 29]"] ;
34 -> 35 ;
36 [label="X[1018] <= 0.5\ngini = 0.5\nsamples = 40\nvalue = [29, 29]"] ;
35 -> 36 ;
37 [label="X[176] <= 0.5\ngini = 0.4994\nsamples = 39\nvalue = [27, 29]"] ;
36 -> 37 ;
38 [label="X[171] <= 0.5\ngini = 0.4956\nsamples = 38\nvalue = [24, 29]"] ;
37 -> 38 ;
39 [label="X[776] <= 0.5\ngini = 0.4906\nsamples = 37\nvalue = [22, 29]"] ;
38 -> 39 ;
40 [label="X[237] <= 0.5\ngini = 0.4872\nsamples = 36\nvalue = [21, 29]"] ;
39 -> 40 ;
41 [label="X[816] <= 0.5\ngini = 0.4898\nsamples = 35\nvalue = [21, 28]"] ;
40 -> 41 ;
42 [label="X[330] <= 0.5\ngini = 0.4962\nsamples = 33\nvalue = [21, 25]"] ;
41 -> 42 ;
43 [label="X[418] <= 0.5\ngini = 0.4938\nsamples = 32\nvalue = [20, 25]"] ;
42 -> 43 ;
44 [label="X[1104] <= 0.5\ngini = 0.4976\nsamples = 31\nvalue = [20, 23]"] ;
43 -> 44 ;
45 [label="X[83] <= 0.5\ngini = 0.5\nsamples = 30\nvalue = [20, 20]"] ;
44 -> 45 ;
46 [label="X[938] <= 0.5\ngini = 0.4986\nsamples = 29\nvalue = [20, 18]"] ;
45 -> 46 ;
47 [label="X[455] <= 0.5\ngini = 0.5\nsamples = 27\nvalue = [18, 18]"] ;
46 -> 47 ;
48 [label="X[515] <= 0.5\ngini = 0.4983\nsamples = 26\nvalue = [16, 18]"] ;
47 -> 48 ;
49 [label="X[1038] <= 0.5\ngini = 0.4922\nsamples = 25\nvalue = [14, 18]"] ;
48 -> 49 ;
50 [label="X[74] <= 0.5\ngini = 0.48\nsamples = 24\nvalue = [12, 18]"] ;
49 -> 50 ;
51 [label="X[145] <= 0.5\ngini = 0.4444\nsamples = 23\nvalue = [9, 18]"] ;
50 -> 51 ;
52 [label="X[90] <= 0.5\ngini = 0.4527\nsamples = 22\nvalue = [9, 17]"] ;
51 -> 52 ;
53 [label="X[590] <= 0.5\ngini = 0.4608\nsamples = 21\nvalue = [9, 16]"] ;
52 -> 53 ;
54 [label="X[609] <= 0.5\ngini = 0.4688\nsamples = 20\nvalue = [9, 15]"] ;
53 -> 54 ;
55 [label="X[279] <= 0.5\ngini = 0.4764\nsamples = 19\nvalue = [9, 14]"] ;
54 -> 55 ;
56 [label="X[95] <= 0.5\ngini = 0.4628\nsamples = 18\nvalue = [8, 14]"] ;
55 -> 56 ;
57 [label="X[729] <= 0.5\ngini = 0.4444\nsamples = 17\nvalue = [7, 14]"] ;
56 -> 57 ;
58 [label="X[192] <= 0.5\ngini = 0.42\nsamples = 16\nvalue = [6, 14]"] ;
57 -> 58 ;
59 [label="X[193] <= 0.5\ngini = 0.3878\nsamples = 15\nvalue = [5, 14]"] ;
58 -> 59 ;
60 [label="X[534] <= 0.5\ngini = 0.3457\nsamples = 14\nvalue = [4, 14]"] ;
59 -> 60 ;
61 [label="X[995] <= 0.5\ngini = 0.3599\nsamples = 13\nvalue = [4, 13]"] ;
60 -> 61 ;
62 [label="X[1001] <= 0.5\ngini = 0.375\nsamples = 12\nvalue = [4, 12]"] ;
61 -> 62 ;
63 [label="X[808] <= 0.5\ngini = 0.426\nsamples = 11\nvalue = [4, 9]"] ;
62 -> 63 ;
64 [label="X[3] <= 0.5\ngini = 0.4444\nsamples = 10\nvalue = [4, 8]"] ;
63 -> 64 ;
65 [label="X[1101] <= 0.5\ngini = 0.4628\nsamples = 9\nvalue = [4, 7]"] ;
64 -> 65 ;
66 [label="X[563] <= 0.5\ngini = 0.48\nsamples = 8\nvalue = [4, 6]"] ;
65 -> 66 ;
67 [label="X[20] <= 0.5\ngini = 0.4938\nsamples = 7\nvalue = [4, 5]"] ;
66 -> 67 ;
68 [label="X[1103] <= 0.5\ngini = 0.4898\nsamples = 6\nvalue = [4, 3]"] ;
67 -> 68 ;
69 [label="X[820] <= 0.5\ngini = 0.4444\nsamples = 5\nvalue = [4, 2]"] ;
68 -> 69 ;
70 [label="X[416] <= 0.5\ngini = 0.48\nsamples = 4\nvalue = [3, 2]"] ;
69 -> 70 ;
71 [label="X[959] <= 0.5\ngini = 0.4444\nsamples = 3\nvalue = [1, 2]"] ;
70 -> 71 ;
72 [label="X[815] <= 0.5\ngini = 0.5\nsamples = 2\nvalue = [1, 1]"] ;
71 -> 72 ;
73 [label="gini = 0.0\nsamples = 1\nvalue = [0, 1]"] ;
72 -> 73 ;
74 [label="gini = 0.0\nsamples = 1\nvalue = [1, 0]"] ;
72 -> 74 ;
75 [label="gini = 0.0\nsamples = 1\nvalue = [0, 1]"] ;
71 -> 75 ;
76 [label="gini = 0.0\nsamples = 1\nvalue = [2, 0]"] ;
70 -> 76 ;
77 [label="gini = 0.0\nsamples = 1\nvalue = [1, 0]"] ;
69 -> 77 ;
78 [label="gini = 0.0\nsamples = 1\nvalue = [0, 1]"] ;
68 -> 78 ;
79 [label="gini = 0.0\nsamples = 1\nvalue = [0, 2]"] ;
67 -> 79 ;
80 [label="gini = 0.0\nsamples = 1\nvalue = [0, 1]"] ;
66 -> 80 ;
81 [label="gini = 0.0\nsamples = 1\nvalue = [0, 1]"] ;
65 -> 81 ;
82 [label="gini = 0.0\nsamples = 1\nvalue = [0, 1]"] ;
64 -> 82 ;
83 [label="gini = 0.0\nsamples = 1\nvalue = [0, 1]"] ;
63 -> 83 ;
84 [label="gini = 0.0\nsamples = 1\nvalue = [0, 3]"] ;
62 -> 84 ;
85 [label="gini = 0.0\nsamples = 1\nvalue = [0, 1]"] ;
61 -> 85 ;
86 [label="gini = 0.0\nsamples = 1\nvalue = [0, 1]"] ;
60 -> 86 ;
87 [label="gini = 0.0\nsamples = 1\nvalue = [1, 0]"] ;
59 -> 87 ;
88 [label="gini = 0.0\nsamples = 1\nvalue = [1, 0]"] ;
58 -> 88 ;
89 [label="gini = 0.0\nsamples = 1\nvalue = [1, 0]"] ;
57 -> 89 ;
90 [label="gini = 0.0\nsamples = 1\nvalue = [1, 0]"] ;
56 -> 90 ;
91 [label="gini = 0.0\nsamples = 1\nvalue = [1, 0]"] ;
55 -> 91 ;
92 [label="gini = 0.0\nsamples = 1\nvalue = [0, 1]"] ;
54 -> 92 ;
93 [label="gini = 0.0\nsamples = 1\nvalue = [0, 1]"] ;
53 -> 93 ;
94 [label="gini = 0.0\nsamples = 1\nvalue = [0, 1]"] ;
52 -> 94 ;
95 [label="gini = 0.0\nsamples = 1\nvalue = [0, 1]"] ;
51 -> 95 ;
96 [label="gini = 0.0\nsamples = 1\nvalue = [3, 0]"] ;
50 -> 96 ;
97 [label="gini = 0.0\nsamples = 1\nvalue = [2, 0]"] ;
49 -> 97 ;
98 [label="gini = 0.0\nsamples = 1\nvalue = [2, 0]"] ;
48 -> 98 ;
99 [label="gini = 0.0\nsamples = 1\nvalue = [2, 0]"] ;
47 -> 99 ;
100 [label="gini = 0.0\nsamples = 2\nvalue = [2, 0]"] ;
46 -> 100 ;
101 [label="gini = 0.0\nsamples = 1\nvalue = [0, 2]"] ;
45 -> 101 ;
102 [label="gini = 0.0\nsamples = 1\nvalue = [0, 3]"] ;
44 -> 102 ;
103 [label="gini = 0.0\nsamples = 1\nvalue = [0, 2]"] ;
43 -> 103 ;
104 [label="gini = 0.0\nsamples = 1\nvalue = [1, 0]"] ;
42 -> 104 ;
105 [label="gini = 0.0\nsamples = 2\nvalue = [0, 3]"] ;
41 -> 105 ;
106 [label="gini = 0.0\nsamples = 1\nvalue = [0, 1]"] ;
40 -> 106 ;
107 [label="gini = 0.0\nsamples = 1\nvalue = [1, 0]"] ;
39 -> 107 ;
108 [label="gini = 0.0\nsamples = 1\nvalue = [2, 0]"] ;
38 -> 108 ;
109 [label="gini = 0.0\nsamples = 1\nvalue = [3, 0]"] ;
37 -> 109 ;
110 [label="gini = 0.0\nsamples = 1\nvalue = [2, 0]"] ;
36 -> 110 ;
111 [label="gini = 0.0\nsamples = 1\nvalue = [2, 0]"] ;
35 -> 111 ;
112 [label="gini = 0.0\nsamples = 1\nvalue = [0, 1]"] ;
34 -> 112 ;
113 [label="gini = 0.0\nsamples = 1\nvalue = [0, 1]"] ;
33 -> 113 ;
114 [label="gini = 0.0\nsamples = 1\nvalue = [0, 2]"] ;
32 -> 114 ;
115 [label="gini = 0.0\nsamples = 1\nvalue = [0, 2]"] ;
31 -> 115 ;
116 [label="gini = 0.0\nsamples = 2\nvalue = [0, 3]"] ;
30 -> 116 ;
117 [label="gini = 0.0\nsamples = 1\nvalue = [0, 2]"] ;
29 -> 117 ;
118 [label="gini = 0.0\nsamples = 1\nvalue = [1, 0]"] ;
28 -> 118 ;
119 [label="gini = 0.0\nsamples = 1\nvalue = [2, 0]"] ;
27 -> 119 ;
120 [label="gini = 0.0\nsamples = 1\nvalue = [1, 0]"] ;
26 -> 120 ;
121 [label="gini = 0.0\nsamples = 1\nvalue = [0, 3]"] ;
25 -> 121 ;
122 [label="gini = 0.0\nsamples = 1\nvalue = [1, 0]"] ;
24 -> 122 ;
123 [label="gini = 0.0\nsamples = 2\nvalue = [2, 0]"] ;
23 -> 123 ;
124 [label="gini = 0.0\nsamples = 1\nvalue = [2, 0]"] ;
22 -> 124 ;
125 [label="gini = 0.0\nsamples = 1\nvalue = [2, 0]"] ;
21 -> 125 ;
126 [label="gini = 0.0\nsamples = 1\nvalue = [1, 0]"] ;
20 -> 126 ;
127 [label="gini = 0.0\nsamples = 1\nvalue = [0, 4]"] ;
19 -> 127 ;
128 [label="gini = 0.0\nsamples = 1\nvalue = [3, 0]"] ;
18 -> 128 ;
129 [label="gini = 0.0\nsamples = 1\nvalue = [0, 2]"] ;
17 -> 129 ;
130 [label="gini = 0.0\nsamples = 1\nvalue = [0, 2]"] ;
16 -> 130 ;
131 [label="X[1125] <= 0.5\ngini = 0.32\nsamples = 3\nvalue = [1, 4]"] ;
15 -> 131 ;
132 [label="X[446] <= 0.5\ngini = 0.5\nsamples = 2\nvalue = [1, 1]"] ;
131 -> 132 ;
133 [label="gini = 0.0\nsamples = 1\nvalue = [0, 1]"] ;
132 -> 133 ;
134 [label="gini = 0.0\nsamples = 1\nvalue = [1, 0]"] ;
132 -> 134 ;
135 [label="gini = 0.0\nsamples = 1\nvalue = [0, 3]"] ;
131 -> 135 ;
136 [label="gini = 0.0\nsamples = 1\nvalue = [0, 1]"] ;
14 -> 136 ;
137 [label="gini = 0.0\nsamples = 1\nvalue = [1, 0]"] ;
13 -> 137 ;
138 [label="gini = 0.0\nsamples = 1\nvalue = [0, 2]"] ;
12 -> 138 ;
139 [label="gini = 0.0\nsamples = 1\nvalue = [1, 0]"] ;
11 -> 139 ;
140 [label="gini = 0.0\nsamples = 2\nvalue = [0, 4]"] ;
10 -> 140 ;
141 [label="gini = 0.0\nsamples = 1\nvalue = [3, 0]"] ;
9 -> 141 ;
142 [label="gini = 0.0\nsamples = 2\nvalue = [2, 0]"] ;
8 -> 142 ;
143 [label="gini = 0.0\nsamples = 1\nvalue = [2, 0]"] ;
7 -> 143 ;
144 [label="gini = 0.0\nsamples = 1\nvalue = [1, 0]"] ;
6 -> 144 ;
145 [label="gini = 0.0\nsamples = 4\nvalue = [7, 0]"] ;
5 -> 145 ;
146 [label="gini = 0.0\nsamples = 1\nvalue = [0, 1]"] ;
4 -> 146 ;
147 [label="gini = 0.0\nsamples = 1\nvalue = [0, 2]"] ;
3 -> 147 ;
148 [label="gini = 0.0\nsamples = 1\nvalue = [5, 0]"] ;
2 -> 148 ;
149 [label="gini = 0.0\nsamples = 1\nvalue = [1, 0]"] ;
1 -> 149 ;
150 [label="gini = 0.0\nsamples = 1\nvalue = [0, 1]"] ;
0 -> 150 [labeldistance=2.5, labelangle=-45, headlabel="False"] ;
}