digraph Tree {
node [shape=box, style="filled, rounded", color="black", fontname=helvetica] ;
edge [fontname=helvetica] ;
0 [label="emotji_sent_score <= 0.1285\ngini = 0.1947\nsamples = 4873\nvalue = [842, 6862]", fillcolor="#399de5e0"] ;
1 [label="news_words <= 2.5\ngini = 0.2349\nsamples = 2868\nvalue = [623, 3960]", fillcolor="#399de5d7"] ;
0 -> 1 [labeldistance=2.5, labelangle=45, headlabel="True"] ;
2 [label="followers_cnt <= 0.5\ngini = 0.2931\nsamples = 1936\nvalue = [553, 2547]", fillcolor="#399de5c8"] ;
1 -> 2 ;
3 [label="words <= 5.5\ngini = 0.261\nsamples = 1732\nvalue = [431, 2362]", fillcolor="#399de5d0"] ;
2 -> 3 ;
4 [label="urls_wiki <= 3027.5\ngini = 0.3077\nsamples = 1091\nvalue = [332, 1416]", fillcolor="#399de5c3"] ;
3 -> 4 ;
5 [label="gini = 0.2865\nsamples = 1002\nvalue = [281, 1341]", fillcolor="#399de5ca"] ;
4 -> 5 ;
6 [label="gini = 0.4819\nsamples = 89\nvalue = [51, 75]", fillcolor="#399de552"] ;
4 -> 6 ;
7 [label="urls_moz <= 86746.0\ngini = 0.1715\nsamples = 641\nvalue = [99, 946]", fillcolor="#399de5e4"] ;
3 -> 7 ;
8 [label="gini = 0.1578\nsamples = 553\nvalue = [78, 825]", fillcolor="#399de5e7"] ;
7 -> 8 ;
9 [label="gini = 0.252\nsamples = 88\nvalue = [21, 121]", fillcolor="#399de5d3"] ;
7 -> 9 ;
10 [label="has_exclamation_mark <= 0.009\ngini = 0.4789\nsamples = 204\nvalue = [122, 185]", fillcolor="#399de557"] ;
2 -> 10 ;
11 [label="reg_age <= 240695.0\ngini = 0.4841\nsamples = 199\nvalue = [122, 175]", fillcolor="#399de54d"] ;
10 -> 11 ;
12 [label="gini = 0.414\nsamples = 133\nvalue = [60, 145]", fillcolor="#399de595"] ;
11 -> 12 ;
13 [label="gini = 0.4395\nsamples = 66\nvalue = [62, 30]", fillcolor="#e5813984"] ;
11 -> 13 ;
14 [label="gini = 0.0\nsamples = 5\nvalue = [0, 10]", fillcolor="#399de5ff"] ;
10 -> 14 ;
15 [label="news_words <= 3.5\ngini = 0.0899\nsamples = 932\nvalue = [70, 1413]", fillcolor="#399de5f2"] ;
1 -> 15 ;
16 [label="reg_age <= 353095.5\ngini = 0.1586\nsamples = 419\nvalue = [58, 610]", fillcolor="#399de5e7"] ;
15 -> 16 ;
17 [label="len_characters <= 0.5\ngini = 0.1418\nsamples = 406\nvalue = [50, 601]", fillcolor="#399de5ea"] ;
16 -> 17 ;
18 [label="gini = 0.1364\nsamples = 366\nvalue = [43, 541]", fillcolor="#399de5eb"] ;
17 -> 18 ;
19 [label="gini = 0.1871\nsamples = 40\nvalue = [7, 60]", fillcolor="#399de5e1"] ;
17 -> 19 ;
20 [label="has_multi_quest_exclam <= 0.5\ngini = 0.4983\nsamples = 13\nvalue = [8, 9]", fillcolor="#399de51c"] ;
16 -> 20 ;
21 [label="gini = 0.497\nsamples = 10\nvalue = [7, 6]", fillcolor="#e5813924"] ;
20 -> 21 ;
22 [label="gini = 0.375\nsamples = 3\nvalue = [1, 3]", fillcolor="#399de5aa"] ;
20 -> 22 ;
23 [label="duplicate <= 20.5\ngini = 0.029\nsamples = 513\nvalue = [12, 803]", fillcolor="#399de5fb"] ;
15 -> 23 ;
24 [label="urls_moz <= 81.0\ngini = 0.048\nsamples = 311\nvalue = [12, 476]", fillcolor="#399de5f9"] ;
23 -> 24 ;
25 [label="gini = 0.2311\nsamples = 10\nvalue = [2, 13]", fillcolor="#399de5d8"] ;
24 -> 25 ;
26 [label="gini = 0.0414\nsamples = 301\nvalue = [10, 463]", fillcolor="#399de5f9"] ;
24 -> 26 ;
27 [label="gini = 0.0\nsamples = 202\nvalue = [0, 327]", fillcolor="#399de5ff"] ;
23 -> 27 ;
28 [label="has_exclamation_mark <= 0.51\ngini = 0.1305\nsamples = 2005\nvalue = [219, 2902]", fillcolor="#399de5ec"] ;
0 -> 28 [labeldistance=2.5, labelangle=-45, headlabel="False"] ;
29 [label="words <= 1.5\ngini = 0.1312\nsamples = 1994\nvalue = [219, 2883]", fillcolor="#399de5ec"] ;
28 -> 29 ;
30 [label="emotji_sent_score <= 0.566\ngini = 0.0805\nsamples = 889\nvalue = [58, 1323]", fillcolor="#399de5f4"] ;
29 -> 30 ;
31 [label="reg_age <= 168180.5\ngini = 0.0781\nsamples = 885\nvalue = [56, 1319]", fillcolor="#399de5f4"] ;
30 -> 31 ;
32 [label="gini = 0.0661\nsamples = 864\nvalue = [46, 1299]", fillcolor="#399de5f6"] ;
31 -> 32 ;
33 [label="gini = 0.4444\nsamples = 21\nvalue = [10, 20]", fillcolor="#399de57f"] ;
31 -> 33 ;
34 [label="has_pronoun <= 0.5\ngini = 0.4444\nsamples = 4\nvalue = [2, 4]", fillcolor="#399de57f"] ;
30 -> 34 ;
35 [label="gini = 0.5\nsamples = 3\nvalue = [2, 2]", fillcolor="#e5813900"] ;
34 -> 35 ;
36 [label="gini = 0.0\nsamples = 1\nvalue = [0, 2]", fillcolor="#399de5ff"] ;
34 -> 36 ;
37 [label="has_exclamation_mark <= 0.461\ngini = 0.1696\nsamples = 1105\nvalue = [161, 1560]", fillcolor="#399de5e5"] ;
29 -> 37 ;
38 [label="verified <= 0.5\ngini = 0.1688\nsamples = 1103\nvalue = [160, 1559]", fillcolor="#399de5e5"] ;
37 -> 38 ;
39 [label="gini = 0.2153\nsamples = 285\nvalue = [54, 386]", fillcolor="#399de5db"] ;
38 -> 39 ;
40 [label="gini = 0.152\nsamples = 818\nvalue = [106, 1173]", fillcolor="#399de5e8"] ;
38 -> 40 ;
41 [label="has_pronoun <= 0.5\ngini = 0.5\nsamples = 2\nvalue = [1, 1]", fillcolor="#e5813900"] ;
37 -> 41 ;
42 [label="gini = 0.0\nsamples = 1\nvalue = [0, 1]", fillcolor="#399de5ff"] ;
41 -> 42 ;
43 [label="gini = 0.0\nsamples = 1\nvalue = [1, 0]", fillcolor="#e58139ff"] ;
41 -> 43 ;
44 [label="gini = 0.0\nsamples = 11\nvalue = [0, 19]", fillcolor="#399de5ff"] ;
28 -> 44 ;
}