digraph Tree {
node [shape=box, style="filled, rounded", color="black", fontname=helvetica] ;
edge [fontname=helvetica] ;
0 [label="has_multi_quest_exclam <= 0.5\ngini = 0.2035\nsamples = 2205\nvalue = [400, 3079]", fillcolor="#399de5de"] ;
1 [label="followers_cnt <= 0.5\ngini = 0.2373\nsamples = 1591\nvalue = [341, 2137]", fillcolor="#399de5d6"] ;
0 -> 1 [labeldistance=2.5, labelangle=45, headlabel="True"] ;
2 [label="num_stop_words <= 6.5\ngini = 0.2127\nsamples = 1514\nvalue = [285, 2071]", fillcolor="#399de5dc"] ;
1 -> 2 ;
3 [label="has_desc <= 11.5302\ngini = 0.2064\nsamples = 1478\nvalue = [268, 2026]", fillcolor="#399de5dd"] ;
2 -> 3 ;
4 [label="count_upper <= 0.5\ngini = 0.2815\nsamples = 547\nvalue = [142, 696]", fillcolor="#399de5cb"] ;
3 -> 4 ;
5 [label="gini = 0.4025\nsamples = 246\nvalue = [105, 271]", fillcolor="#399de59c"] ;
4 -> 5 ;
6 [label="gini = 0.1473\nsamples = 301\nvalue = [37, 425]", fillcolor="#399de5e9"] ;
4 -> 6 ;
7 [label="has_exclamation_mark <= 0.1105\ngini = 0.1581\nsamples = 931\nvalue = [126, 1330]", fillcolor="#399de5e7"] ;
3 -> 7 ;
8 [label="gini = 0.1587\nsamples = 927\nvalue = [126, 1324]", fillcolor="#399de5e7"] ;
7 -> 8 ;
9 [label="gini = 0.0\nsamples = 4\nvalue = [0, 6]", fillcolor="#399de5ff"] ;
7 -> 9 ;
10 [label="has_pronoun <= 0.5\ngini = 0.398\nsamples = 36\nvalue = [17, 45]", fillcolor="#399de59f"] ;
2 -> 10 ;
11 [label="num_stop_words <= 7.5\ngini = 0.2076\nsamples = 22\nvalue = [4, 30]", fillcolor="#399de5dd"] ;
10 -> 11 ;
12 [label="gini = 0.3324\nsamples = 13\nvalue = [4, 15]", fillcolor="#399de5bb"] ;
11 -> 12 ;
13 [label="gini = 0.0\nsamples = 9\nvalue = [0, 15]", fillcolor="#399de5ff"] ;
11 -> 13 ;
14 [label="words <= 2.0\ngini = 0.4974\nsamples = 14\nvalue = [13, 15]", fillcolor="#399de522"] ;
10 -> 14 ;
15 [label="gini = 0.0\nsamples = 6\nvalue = [0, 10]", fillcolor="#399de5ff"] ;
14 -> 15 ;
16 [label="gini = 0.4012\nsamples = 8\nvalue = [13, 5]", fillcolor="#e581399d"] ;
14 -> 16 ;
17 [label="words_no_url <= 101.5\ngini = 0.4966\nsamples = 77\nvalue = [56, 66]", fillcolor="#399de527"] ;
1 -> 17 ;
18 [label="urls_moz <= 119340.5\ngini = 0.1049\nsamples = 12\nvalue = [1, 17]", fillcolor="#399de5f0"] ;
17 -> 18 ;
19 [label="gini = 0.0\nsamples = 10\nvalue = [0, 16]", fillcolor="#399de5ff"] ;
18 -> 19 ;
20 [label="duplicate <= 8.5\ngini = 0.5\nsamples = 2\nvalue = [1, 1]", fillcolor="#e5813900"] ;
18 -> 20 ;
21 [label="gini = 0.0\nsamples = 1\nvalue = [0, 1]", fillcolor="#399de5ff"] ;
20 -> 21 ;
22 [label="gini = 0.0\nsamples = 1\nvalue = [1, 0]", fillcolor="#e58139ff"] ;
20 -> 22 ;
23 [label="verified <= 0.5\ngini = 0.4983\nsamples = 65\nvalue = [55, 49]", fillcolor="#e581391c"] ;
17 -> 23 ;
24 [label="len_characters <= 0.5\ngini = 0.4444\nsamples = 2\nvalue = [1, 2]", fillcolor="#399de57f"] ;
23 -> 24 ;
25 [label="gini = 0.0\nsamples = 1\nvalue = [1, 0]", fillcolor="#e58139ff"] ;
24 -> 25 ;
26 [label="gini = 0.0\nsamples = 1\nvalue = [0, 2]", fillcolor="#399de5ff"] ;
24 -> 26 ;
27 [label="words_no_url <= 107.5\ngini = 0.4976\nsamples = 63\nvalue = [54, 47]", fillcolor="#e5813921"] ;
23 -> 27 ;
28 [label="gini = 0.2975\nsamples = 6\nvalue = [9, 2]", fillcolor="#e58139c6"] ;
27 -> 28 ;
29 [label="gini = 0.5\nsamples = 57\nvalue = [45, 45]", fillcolor="#e5813900"] ;
27 -> 29 ;
30 [label="has_exclamation_mark <= 0.1885\ngini = 0.1109\nsamples = 614\nvalue = [59, 942]", fillcolor="#399de5ef"] ;
0 -> 30 [labeldistance=2.5, labelangle=-45, headlabel="False"] ;
31 [label="words_no_url <= 74.5\ngini = 0.1132\nsamples = 601\nvalue = [59, 921]", fillcolor="#399de5ef"] ;
30 -> 31 ;
32 [label="gini = 0.0\nsamples = 29\nvalue = [0, 54]", fillcolor="#399de5ff"] ;
31 -> 32 ;
33 [label="has_url <= 47.0\ngini = 0.1193\nsamples = 572\nvalue = [59, 867]", fillcolor="#399de5ee"] ;
31 -> 33 ;
34 [label="has_pronoun <= 0.5\ngini = 0.1078\nsamples = 540\nvalue = [50, 825]", fillcolor="#399de5f0"] ;
33 -> 34 ;
35 [label="gini = 0.1053\nsamples = 362\nvalue = [31, 525]", fillcolor="#399de5f0"] ;
34 -> 35 ;
36 [label="gini = 0.112\nsamples = 178\nvalue = [19, 300]", fillcolor="#399de5ef"] ;
34 -> 36 ;
37 [label="num_words <= 0.5\ngini = 0.2907\nsamples = 32\nvalue = [9, 42]", fillcolor="#399de5c8"] ;
33 -> 37 ;
38 [label="gini = 0.3254\nsamples = 27\nvalue = [9, 35]", fillcolor="#399de5bd"] ;
37 -> 38 ;
39 [label="gini = 0.0\nsamples = 5\nvalue = [0, 7]", fillcolor="#399de5ff"] ;
37 -> 39 ;
40 [label="gini = 0.0\nsamples = 13\nvalue = [0, 21]", fillcolor="#399de5ff"] ;
30 -> 40 ;
}