digraph Tree {
node [shape=box, style="filled, rounded", color="black", fontname=helvetica] ;
edge [fontname=helvetica] ;
0 [label="duplicate <= 19.5\ngini = 0.2912\nsamples = 3337\nvalue = [933, 4341]", fillcolor="#399de5c8"] ;
1 [label="urls_wiki <= 2100.5\ngini = 0.3701\nsamples = 1994\nvalue = [768, 2365]", fillcolor="#399de5ac"] ;
0 -> 1 [labeldistance=2.5, labelangle=45, headlabel="True"] ;
2 [label="has_hashtag <= 0.5\ngini = 0.3009\nsamples = 1429\nvalue = [411, 1817]", fillcolor="#399de5c5"] ;
1 -> 2 ;
3 [label="followers_cnt <= 0.5\ngini = 0.4162\nsamples = 591\nvalue = [274, 654]", fillcolor="#399de594"] ;
2 -> 3 ;
4 [label="verified <= 0.5\ngini = 0.4154\nsamples = 577\nvalue = [267, 640]", fillcolor="#399de595"] ;
3 -> 4 ;
5 [label="gini = 0.375\nsamples = 336\nvalue = [131, 393]", fillcolor="#399de5aa"] ;
4 -> 5 ;
6 [label="gini = 0.458\nsamples = 241\nvalue = [136, 247]", fillcolor="#399de573"] ;
4 -> 6 ;
7 [label="urls_moz <= 2412.5\ngini = 0.4444\nsamples = 14\nvalue = [7, 14]", fillcolor="#399de57f"] ;
3 -> 7 ;
8 [label="gini = 0.0\nsamples = 2\nvalue = [3, 0]", fillcolor="#e58139ff"] ;
7 -> 8 ;
9 [label="gini = 0.3457\nsamples = 12\nvalue = [4, 14]", fillcolor="#399de5b6"] ;
7 -> 9 ;
10 [label="urls_wiki <= 1171.5\ngini = 0.1886\nsamples = 838\nvalue = [137, 1163]", fillcolor="#399de5e1"] ;
2 -> 10 ;
11 [label="cnt_most_pop <= 0.5\ngini = 0.141\nsamples = 588\nvalue = [70, 847]", fillcolor="#399de5ea"] ;
10 -> 11 ;
12 [label="gini = 0.1331\nsamples = 363\nvalue = [41, 531]", fillcolor="#399de5eb"] ;
11 -> 12 ;
13 [label="gini = 0.154\nsamples = 225\nvalue = [29, 316]", fillcolor="#399de5e8"] ;
11 -> 13 ;
14 [label="words_no_url <= 82.5\ngini = 0.2887\nsamples = 250\nvalue = [67, 316]", fillcolor="#399de5c9"] ;
10 -> 14 ;
15 [label="gini = 0.0233\nsamples = 52\nvalue = [1, 84]", fillcolor="#399de5fc"] ;
14 -> 15 ;
16 [label="gini = 0.3448\nsamples = 198\nvalue = [66, 232]", fillcolor="#399de5b6"] ;
14 -> 16 ;
17 [label="has_desc <= 5.7537\ngini = 0.4777\nsamples = 565\nvalue = [357, 548]", fillcolor="#399de559"] ;
1 -> 17 ;
18 [label="status_cnt <= 2346.5\ngini = 0.4126\nsamples = 189\nvalue = [87, 212]", fillcolor="#399de596"] ;
17 -> 18 ;
19 [label="verified <= 0.5\ngini = 0.4427\nsamples = 163\nvalue = [85, 172]", fillcolor="#399de581"] ;
18 -> 19 ;
20 [label="gini = 0.4592\nsamples = 44\nvalue = [25, 45]", fillcolor="#399de571"] ;
19 -> 20 ;
21 [label="gini = 0.4358\nsamples = 119\nvalue = [60, 127]", fillcolor="#399de587"] ;
19 -> 21 ;
22 [label="emotji_sent_score <= 0.0975\ngini = 0.0907\nsamples = 26\nvalue = [2, 40]", fillcolor="#399de5f2"] ;
18 -> 22 ;
23 [label="gini = 0.1884\nsamples = 11\nvalue = [2, 17]", fillcolor="#399de5e1"] ;
22 -> 23 ;
24 [label="gini = 0.0\nsamples = 15\nvalue = [0, 23]", fillcolor="#399de5ff"] ;
22 -> 24 ;
25 [label="has_exclamation_mark <= 0.1885\ngini = 0.4941\nsamples = 376\nvalue = [270, 336]", fillcolor="#399de532"] ;
17 -> 25 ;
26 [label="followers_cnt <= 0.5\ngini = 0.4947\nsamples = 374\nvalue = [270, 332]", fillcolor="#399de530"] ;
25 -> 26 ;
27 [label="gini = 0.4895\nsamples = 320\nvalue = [224, 300]", fillcolor="#399de541"] ;
26 -> 27 ;
28 [label="gini = 0.4839\nsamples = 54\nvalue = [46, 32]", fillcolor="#e581394e"] ;
26 -> 28 ;
29 [label="gini = 0.0\nsamples = 2\nvalue = [0, 4]", fillcolor="#399de5ff"] ;
25 -> 29 ;
30 [label="urls_moz <= 2474340.0\ngini = 0.1423\nsamples = 1343\nvalue = [165, 1976]", fillcolor="#399de5ea"] ;
0 -> 30 [labeldistance=2.5, labelangle=-45, headlabel="False"] ;
31 [label="has_url <= 0.5\ngini = 0.1348\nsamples = 1328\nvalue = [154, 1964]", fillcolor="#399de5eb"] ;
30 -> 31 ;
32 [label="num_words <= 0.5\ngini = 0.1431\nsamples = 1041\nvalue = [128, 1522]", fillcolor="#399de5ea"] ;
31 -> 32 ;
33 [label="count_upper <= 0.5\ngini = 0.1526\nsamples = 954\nvalue = [126, 1388]", fillcolor="#399de5e8"] ;
32 -> 33 ;
34 [label="gini = 0.2196\nsamples = 522\nvalue = [106, 738]", fillcolor="#399de5da"] ;
33 -> 34 ;
35 [label="gini = 0.0579\nsamples = 432\nvalue = [20, 650]", fillcolor="#399de5f7"] ;
33 -> 35 ;
36 [label="len_characters <= 0.5\ngini = 0.029\nsamples = 87\nvalue = [2, 134]", fillcolor="#399de5fb"] ;
32 -> 36 ;
37 [label="gini = 0.031\nsamples = 83\nvalue = [2, 125]", fillcolor="#399de5fb"] ;
36 -> 37 ;
38 [label="gini = 0.0\nsamples = 4\nvalue = [0, 9]", fillcolor="#399de5ff"] ;
36 -> 38 ;
39 [label="words_no_url <= 127.0\ngini = 0.1049\nsamples = 287\nvalue = [26, 442]", fillcolor="#399de5f0"] ;
31 -> 39 ;
40 [label="gini = 0.0\nsamples = 42\nvalue = [0, 66]", fillcolor="#399de5ff"] ;
39 -> 40 ;
41 [label="reg_age <= 180208.5\ngini = 0.121\nsamples = 245\nvalue = [26, 376]", fillcolor="#399de5ed"] ;
39 -> 41 ;
42 [label="gini = 0.0855\nsamples = 231\nvalue = [17, 363]", fillcolor="#399de5f3"] ;
41 -> 42 ;
43 [label="gini = 0.4835\nsamples = 14\nvalue = [9, 13]", fillcolor="#399de54e"] ;
41 -> 43 ;
44 [label="emotji_sent_score <= 0.151\ngini = 0.4991\nsamples = 15\nvalue = [11, 12]", fillcolor="#399de515"] ;
30 -> 44 ;
45 [label="gini = 0.0\nsamples = 1\nvalue = [2, 0]", fillcolor="#e58139ff"] ;
44 -> 45 ;
46 [label="words <= 2.0\ngini = 0.4898\nsamples = 14\nvalue = [9, 12]", fillcolor="#399de540"] ;
44 -> 46 ;
47 [label="num_stop_words <= 2.5\ngini = 0.48\nsamples = 13\nvalue = [8, 12]", fillcolor="#399de555"] ;
46 -> 47 ;
48 [label="gini = 0.0\nsamples = 2\nvalue = [0, 4]", fillcolor="#399de5ff"] ;
47 -> 48 ;
49 [label="gini = 0.5\nsamples = 11\nvalue = [8, 8]", fillcolor="#e5813900"] ;
47 -> 49 ;
50 [label="gini = 0.0\nsamples = 1\nvalue = [1, 0]", fillcolor="#e58139ff"] ;
46 -> 50 ;
}