digraph Tree {
node [shape=box, style="filled, rounded", color="black", fontname=helvetica] ;
edge [fontname=helvetica] ;
0 [label="emotji_sent_score <= 0.1225\ngini = 0.2145\nsamples = 2212\nvalue = [425, 3054]", fillcolor="#399de5dc"] ;
1 [label="words <= 4.5\ngini = 0.2648\nsamples = 1078\nvalue = [262, 1406]", fillcolor="#399de5cf"] ;
0 -> 1 [labeldistance=2.5, labelangle=45, headlabel="True"] ;
2 [label="urls_moz <= 10666.5\ngini = 0.3072\nsamples = 583\nvalue = [174, 744]", fillcolor="#399de5c3"] ;
1 -> 2 ;
3 [label="count_upper <= 0.5\ngini = 0.2352\nsamples = 278\nvalue = [58, 368]", fillcolor="#399de5d7"] ;
2 -> 3 ;
4 [label="words <= 3.5\ngini = 0.4362\nsamples = 98\nvalue = [45, 95]", fillcolor="#399de586"] ;
3 -> 4 ;
5 [label="gini = 0.3673\nsamples = 74\nvalue = [24, 75]", fillcolor="#399de5ad"] ;
4 -> 5 ;
6 [label="gini = 0.4997\nsamples = 24\nvalue = [21, 20]", fillcolor="#e581390c"] ;
4 -> 6 ;
7 [label="has_url <= 61.5\ngini = 0.0868\nsamples = 180\nvalue = [13, 273]", fillcolor="#399de5f3"] ;
3 -> 7 ;
8 [label="gini = 0.0815\nsamples = 178\nvalue = [12, 270]", fillcolor="#399de5f4"] ;
7 -> 8 ;
9 [label="gini = 0.375\nsamples = 2\nvalue = [1, 3]", fillcolor="#399de5aa"] ;
7 -> 9 ;
10 [label="count_upper <= 0.5\ngini = 0.3604\nsamples = 305\nvalue = [116, 376]", fillcolor="#399de5b0"] ;
2 -> 10 ;
11 [label="has_question_mark <= 0.5\ngini = 0.4921\nsamples = 147\nvalue = [104, 134]", fillcolor="#399de539"] ;
10 -> 11 ;
12 [label="gini = 0.4958\nsamples = 141\nvalue = [104, 125]", fillcolor="#399de52b"] ;
11 -> 12 ;
13 [label="gini = 0.0\nsamples = 6\nvalue = [0, 9]", fillcolor="#399de5ff"] ;
11 -> 13 ;
14 [label="num_stop_words <= 1.5\ngini = 0.09\nsamples = 158\nvalue = [12, 242]", fillcolor="#399de5f2"] ;
10 -> 14 ;
15 [label="gini = 0.0\nsamples = 28\nvalue = [0, 46]", fillcolor="#399de5ff"] ;
14 -> 15 ;
16 [label="gini = 0.1087\nsamples = 130\nvalue = [12, 196]", fillcolor="#399de5ef"] ;
14 -> 16 ;
17 [label="count_upper <= 0.5\ngini = 0.2071\nsamples = 495\nvalue = [88, 662]", fillcolor="#399de5dd"] ;
1 -> 17 ;
18 [label="has_hashtag <= 0.5\ngini = 0.2862\nsamples = 201\nvalue = [50, 239]", fillcolor="#399de5ca"] ;
17 -> 18 ;
19 [label="words_no_url <= 80.5\ngini = 0.2698\nsamples = 153\nvalue = [36, 188]", fillcolor="#399de5ce"] ;
18 -> 19 ;
20 [label="gini = 0.0\nsamples = 11\nvalue = [0, 17]", fillcolor="#399de5ff"] ;
19 -> 20 ;
21 [label="gini = 0.2873\nsamples = 142\nvalue = [36, 171]", fillcolor="#399de5c9"] ;
19 -> 21 ;
22 [label="followers_cnt <= 0.5\ngini = 0.338\nsamples = 48\nvalue = [14, 51]", fillcolor="#399de5b9"] ;
18 -> 22 ;
23 [label="gini = 0.3432\nsamples = 35\nvalue = [11, 39]", fillcolor="#399de5b7"] ;
22 -> 23 ;
24 [label="gini = 0.32\nsamples = 13\nvalue = [3, 12]", fillcolor="#399de5bf"] ;
22 -> 24 ;
25 [label="has_url <= 0.5\ngini = 0.1513\nsamples = 294\nvalue = [38, 423]", fillcolor="#399de5e8"] ;
17 -> 25 ;
26 [label="has_exclamation_mark <= 0.3095\ngini = 0.0804\nsamples = 202\nvalue = [13, 297]", fillcolor="#399de5f4"] ;
25 -> 26 ;
27 [label="gini = 0.0806\nsamples = 201\nvalue = [13, 296]", fillcolor="#399de5f4"] ;
26 -> 27 ;
28 [label="gini = 0.0\nsamples = 1\nvalue = [0, 1]", fillcolor="#399de5ff"] ;
26 -> 28 ;
29 [label="has_multi_quest_exclam <= 0.5\ngini = 0.2763\nsamples = 92\nvalue = [25, 126]", fillcolor="#399de5cc"] ;
25 -> 29 ;
30 [label="gini = 0.3841\nsamples = 50\nvalue = [21, 60]", fillcolor="#399de5a6"] ;
29 -> 30 ;
31 [label="gini = 0.1078\nsamples = 42\nvalue = [4, 66]", fillcolor="#399de5f0"] ;
29 -> 31 ;
32 [label="count_upper <= 0.5\ngini = 0.1638\nsamples = 1134\nvalue = [163, 1648]", fillcolor="#399de5e6"] ;
0 -> 32 [labeldistance=2.5, labelangle=-45, headlabel="False"] ;
33 [label="len_characters <= 0.5\ngini = 0.241\nsamples = 522\nvalue = [118, 724]", fillcolor="#399de5d5"] ;
32 -> 33 ;
34 [label="words_no_url <= 112.5\ngini = 0.2426\nsamples = 505\nvalue = [115, 699]", fillcolor="#399de5d5"] ;
33 -> 34 ;
35 [label="words_no_url <= 63.5\ngini = 0.3924\nsamples = 170\nvalue = [78, 213]", fillcolor="#399de5a2"] ;
34 -> 35 ;
36 [label="gini = 0.1356\nsamples = 23\nvalue = [3, 38]", fillcolor="#399de5eb"] ;
35 -> 36 ;
37 [label="gini = 0.42\nsamples = 147\nvalue = [75, 175]", fillcolor="#399de592"] ;
35 -> 37 ;
38 [label="has_desc <= 161.5516\ngini = 0.1315\nsamples = 335\nvalue = [37, 486]", fillcolor="#399de5ec"] ;
34 -> 38 ;
39 [label="gini = 0.2415\nsamples = 159\nvalue = [34, 208]", fillcolor="#399de5d5"] ;
38 -> 39 ;
40 [label="gini = 0.0211\nsamples = 176\nvalue = [3, 278]", fillcolor="#399de5fc"] ;
38 -> 40 ;
41 [label="num_stop_words <= 5.5\ngini = 0.1913\nsamples = 17\nvalue = [3, 25]", fillcolor="#399de5e0"] ;
33 -> 41 ;
42 [label="urls_moz <= 151846.5\ngini = 0.142\nsamples = 15\nvalue = [2, 24]", fillcolor="#399de5ea"] ;
41 -> 42 ;
43 [label="gini = 0.0\nsamples = 9\nvalue = [0, 15]", fillcolor="#399de5ff"] ;
42 -> 43 ;
44 [label="gini = 0.2975\nsamples = 6\nvalue = [2, 9]", fillcolor="#399de5c6"] ;
42 -> 44 ;
45 [label="words <= 2.0\ngini = 0.5\nsamples = 2\nvalue = [1, 1]", fillcolor="#e5813900"] ;
41 -> 45 ;
46 [label="gini = 0.0\nsamples = 1\nvalue = [0, 1]", fillcolor="#399de5ff"] ;
45 -> 46 ;
47 [label="gini = 0.0\nsamples = 1\nvalue = [1, 0]", fillcolor="#e58139ff"] ;
45 -> 47 ;
48 [label="has_multi_quest_exclam <= 0.5\ngini = 0.0886\nsamples = 612\nvalue = [45, 924]", fillcolor="#399de5f3"] ;
32 -> 48 ;
49 [label="cnt_most_pop <= 0.5\ngini = 0.0956\nsamples = 476\nvalue = [38, 717]", fillcolor="#399de5f1"] ;
48 -> 49 ;
50 [label="reg_age <= 1323.5\ngini = 0.0993\nsamples = 456\nvalue = [38, 687]", fillcolor="#399de5f1"] ;
49 -> 50 ;
51 [label="gini = 0.1624\nsamples = 228\nvalue = [32, 327]", fillcolor="#399de5e6"] ;
50 -> 51 ;
52 [label="gini = 0.0322\nsamples = 228\nvalue = [6, 360]", fillcolor="#399de5fb"] ;
50 -> 52 ;
53 [label="gini = 0.0\nsamples = 20\nvalue = [0, 30]", fillcolor="#399de5ff"] ;
49 -> 53 ;
54 [label="has_question_mark <= 0.5\ngini = 0.0633\nsamples = 136\nvalue = [7, 207]", fillcolor="#399de5f6"] ;
48 -> 54 ;
55 [label="verified <= 0.5\ngini = 0.0692\nsamples = 121\nvalue = [7, 188]", fillcolor="#399de5f6"] ;
54 -> 55 ;
56 [label="gini = 0.0\nsamples = 48\nvalue = [0, 81]", fillcolor="#399de5ff"] ;
55 -> 56 ;
57 [label="gini = 0.1153\nsamples = 73\nvalue = [7, 107]", fillcolor="#399de5ee"] ;
55 -> 57 ;
58 [label="gini = 0.0\nsamples = 15\nvalue = [0, 19]", fillcolor="#399de5ff"] ;
54 -> 58 ;
}