digraph Tree {
node [shape=box, style="filled, rounded", color="black", fontname=helvetica] ;
edge [fontname=helvetica] ;
0 [label="has_question_mark <= 0.5\ngini = 0.3574\nsamples = 128\nvalue = [48, 158]", fillcolor="#399de5b2"] ;
1 [label="emotji_sent_score <= 0.1635\ngini = 0.3636\nsamples = 124\nvalue = [48, 153]", fillcolor="#399de5af"] ;
0 -> 1 [labeldistance=2.5, labelangle=45, headlabel="True"] ;
2 [label="cnt_most_pop <= 0.5\ngini = 0.3922\nsamples = 103\nvalue = [45, 123]", fillcolor="#399de5a2"] ;
1 -> 2 ;
3 [label="urls_wiki <= 3533.5\ngini = 0.3527\nsamples = 84\nvalue = [32, 108]", fillcolor="#399de5b3"] ;
2 -> 3 ;
4 [label="followers_cnt <= 0.5\ngini = 0.32\nsamples = 81\nvalue = [27, 108]", fillcolor="#399de5bf"] ;
3 -> 4 ;
5 [label="gini = 0.3394\nsamples = 73\nvalue = [26, 94]", fillcolor="#399de5b8"] ;
4 -> 5 ;
6 [label="gini = 0.1244\nsamples = 8\nvalue = [1, 14]", fillcolor="#399de5ed"] ;
4 -> 6 ;
7 [label="gini = 0.0\nsamples = 3\nvalue = [5, 0]", fillcolor="#e58139ff"] ;
3 -> 7 ;
8 [label="duplicate <= 14.5\ngini = 0.4974\nsamples = 19\nvalue = [13, 15]", fillcolor="#399de522"] ;
2 -> 8 ;
9 [label="has_multi_quest_exclam <= 0.5\ngini = 0.4082\nsamples = 10\nvalue = [4, 10]", fillcolor="#399de599"] ;
8 -> 9 ;
10 [label="gini = 0.4444\nsamples = 9\nvalue = [4, 8]", fillcolor="#399de57f"] ;
9 -> 10 ;
11 [label="gini = 0.0\nsamples = 1\nvalue = [0, 2]", fillcolor="#399de5ff"] ;
9 -> 11 ;
12 [label="status_cnt <= 705.5\ngini = 0.4592\nsamples = 9\nvalue = [9, 5]", fillcolor="#e5813971"] ;
8 -> 12 ;
13 [label="gini = 0.0\nsamples = 2\nvalue = [4, 0]", fillcolor="#e58139ff"] ;
12 -> 13 ;
14 [label="gini = 0.5\nsamples = 7\nvalue = [5, 5]", fillcolor="#e5813900"] ;
12 -> 14 ;
15 [label="has_pronoun <= 0.5\ngini = 0.1653\nsamples = 21\nvalue = [3, 30]", fillcolor="#399de5e6"] ;
1 -> 15 ;
16 [label="has_hashtag <= 0.5\ngini = 0.2449\nsamples = 10\nvalue = [2, 12]", fillcolor="#399de5d4"] ;
15 -> 16 ;
17 [label="has_desc <= 594.9519\ngini = 0.2449\nsamples = 5\nvalue = [1, 6]", fillcolor="#399de5d4"] ;
16 -> 17 ;
18 [label="gini = 0.5\nsamples = 2\nvalue = [1, 1]", fillcolor="#e5813900"] ;
17 -> 18 ;
19 [label="gini = 0.0\nsamples = 3\nvalue = [0, 5]", fillcolor="#399de5ff"] ;
17 -> 19 ;
20 [label="num_stop_words <= 4.0\ngini = 0.2449\nsamples = 5\nvalue = [1, 6]", fillcolor="#399de5d4"] ;
16 -> 20 ;
21 [label="gini = 0.5\nsamples = 2\nvalue = [1, 1]", fillcolor="#e5813900"] ;
20 -> 21 ;
22 [label="gini = 0.0\nsamples = 3\nvalue = [0, 5]", fillcolor="#399de5ff"] ;
20 -> 22 ;
23 [label="has_url <= 0.5\ngini = 0.0997\nsamples = 11\nvalue = [1, 18]", fillcolor="#399de5f1"] ;
15 -> 23 ;
24 [label="urls_moz <= 21663.5\ngini = 0.1975\nsamples = 6\nvalue = [1, 8]", fillcolor="#399de5df"] ;
23 -> 24 ;
25 [label="gini = 0.4444\nsamples = 2\nvalue = [1, 2]", fillcolor="#399de57f"] ;
24 -> 25 ;
26 [label="gini = 0.0\nsamples = 4\nvalue = [0, 6]", fillcolor="#399de5ff"] ;
24 -> 26 ;
27 [label="gini = 0.0\nsamples = 5\nvalue = [0, 10]", fillcolor="#399de5ff"] ;
23 -> 27 ;
28 [label="gini = 0.0\nsamples = 4\nvalue = [0, 5]", fillcolor="#399de5ff"] ;
0 -> 28 [labeldistance=2.5, labelangle=-45, headlabel="False"] ;
}