digraph Tree {
node [shape=box, style="filled, rounded", color="black", fontname=helvetica] ;
edge [fontname=helvetica] ;
0 [label="status_cnt <= 2700.0\ngini = 0.3035\nsamples = 3316\nvalue = [984, 4290]", fillcolor="#399de5c5"] ;
1 [label="words_no_url <= 115.5\ngini = 0.3295\nsamples = 2460\nvalue = [813, 3096]", fillcolor="#399de5bc"] ;
0 -> 1 [labeldistance=2.5, labelangle=45, headlabel="True"] ;
2 [label="has_desc <= 1063.541\ngini = 0.4093\nsamples = 1022\nvalue = [469, 1165]", fillcolor="#399de598"] ;
1 -> 2 ;
3 [label="urls_moz <= 8025.5\ngini = 0.4414\nsamples = 869\nvalue = [458, 935]", fillcolor="#399de582"] ;
2 -> 3 ;
4 [label="num_words <= 0.5\ngini = 0.2898\nsamples = 373\nvalue = [106, 497]", fillcolor="#399de5c9"] ;
3 -> 4 ;
5 [label="gini = 0.3195\nsamples = 316\nvalue = [102, 409]", fillcolor="#399de5bf"] ;
4 -> 5 ;
6 [label="gini = 0.0832\nsamples = 57\nvalue = [4, 88]", fillcolor="#399de5f3"] ;
4 -> 6 ;
7 [label="has_hashtag <= 0.5\ngini = 0.4941\nsamples = 496\nvalue = [352, 438]", fillcolor="#399de532"] ;
3 -> 7 ;
8 [label="gini = 0.4963\nsamples = 291\nvalue = [254, 214]", fillcolor="#e5813928"] ;
7 -> 8 ;
9 [label="gini = 0.4234\nsamples = 205\nvalue = [98, 224]", fillcolor="#399de58f"] ;
7 -> 9 ;
10 [label="urls_wiki <= 1097.0\ngini = 0.0871\nsamples = 153\nvalue = [11, 230]", fillcolor="#399de5f3"] ;
2 -> 10 ;
11 [label="verified <= 0.5\ngini = 0.065\nsamples = 152\nvalue = [8, 230]", fillcolor="#399de5f6"] ;
10 -> 11 ;
12 [label="gini = 0.0652\nsamples = 151\nvalue = [8, 229]", fillcolor="#399de5f6"] ;
11 -> 12 ;
13 [label="gini = 0.0\nsamples = 1\nvalue = [0, 1]", fillcolor="#399de5ff"] ;
11 -> 13 ;
14 [label="gini = 0.0\nsamples = 1\nvalue = [3, 0]", fillcolor="#e58139ff"] ;
10 -> 14 ;
15 [label="has_desc <= 330.4562\ngini = 0.2567\nsamples = 1438\nvalue = [344, 1931]", fillcolor="#399de5d2"] ;
1 -> 15 ;
16 [label="has_question_mark <= 0.5\ngini = 0.2943\nsamples = 1074\nvalue = [307, 1405]", fillcolor="#399de5c7"] ;
15 -> 16 ;
17 [label="words <= 1.5\ngini = 0.3051\nsamples = 1016\nvalue = [305, 1319]", fillcolor="#399de5c4"] ;
16 -> 17 ;
18 [label="gini = 0.0961\nsamples = 256\nvalue = [20, 375]", fillcolor="#399de5f1"] ;
17 -> 18 ;
19 [label="gini = 0.3562\nsamples = 760\nvalue = [285, 944]", fillcolor="#399de5b2"] ;
17 -> 19 ;
20 [label="status_cnt <= 36.0\ngini = 0.0444\nsamples = 58\nvalue = [2, 86]", fillcolor="#399de5f9"] ;
16 -> 20 ;
21 [label="gini = 0.375\nsamples = 5\nvalue = [2, 6]", fillcolor="#399de5aa"] ;
20 -> 21 ;
22 [label="gini = 0.0\nsamples = 53\nvalue = [0, 80]", fillcolor="#399de5ff"] ;
20 -> 22 ;
23 [label="len_characters <= 0.5\ngini = 0.1228\nsamples = 364\nvalue = [37, 526]", fillcolor="#399de5ed"] ;
15 -> 23 ;
24 [label="urls_wiki <= 275.5\ngini = 0.1178\nsamples = 359\nvalue = [35, 522]", fillcolor="#399de5ee"] ;
23 -> 24 ;
25 [label="gini = 0.0213\nsamples = 241\nvalue = [4, 367]", fillcolor="#399de5fc"] ;
24 -> 25 ;
26 [label="gini = 0.2778\nsamples = 118\nvalue = [31, 155]", fillcolor="#399de5cc"] ;
24 -> 26 ;
27 [label="followers_cnt <= 0.5\ngini = 0.4444\nsamples = 5\nvalue = [2, 4]", fillcolor="#399de57f"] ;
23 -> 27 ;
28 [label="gini = 0.48\nsamples = 4\nvalue = [2, 3]", fillcolor="#399de555"] ;
27 -> 28 ;
29 [label="gini = 0.0\nsamples = 1\nvalue = [0, 1]", fillcolor="#399de5ff"] ;
27 -> 29 ;
30 [label="status_cnt <= 3296.5\ngini = 0.2192\nsamples = 856\nvalue = [171, 1194]", fillcolor="#399de5da"] ;
0 -> 30 [labeldistance=2.5, labelangle=-45, headlabel="False"] ;
31 [label="num_stop_words <= 9.0\ngini = 0.0696\nsamples = 127\nvalue = [7, 187]", fillcolor="#399de5f5"] ;
30 -> 31 ;
32 [label="words <= 9.5\ngini = 0.0602\nsamples = 126\nvalue = [6, 187]", fillcolor="#399de5f7"] ;
31 -> 32 ;
33 [label="urls_wiki <= 2981.5\ngini = 0.0432\nsamples = 120\nvalue = [4, 177]", fillcolor="#399de5f9"] ;
32 -> 33 ;
34 [label="gini = 0.0229\nsamples = 113\nvalue = [2, 171]", fillcolor="#399de5fc"] ;
33 -> 34 ;
35 [label="gini = 0.375\nsamples = 7\nvalue = [2, 6]", fillcolor="#399de5aa"] ;
33 -> 35 ;
36 [label="words <= 10.5\ngini = 0.2778\nsamples = 6\nvalue = [2, 10]", fillcolor="#399de5cc"] ;
32 -> 36 ;
37 [label="gini = 0.5\nsamples = 2\nvalue = [2, 2]", fillcolor="#e5813900"] ;
36 -> 37 ;
38 [label="gini = 0.0\nsamples = 4\nvalue = [0, 8]", fillcolor="#399de5ff"] ;
36 -> 38 ;
39 [label="gini = 0.0\nsamples = 1\nvalue = [1, 0]", fillcolor="#e58139ff"] ;
31 -> 39 ;
40 [label="urls_wiki <= 1684.5\ngini = 0.2409\nsamples = 729\nvalue = [164, 1007]", fillcolor="#399de5d5"] ;
30 -> 40 ;
41 [label="num_words <= 0.5\ngini = 0.1519\nsamples = 405\nvalue = [54, 598]", fillcolor="#399de5e8"] ;
40 -> 41 ;
42 [label="has_hashtag <= 0.5\ngini = 0.208\nsamples = 277\nvalue = [54, 404]", fillcolor="#399de5dd"] ;
41 -> 42 ;
43 [label="gini = 0.4563\nsamples = 46\nvalue = [25, 46]", fillcolor="#399de574"] ;
42 -> 43 ;
44 [label="gini = 0.1386\nsamples = 231\nvalue = [29, 358]", fillcolor="#399de5ea"] ;
42 -> 44 ;
45 [label="gini = 0.0\nsamples = 128\nvalue = [0, 194]", fillcolor="#399de5ff"] ;
41 -> 45 ;
46 [label="words <= 2.5\ngini = 0.334\nsamples = 324\nvalue = [110, 409]", fillcolor="#399de5ba"] ;
40 -> 46 ;
47 [label="count_upper <= 0.5\ngini = 0.259\nsamples = 153\nvalue = [37, 205]", fillcolor="#399de5d1"] ;
46 -> 47 ;
48 [label="gini = 0.4842\nsamples = 60\nvalue = [37, 53]", fillcolor="#399de54d"] ;
47 -> 48 ;
49 [label="gini = 0.0\nsamples = 93\nvalue = [0, 152]", fillcolor="#399de5ff"] ;
47 -> 49 ;
50 [label="status_cnt <= 392326.5\ngini = 0.3882\nsamples = 171\nvalue = [73, 204]", fillcolor="#399de5a4"] ;
46 -> 50 ;
51 [label="gini = 0.383\nsamples = 170\nvalue = [71, 204]", fillcolor="#399de5a6"] ;
50 -> 51 ;
52 [label="gini = 0.0\nsamples = 1\nvalue = [2, 0]", fillcolor="#e58139ff"] ;
50 -> 52 ;
}