digraph Tree {
node [shape=box, style="filled, rounded", color="black", fontname=helvetica] ;
edge [fontname=helvetica] ;
0 [label="cnt_most_pop <= 0.5\ngini = 0.1991\nsamples = 2208\nvalue = [390, 3089]", fillcolor="#399de5df"] ;
1 [label="has_multi_quest_exclam <= 0.5\ngini = 0.1985\nsamples = 2136\nvalue = [376, 2990]", fillcolor="#399de5df"] ;
0 -> 1 [labeldistance=2.5, labelangle=45, headlabel="True"] ;
2 [label="duplicate <= 20.5\ngini = 0.2293\nsamples = 1538\nvalue = [321, 2109]", fillcolor="#399de5d8"] ;
1 -> 2 ;
3 [label="has_hashtag <= 0.5\ngini = 0.2831\nsamples = 1029\nvalue = [276, 1341]", fillcolor="#399de5cb"] ;
2 -> 3 ;
4 [label="reg_age <= 4482.5\ngini = 0.3994\nsamples = 354\nvalue = [153, 402]", fillcolor="#399de59e"] ;
3 -> 4 ;
5 [label="gini = 0.3331\nsamples = 288\nvalue = [95, 355]", fillcolor="#399de5bb"] ;
4 -> 5 ;
6 [label="gini = 0.4945\nsamples = 66\nvalue = [58, 47]", fillcolor="#e5813930"] ;
4 -> 6 ;
7 [label="urls_wiki <= 2982.5\ngini = 0.2048\nsamples = 675\nvalue = [123, 939]", fillcolor="#399de5de"] ;
3 -> 7 ;
8 [label="gini = 0.1678\nsamples = 611\nvalue = [89, 874]", fillcolor="#399de5e5"] ;
7 -> 8 ;
9 [label="gini = 0.451\nsamples = 64\nvalue = [34, 65]", fillcolor="#399de57a"] ;
7 -> 9 ;
10 [label="count_upper <= 0.5\ngini = 0.1046\nsamples = 509\nvalue = [45, 768]", fillcolor="#399de5f0"] ;
2 -> 10 ;
11 [label="has_pronoun <= 0.5\ngini = 0.1269\nsamples = 243\nvalue = [26, 356]", fillcolor="#399de5ec"] ;
10 -> 11 ;
12 [label="gini = 0.2624\nsamples = 65\nvalue = [16, 87]", fillcolor="#399de5d0"] ;
11 -> 12 ;
13 [label="gini = 0.0691\nsamples = 178\nvalue = [10, 269]", fillcolor="#399de5f6"] ;
11 -> 13 ;
14 [label="len_characters <= 0.5\ngini = 0.0843\nsamples = 266\nvalue = [19, 412]", fillcolor="#399de5f3"] ;
10 -> 14 ;
15 [label="gini = 0.0815\nsamples = 259\nvalue = [18, 405]", fillcolor="#399de5f4"] ;
14 -> 15 ;
16 [label="gini = 0.2188\nsamples = 7\nvalue = [1, 7]", fillcolor="#399de5db"] ;
14 -> 16 ;
17 [label="has_url <= 20.5\ngini = 0.1106\nsamples = 598\nvalue = [55, 881]", fillcolor="#399de5ef"] ;
1 -> 17 ;
18 [label="has_url <= 0.5\ngini = 0.0834\nsamples = 556\nvalue = [38, 834]", fillcolor="#399de5f3"] ;
17 -> 18 ;
19 [label="len_characters <= 0.5\ngini = 0.0876\nsamples = 474\nvalue = [34, 707]", fillcolor="#399de5f3"] ;
18 -> 19 ;
20 [label="gini = 0.0829\nsamples = 435\nvalue = [30, 662]", fillcolor="#399de5f3"] ;
19 -> 20 ;
21 [label="gini = 0.1499\nsamples = 39\nvalue = [4, 45]", fillcolor="#399de5e8"] ;
19 -> 21 ;
22 [label="len_characters <= 0.5\ngini = 0.0592\nsamples = 82\nvalue = [4, 127]", fillcolor="#399de5f7"] ;
18 -> 22 ;
23 [label="gini = 0.0325\nsamples = 76\nvalue = [2, 119]", fillcolor="#399de5fb"] ;
22 -> 23 ;
24 [label="gini = 0.32\nsamples = 6\nvalue = [2, 8]", fillcolor="#399de5bf"] ;
22 -> 24 ;
25 [label="num_stop_words <= 2.5\ngini = 0.3901\nsamples = 42\nvalue = [17, 47]", fillcolor="#399de5a3"] ;
17 -> 25 ;
26 [label="emotji_sent_score <= 0.1165\ngini = 0.3018\nsamples = 17\nvalue = [5, 22]", fillcolor="#399de5c5"] ;
25 -> 26 ;
27 [label="gini = 0.4012\nsamples = 12\nvalue = [5, 13]", fillcolor="#399de59d"] ;
26 -> 27 ;
28 [label="gini = 0.0\nsamples = 5\nvalue = [0, 9]", fillcolor="#399de5ff"] ;
26 -> 28 ;
29 [label="words <= 2.5\ngini = 0.4383\nsamples = 25\nvalue = [12, 25]", fillcolor="#399de585"] ;
25 -> 29 ;
30 [label="gini = 0.0\nsamples = 2\nvalue = [0, 3]", fillcolor="#399de5ff"] ;
29 -> 30 ;
31 [label="gini = 0.4567\nsamples = 23\nvalue = [12, 22]", fillcolor="#399de574"] ;
29 -> 31 ;
32 [label="has_exclamation_mark <= 0.2455\ngini = 0.2171\nsamples = 72\nvalue = [14, 99]", fillcolor="#399de5db"] ;
0 -> 32 [labeldistance=2.5, labelangle=-45, headlabel="False"] ;
33 [label="emotji_sent_score <= 0.084\ngini = 0.2239\nsamples = 70\nvalue = [14, 95]", fillcolor="#399de5d9"] ;
32 -> 33 ;
34 [label="has_question_mark <= 0.5\ngini = 0.4922\nsamples = 12\nvalue = [9, 7]", fillcolor="#e5813939"] ;
33 -> 34 ;
35 [label="verified <= 0.5\ngini = 0.375\nsamples = 9\nvalue = [9, 3]", fillcolor="#e58139aa"] ;
34 -> 35 ;
36 [label="gini = 0.0\nsamples = 2\nvalue = [4, 0]", fillcolor="#e58139ff"] ;
35 -> 36 ;
37 [label="gini = 0.4688\nsamples = 7\nvalue = [5, 3]", fillcolor="#e5813966"] ;
35 -> 37 ;
38 [label="gini = 0.0\nsamples = 3\nvalue = [0, 4]", fillcolor="#399de5ff"] ;
34 -> 38 ;
39 [label="verified <= 0.5\ngini = 0.1017\nsamples = 58\nvalue = [5, 88]", fillcolor="#399de5f1"] ;
33 -> 39 ;
40 [label="gini = 0.0\nsamples = 8\nvalue = [0, 13]", fillcolor="#399de5ff"] ;
39 -> 40 ;
41 [label="num_words <= 0.5\ngini = 0.1172\nsamples = 50\nvalue = [5, 75]", fillcolor="#399de5ee"] ;
39 -> 41 ;
42 [label="gini = 0.1461\nsamples = 41\nvalue = [5, 58]", fillcolor="#399de5e9"] ;
41 -> 42 ;
43 [label="gini = 0.0\nsamples = 9\nvalue = [0, 17]", fillcolor="#399de5ff"] ;
41 -> 43 ;
44 [label="gini = 0.0\nsamples = 2\nvalue = [0, 4]", fillcolor="#399de5ff"] ;
32 -> 44 ;
}