digraph Tree {
node [shape=box, style="filled, rounded", color="black", fontname=helvetica] ;
edge [fontname=helvetica] ;
0 [label="status_cnt <= 3127.0\ngini = 0.1659\nsamples = 1829\nvalue = [261, 2598]", fillcolor="#399de5e5"] ;
1 [label="cnt_most_pop <= 0.5\ngini = 0.2153\nsamples = 1195\nvalue = [227, 1623]", fillcolor="#399de5db"] ;
0 -> 1 [labeldistance=2.5, labelangle=45, headlabel="True"] ;
2 [label="len_characters <= 0.5\ngini = 0.2165\nsamples = 1187\nvalue = [227, 1611]", fillcolor="#399de5db"] ;
1 -> 2 ;
3 [label="count_upper <= 63.5\ngini = 0.2252\nsamples = 1080\nvalue = [217, 1461]", fillcolor="#399de5d9"] ;
2 -> 3 ;
4 [label="has_desc <= 4.9098\ngini = 0.2078\nsamples = 1012\nvalue = [184, 1378]", fillcolor="#399de5dd"] ;
3 -> 4 ;
5 [label="gini = 0.2554\nsamples = 412\nvalue = [95, 537]", fillcolor="#399de5d2"] ;
4 -> 5 ;
6 [label="gini = 0.1731\nsamples = 600\nvalue = [89, 841]", fillcolor="#399de5e4"] ;
4 -> 6 ;
7 [label="urls_moz <= 143181.0\ngini = 0.4071\nsamples = 68\nvalue = [33, 83]", fillcolor="#399de59a"] ;
3 -> 7 ;
8 [label="gini = 0.348\nsamples = 63\nvalue = [24, 83]", fillcolor="#399de5b5"] ;
7 -> 8 ;
9 [label="gini = 0.0\nsamples = 5\nvalue = [9, 0]", fillcolor="#e58139ff"] ;
7 -> 9 ;
10 [label="has_exclamation_mark <= 0.036\ngini = 0.1172\nsamples = 107\nvalue = [10, 150]", fillcolor="#399de5ee"] ;
2 -> 10 ;
11 [label="duplicate <= 11.5\ngini = 0.12\nsamples = 104\nvalue = [10, 146]", fillcolor="#399de5ee"] ;
10 -> 11 ;
12 [label="gini = 0.0\nsamples = 22\nvalue = [0, 31]", fillcolor="#399de5ff"] ;
11 -> 12 ;
13 [label="gini = 0.1472\nsamples = 82\nvalue = [10, 115]", fillcolor="#399de5e9"] ;
11 -> 13 ;
14 [label="gini = 0.0\nsamples = 3\nvalue = [0, 4]", fillcolor="#399de5ff"] ;
10 -> 14 ;
15 [label="gini = 0.0\nsamples = 8\nvalue = [0, 12]", fillcolor="#399de5ff"] ;
1 -> 15 ;
16 [label="count_upper <= 8.5\ngini = 0.0651\nsamples = 634\nvalue = [34, 975]", fillcolor="#399de5f6"] ;
0 -> 16 [labeldistance=2.5, labelangle=-45, headlabel="False"] ;
17 [label="retweet_count <= 0.5\ngini = 0.0806\nsamples = 407\nvalue = [27, 615]", fillcolor="#399de5f4"] ;
16 -> 17 ;
18 [label="urls_wiki <= 3121.5\ngini = 0.0763\nsamples = 401\nvalue = [25, 604]", fillcolor="#399de5f4"] ;
17 -> 18 ;
19 [label="words <= 7.5\ngini = 0.0522\nsamples = 380\nvalue = [16, 580]", fillcolor="#399de5f8"] ;
18 -> 19 ;
20 [label="gini = 0.0416\nsamples = 363\nvalue = [12, 553]", fillcolor="#399de5f9"] ;
19 -> 20 ;
21 [label="gini = 0.2248\nsamples = 17\nvalue = [4, 27]", fillcolor="#399de5d9"] ;
19 -> 21 ;
22 [label="num_words <= 0.5\ngini = 0.3967\nsamples = 21\nvalue = [9, 24]", fillcolor="#399de59f"] ;
18 -> 22 ;
23 [label="gini = 0.4444\nsamples = 15\nvalue = [8, 16]", fillcolor="#399de57f"] ;
22 -> 23 ;
24 [label="gini = 0.1975\nsamples = 6\nvalue = [1, 8]", fillcolor="#399de5df"] ;
22 -> 24 ;
25 [label="emotji_sent_score <= 0.115\ngini = 0.2604\nsamples = 6\nvalue = [2, 11]", fillcolor="#399de5d1"] ;
17 -> 25 ;
26 [label="followers_cnt <= 0.5\ngini = 0.48\nsamples = 2\nvalue = [2, 3]", fillcolor="#399de555"] ;
25 -> 26 ;
27 [label="gini = 0.0\nsamples = 1\nvalue = [0, 3]", fillcolor="#399de5ff"] ;
26 -> 27 ;
28 [label="gini = 0.0\nsamples = 1\nvalue = [2, 0]", fillcolor="#e58139ff"] ;
26 -> 28 ;
29 [label="gini = 0.0\nsamples = 4\nvalue = [0, 8]", fillcolor="#399de5ff"] ;
25 -> 29 ;
30 [label="len_characters <= 0.5\ngini = 0.0374\nsamples = 227\nvalue = [7, 360]", fillcolor="#399de5fa"] ;
16 -> 30 ;
31 [label="cnt_most_pop <= 0.5\ngini = 0.0416\nsamples = 204\nvalue = [7, 322]", fillcolor="#399de5f9"] ;
30 -> 31 ;
32 [label="has_question_mark <= 0.5\ngini = 0.0424\nsamples = 201\nvalue = [7, 316]", fillcolor="#399de5f9"] ;
31 -> 32 ;
33 [label="gini = 0.0395\nsamples = 182\nvalue = [6, 292]", fillcolor="#399de5fa"] ;
32 -> 33 ;
34 [label="gini = 0.0768\nsamples = 19\nvalue = [1, 24]", fillcolor="#399de5f4"] ;
32 -> 34 ;
35 [label="gini = 0.0\nsamples = 3\nvalue = [0, 6]", fillcolor="#399de5ff"] ;
31 -> 35 ;
36 [label="gini = 0.0\nsamples = 23\nvalue = [0, 38]", fillcolor="#399de5ff"] ;
30 -> 36 ;
}