digraph Tree {
node [shape=box, style="filled, rounded", color="black", fontname=helvetica] ;
edge [fontname=helvetica] ;
0 [label="num_stop_words <= 1.5\ngini = 0.1789\nsamples = 1840\nvalue = [284, 2575]", fillcolor="#399de5e3"] ;
1 [label="urls_wiki <= 750.5\ngini = 0.0932\nsamples = 341\nvalue = [25, 485]", fillcolor="#399de5f2"] ;
0 -> 1 [labeldistance=2.5, labelangle=45, headlabel="True"] ;
2 [label="status_cnt <= 4711.0\ngini = 0.1975\nsamples = 91\nvalue = [15, 120]", fillcolor="#399de5df"] ;
1 -> 2 ;
3 [label="reg_age <= 6.5\ngini = 0.1182\nsamples = 76\nvalue = [7, 104]", fillcolor="#399de5ee"] ;
2 -> 3 ;
4 [label="reg_age <= 4.5\ngini = 0.4938\nsamples = 3\nvalue = [4, 5]", fillcolor="#399de533"] ;
3 -> 4 ;
5 [label="gini = 0.0\nsamples = 2\nvalue = [0, 5]", fillcolor="#399de5ff"] ;
4 -> 5 ;
6 [label="gini = 0.0\nsamples = 1\nvalue = [4, 0]", fillcolor="#e58139ff"] ;
4 -> 6 ;
7 [label="reg_age <= 5996.5\ngini = 0.0571\nsamples = 73\nvalue = [3, 99]", fillcolor="#399de5f7"] ;
3 -> 7 ;
8 [label="gini = 0.0213\nsamples = 67\nvalue = [1, 92]", fillcolor="#399de5fc"] ;
7 -> 8 ;
9 [label="gini = 0.3457\nsamples = 6\nvalue = [2, 7]", fillcolor="#399de5b6"] ;
7 -> 9 ;
10 [label="urls_moz <= 2277.5\ngini = 0.4444\nsamples = 15\nvalue = [8, 16]", fillcolor="#399de57f"] ;
2 -> 10 ;
11 [label="gini = 0.0\nsamples = 2\nvalue = [0, 4]", fillcolor="#399de5ff"] ;
10 -> 11 ;
12 [label="emotji_sent_score <= 0.3705\ngini = 0.48\nsamples = 13\nvalue = [8, 12]", fillcolor="#399de555"] ;
10 -> 12 ;
13 [label="gini = 0.4152\nsamples = 12\nvalue = [5, 12]", fillcolor="#399de595"] ;
12 -> 13 ;
14 [label="gini = 0.0\nsamples = 1\nvalue = [3, 0]", fillcolor="#e58139ff"] ;
12 -> 14 ;
15 [label="words_no_url <= 86.5\ngini = 0.0519\nsamples = 250\nvalue = [10, 365]", fillcolor="#399de5f8"] ;
1 -> 15 ;
16 [label="gini = 0.0\nsamples = 83\nvalue = [0, 130]", fillcolor="#399de5ff"] ;
15 -> 16 ;
17 [label="urls_wiki <= 3735.0\ngini = 0.0783\nsamples = 167\nvalue = [10, 235]", fillcolor="#399de5f4"] ;
15 -> 17 ;
18 [label="retweet_count <= 0.5\ngini = 0.0637\nsamples = 165\nvalue = [8, 235]", fillcolor="#399de5f6"] ;
17 -> 18 ;
19 [label="gini = 0.0639\nsamples = 164\nvalue = [8, 234]", fillcolor="#399de5f6"] ;
18 -> 19 ;
20 [label="gini = 0.0\nsamples = 1\nvalue = [0, 1]", fillcolor="#399de5ff"] ;
18 -> 20 ;
21 [label="gini = 0.0\nsamples = 2\nvalue = [2, 0]", fillcolor="#e58139ff"] ;
17 -> 21 ;
22 [label="status_cnt <= 2058.5\ngini = 0.1962\nsamples = 1499\nvalue = [259, 2090]", fillcolor="#399de5df"] ;
0 -> 22 [labeldistance=2.5, labelangle=-45, headlabel="False"] ;
23 [label="urls_moz <= 586.0\ngini = 0.2609\nsamples = 892\nvalue = [215, 1179]", fillcolor="#399de5d0"] ;
22 -> 23 ;
24 [label="has_pronoun <= 0.5\ngini = 0.1256\nsamples = 129\nvalue = [14, 194]", fillcolor="#399de5ed"] ;
23 -> 24 ;
25 [label="count_upper <= 4.5\ngini = 0.1318\nsamples = 85\nvalue = [10, 131]", fillcolor="#399de5ec"] ;
24 -> 25 ;
26 [label="gini = 0.1505\nsamples = 74\nvalue = [10, 112]", fillcolor="#399de5e8"] ;
25 -> 26 ;
27 [label="gini = 0.0\nsamples = 11\nvalue = [0, 19]", fillcolor="#399de5ff"] ;
25 -> 27 ;
28 [label="words_no_url <= 135.5\ngini = 0.1123\nsamples = 44\nvalue = [4, 63]", fillcolor="#399de5ef"] ;
24 -> 28 ;
29 [label="gini = 0.1687\nsamples = 30\nvalue = [4, 39]", fillcolor="#399de5e5"] ;
28 -> 29 ;
30 [label="gini = 0.0\nsamples = 14\nvalue = [0, 24]", fillcolor="#399de5ff"] ;
28 -> 30 ;
31 [label="has_pronoun <= 0.5\ngini = 0.2815\nsamples = 763\nvalue = [201, 985]", fillcolor="#399de5cb"] ;
23 -> 31 ;
32 [label="count_upper <= 97.5\ngini = 0.3238\nsamples = 477\nvalue = [152, 596]", fillcolor="#399de5be"] ;
31 -> 32 ;
33 [label="gini = 0.3079\nsamples = 450\nvalue = [134, 571]", fillcolor="#399de5c3"] ;
32 -> 33 ;
34 [label="gini = 0.4867\nsamples = 27\nvalue = [18, 25]", fillcolor="#399de547"] ;
32 -> 34 ;
35 [label="status_cnt <= 3.0\ngini = 0.1987\nsamples = 286\nvalue = [49, 389]", fillcolor="#399de5df"] ;
31 -> 35 ;
36 [label="gini = 0.4082\nsamples = 16\nvalue = [6, 15]", fillcolor="#399de599"] ;
35 -> 36 ;
37 [label="gini = 0.185\nsamples = 270\nvalue = [43, 374]", fillcolor="#399de5e2"] ;
35 -> 37 ;
38 [label="urls_moz <= 1083355.0\ngini = 0.0879\nsamples = 607\nvalue = [44, 911]", fillcolor="#399de5f3"] ;
22 -> 38 ;
39 [label="verified <= 0.5\ngini = 0.0848\nsamples = 603\nvalue = [42, 905]", fillcolor="#399de5f3"] ;
38 -> 39 ;
40 [label="cnt_most_pop <= 0.5\ngini = 0.1057\nsamples = 87\nvalue = [7, 118]", fillcolor="#399de5f0"] ;
39 -> 40 ;
41 [label="gini = 0.1082\nsamples = 84\nvalue = [7, 115]", fillcolor="#399de5ef"] ;
40 -> 41 ;
42 [label="gini = 0.0\nsamples = 3\nvalue = [0, 3]", fillcolor="#399de5ff"] ;
40 -> 42 ;
43 [label="len_characters <= 0.5\ngini = 0.0815\nsamples = 516\nvalue = [35, 787]", fillcolor="#399de5f4"] ;
39 -> 43 ;
44 [label="gini = 0.0722\nsamples = 469\nvalue = [28, 718]", fillcolor="#399de5f5"] ;
43 -> 44 ;
45 [label="gini = 0.1672\nsamples = 47\nvalue = [7, 69]", fillcolor="#399de5e5"] ;
43 -> 45 ;
46 [label="reg_age <= 14770.0\ngini = 0.375\nsamples = 4\nvalue = [2, 6]", fillcolor="#399de5aa"] ;
38 -> 46 ;
47 [label="gini = 0.0\nsamples = 1\nvalue = [2, 0]", fillcolor="#e58139ff"] ;
46 -> 47 ;
48 [label="gini = 0.0\nsamples = 3\nvalue = [0, 6]", fillcolor="#399de5ff"] ;
46 -> 48 ;
}