digraph Tree {
node [shape=box, style="filled, rounded", color="black", fontname=helvetica] ;
edge [fontname=helvetica] ;
0 [label="has_url <= 12.5\ngini = 0.2557\nsamples = 130\nvalue = [31, 175]", fillcolor="#399de5d2"] ;
1 [label="verified <= 0.5\ngini = 0.2449\nsamples = 123\nvalue = [28, 168]", fillcolor="#399de5d4"] ;
0 -> 1 [labeldistance=2.5, labelangle=45, headlabel="True"] ;
2 [label="emotji_sent_score <= 0.109\ngini = 0.2659\nsamples = 38\nvalue = [9, 48]", fillcolor="#399de5cf"] ;
1 -> 2 ;
3 [label="cnt_most_pop <= 0.5\ngini = 0.375\nsamples = 18\nvalue = [7, 21]", fillcolor="#399de5aa"] ;
2 -> 3 ;
4 [label="duplicate <= 13.0\ngini = 0.4082\nsamples = 10\nvalue = [4, 10]", fillcolor="#399de599"] ;
3 -> 4 ;
5 [label="gini = 0.0\nsamples = 5\nvalue = [0, 6]", fillcolor="#399de5ff"] ;
4 -> 5 ;
6 [label="gini = 0.5\nsamples = 5\nvalue = [4, 4]", fillcolor="#e5813900"] ;
4 -> 6 ;
7 [label="reg_age <= 14.5\ngini = 0.3367\nsamples = 8\nvalue = [3, 11]", fillcolor="#399de5b9"] ;
3 -> 7 ;
8 [label="gini = 0.0\nsamples = 6\nvalue = [0, 10]", fillcolor="#399de5ff"] ;
7 -> 8 ;
9 [label="gini = 0.375\nsamples = 2\nvalue = [3, 1]", fillcolor="#e58139aa"] ;
7 -> 9 ;
10 [label="num_words <= 0.5\ngini = 0.1284\nsamples = 20\nvalue = [2, 27]", fillcolor="#399de5ec"] ;
2 -> 10 ;
11 [label="urls_moz <= 270181.5\ngini = 0.1372\nsamples = 18\nvalue = [2, 25]", fillcolor="#399de5eb"] ;
10 -> 11 ;
12 [label="gini = 0.2604\nsamples = 10\nvalue = [2, 11]", fillcolor="#399de5d1"] ;
11 -> 12 ;
13 [label="gini = 0.0\nsamples = 8\nvalue = [0, 14]", fillcolor="#399de5ff"] ;
11 -> 13 ;
14 [label="gini = 0.0\nsamples = 2\nvalue = [0, 2]", fillcolor="#399de5ff"] ;
10 -> 14 ;
15 [label="urls_wiki <= 30.5\ngini = 0.236\nsamples = 85\nvalue = [19, 120]", fillcolor="#399de5d7"] ;
1 -> 15 ;
16 [label="gini = 0.0\nsamples = 1\nvalue = [1, 0]", fillcolor="#e58139ff"] ;
15 -> 16 ;
17 [label="has_hashtag <= 0.5\ngini = 0.2268\nsamples = 84\nvalue = [18, 120]", fillcolor="#399de5d9"] ;
15 -> 17 ;
18 [label="followers_cnt <= 0.5\ngini = 0.4248\nsamples = 33\nvalue = [15, 34]", fillcolor="#399de58e"] ;
17 -> 18 ;
19 [label="gini = 0.4543\nsamples = 31\nvalue = [15, 28]", fillcolor="#399de576"] ;
18 -> 19 ;
20 [label="gini = 0.0\nsamples = 2\nvalue = [0, 6]", fillcolor="#399de5ff"] ;
18 -> 20 ;
21 [label="count_upper <= 0.5\ngini = 0.0651\nsamples = 51\nvalue = [3, 86]", fillcolor="#399de5f6"] ;
17 -> 21 ;
22 [label="gini = 0.2907\nsamples = 13\nvalue = [3, 14]", fillcolor="#399de5c8"] ;
21 -> 22 ;
23 [label="gini = 0.0\nsamples = 38\nvalue = [0, 72]", fillcolor="#399de5ff"] ;
21 -> 23 ;
24 [label="has_desc <= 21.4863\ngini = 0.42\nsamples = 7\nvalue = [3, 7]", fillcolor="#399de592"] ;
0 -> 24 [labeldistance=2.5, labelangle=-45, headlabel="False"] ;
25 [label="has_desc <= 7.3045\ngini = 0.5\nsamples = 3\nvalue = [2, 2]", fillcolor="#e5813900"] ;
24 -> 25 ;
26 [label="gini = 0.0\nsamples = 2\nvalue = [0, 2]", fillcolor="#399de5ff"] ;
25 -> 26 ;
27 [label="gini = 0.0\nsamples = 1\nvalue = [2, 0]", fillcolor="#e58139ff"] ;
25 -> 27 ;
28 [label="num_stop_words <= 4.5\ngini = 0.2778\nsamples = 4\nvalue = [1, 5]", fillcolor="#399de5cc"] ;
24 -> 28 ;
29 [label="gini = 0.0\nsamples = 3\nvalue = [0, 5]", fillcolor="#399de5ff"] ;
28 -> 29 ;
30 [label="gini = 0.0\nsamples = 1\nvalue = [1, 0]", fillcolor="#e58139ff"] ;
28 -> 30 ;
}