digraph Tree {
node [shape=box, style="filled, rounded", color="black", fontname=helvetica] ;
edge [fontname=helvetica] ;
0 [label="urls_moz <= 155725.0\ngini = 0.1846\nsamples = 2642\nvalue = [432, 3768]", fillcolor="#399de5e2"] ;
1 [label="has_hashtag <= 0.5\ngini = 0.2005\nsamples = 2249\nvalue = [401, 3147]", fillcolor="#399de5df"] ;
0 -> 1 [labeldistance=2.5, labelangle=45, headlabel="True"] ;
2 [label="has_question_mark <= 0.5\ngini = 0.3183\nsamples = 1054\nvalue = [332, 1340]", fillcolor="#399de5c0"] ;
1 -> 2 ;
3 [label="neg_words <= 0.5\ngini = 0.3237\nsamples = 1009\nvalue = [325, 1275]", fillcolor="#399de5be"] ;
2 -> 3 ;
4 [label="retweet_count <= 0.5\ngini = 0.3272\nsamples = 999\nvalue = [325, 1252]", fillcolor="#399de5bd"] ;
3 -> 4 ;
5 [label="gini = 0.3295\nsamples = 989\nvalue = [325, 1237]", fillcolor="#399de5bc"] ;
4 -> 5 ;
6 [label="gini = 0.0\nsamples = 10\nvalue = [0, 15]", fillcolor="#399de5ff"] ;
4 -> 6 ;
7 [label="gini = 0.0\nsamples = 10\nvalue = [0, 23]", fillcolor="#399de5ff"] ;
3 -> 7 ;
8 [label="num_words <= 0.5\ngini = 0.1755\nsamples = 45\nvalue = [7, 65]", fillcolor="#399de5e4"] ;
2 -> 8 ;
9 [label="status_cnt <= 536.0\ngini = 0.48\nsamples = 9\nvalue = [6, 9]", fillcolor="#399de555"] ;
8 -> 9 ;
10 [label="gini = 0.0\nsamples = 6\nvalue = [0, 8]", fillcolor="#399de5ff"] ;
9 -> 10 ;
11 [label="gini = 0.2449\nsamples = 3\nvalue = [6, 1]", fillcolor="#e58139d4"] ;
9 -> 11 ;
12 [label="urls_wiki <= 2910.0\ngini = 0.0345\nsamples = 36\nvalue = [1, 56]", fillcolor="#399de5fa"] ;
8 -> 12 ;
13 [label="gini = 0.0\nsamples = 28\nvalue = [0, 48]", fillcolor="#399de5ff"] ;
12 -> 13 ;
14 [label="gini = 0.1975\nsamples = 8\nvalue = [1, 8]", fillcolor="#399de5df"] ;
12 -> 14 ;
15 [label="count_upper <= 99.5\ngini = 0.0709\nsamples = 1195\nvalue = [69, 1807]", fillcolor="#399de5f5"] ;
1 -> 15 ;
16 [label="verified <= 0.5\ngini = 0.0622\nsamples = 1105\nvalue = [56, 1686]", fillcolor="#399de5f7"] ;
15 -> 16 ;
17 [label="has_multi_quest_exclam <= 0.5\ngini = 0.0601\nsamples = 248\nvalue = [12, 375]", fillcolor="#399de5f7"] ;
16 -> 17 ;
18 [label="gini = 0.0597\nsamples = 189\nvalue = [9, 283]", fillcolor="#399de5f7"] ;
17 -> 18 ;
19 [label="gini = 0.0612\nsamples = 59\nvalue = [3, 92]", fillcolor="#399de5f7"] ;
17 -> 19 ;
20 [label="urls_moz <= 1959.5\ngini = 0.0628\nsamples = 857\nvalue = [44, 1311]", fillcolor="#399de5f6"] ;
16 -> 20 ;
21 [label="gini = 0.1516\nsamples = 156\nvalue = [20, 222]", fillcolor="#399de5e8"] ;
20 -> 21 ;
22 [label="gini = 0.0422\nsamples = 701\nvalue = [24, 1089]", fillcolor="#399de5f9"] ;
20 -> 22 ;
23 [label="words_no_url <= 138.5\ngini = 0.1752\nsamples = 90\nvalue = [13, 121]", fillcolor="#399de5e4"] ;
15 -> 23 ;
24 [label="has_exclamation_mark <= 0.035\ngini = 0.1007\nsamples = 63\nvalue = [5, 89]", fillcolor="#399de5f1"] ;
23 -> 24 ;
25 [label="gini = 0.1039\nsamples = 60\nvalue = [5, 86]", fillcolor="#399de5f0"] ;
24 -> 25 ;
26 [label="gini = 0.0\nsamples = 3\nvalue = [0, 3]", fillcolor="#399de5ff"] ;
24 -> 26 ;
27 [label="num_words <= 0.5\ngini = 0.32\nsamples = 27\nvalue = [8, 32]", fillcolor="#399de5bf"] ;
23 -> 27 ;
28 [label="gini = 0.375\nsamples = 21\nvalue = [8, 24]", fillcolor="#399de5aa"] ;
27 -> 28 ;
29 [label="gini = 0.0\nsamples = 6\nvalue = [0, 8]", fillcolor="#399de5ff"] ;
27 -> 29 ;
30 [label="num_words <= 0.5\ngini = 0.0906\nsamples = 393\nvalue = [31, 621]", fillcolor="#399de5f2"] ;
0 -> 30 [labeldistance=2.5, labelangle=-45, headlabel="False"] ;
31 [label="words <= 1.5\ngini = 0.106\nsamples = 329\nvalue = [31, 521]", fillcolor="#399de5f0"] ;
30 -> 31 ;
32 [label="num_stop_words <= 3.5\ngini = 0.037\nsamples = 126\nvalue = [4, 208]", fillcolor="#399de5fa"] ;
31 -> 32 ;
33 [label="gini = 0.0\nsamples = 105\nvalue = [0, 179]", fillcolor="#399de5ff"] ;
32 -> 33 ;
34 [label="reg_age <= 6169.0\ngini = 0.213\nsamples = 21\nvalue = [4, 29]", fillcolor="#399de5dc"] ;
32 -> 34 ;
35 [label="gini = 0.3457\nsamples = 12\nvalue = [4, 14]", fillcolor="#399de5b6"] ;
34 -> 35 ;
36 [label="gini = 0.0\nsamples = 9\nvalue = [0, 15]", fillcolor="#399de5ff"] ;
34 -> 36 ;
37 [label="has_pronoun <= 0.5\ngini = 0.1462\nsamples = 203\nvalue = [27, 313]", fillcolor="#399de5e9"] ;
31 -> 37 ;
38 [label="count_upper <= 337.5\ngini = 0.2642\nsamples = 98\nvalue = [26, 140]", fillcolor="#399de5d0"] ;
37 -> 38 ;
39 [label="gini = 0.2736\nsamples = 93\nvalue = [26, 133]", fillcolor="#399de5cd"] ;
38 -> 39 ;
40 [label="gini = 0.0\nsamples = 5\nvalue = [0, 7]", fillcolor="#399de5ff"] ;
38 -> 40 ;
41 [label="words <= 3.5\ngini = 0.0114\nsamples = 105\nvalue = [1, 173]", fillcolor="#399de5fe"] ;
37 -> 41 ;
42 [label="gini = 0.0222\nsamples = 51\nvalue = [1, 88]", fillcolor="#399de5fc"] ;
41 -> 42 ;
43 [label="gini = 0.0\nsamples = 54\nvalue = [0, 85]", fillcolor="#399de5ff"] ;
41 -> 43 ;
44 [label="gini = 0.0\nsamples = 64\nvalue = [0, 100]", fillcolor="#399de5ff"] ;
30 -> 44 ;
}