digraph Tree {
node [shape=box, style="filled, rounded", color="black", fontname=helvetica] ;
edge [fontname=helvetica] ;
0 [label="emotji_sent_score <= 0.1205\ngini = 0.1894\nsamples = 4832\nvalue = [816, 6888]", fillcolor="#399de5e1"] ;
1 [label="has_desc <= 0.864\ngini = 0.2392\nsamples = 2548\nvalue = [569, 3528]", fillcolor="#399de5d6"] ;
0 -> 1 [labeldistance=2.5, labelangle=45, headlabel="True"] ;
2 [label="has_desc <= 0.6785\ngini = 0.3066\nsamples = 326\nvalue = [100, 429]", fillcolor="#399de5c4"] ;
1 -> 2 ;
3 [label="words_no_url <= 67.0\ngini = 0.2584\nsamples = 277\nvalue = [68, 378]", fillcolor="#399de5d1"] ;
2 -> 3 ;
4 [label="gini = 0.0\nsamples = 29\nvalue = [0, 57]", fillcolor="#399de5ff"] ;
3 -> 4 ;
5 [label="num_words <= 0.5\ngini = 0.2885\nsamples = 248\nvalue = [68, 321]", fillcolor="#399de5c9"] ;
3 -> 5 ;
6 [label="gini = 0.324\nsamples = 192\nvalue = [61, 239]", fillcolor="#399de5be"] ;
5 -> 6 ;
7 [label="gini = 0.1449\nsamples = 56\nvalue = [7, 82]", fillcolor="#399de5e9"] ;
5 -> 7 ;
8 [label="urls_wiki <= 1049.5\ngini = 0.4738\nsamples = 49\nvalue = [32, 51]", fillcolor="#399de55f"] ;
2 -> 8 ;
9 [label="num_stop_words <= 1.5\ngini = 0.4709\nsamples = 16\nvalue = [18, 11]", fillcolor="#e5813963"] ;
8 -> 9 ;
10 [label="gini = 0.0\nsamples = 3\nvalue = [0, 5]", fillcolor="#399de5ff"] ;
9 -> 10 ;
11 [label="gini = 0.375\nsamples = 13\nvalue = [18, 6]", fillcolor="#e58139aa"] ;
9 -> 11 ;
12 [label="urls_moz <= 1293.5\ngini = 0.3841\nsamples = 33\nvalue = [14, 40]", fillcolor="#399de5a6"] ;
8 -> 12 ;
13 [label="gini = 0.0\nsamples = 6\nvalue = [0, 13]", fillcolor="#399de5ff"] ;
12 -> 13 ;
14 [label="gini = 0.4497\nsamples = 27\nvalue = [14, 27]", fillcolor="#399de57b"] ;
12 -> 14 ;
15 [label="num_stop_words <= 4.5\ngini = 0.2283\nsamples = 2222\nvalue = [469, 3099]", fillcolor="#399de5d8"] ;
1 -> 15 ;
16 [label="has_pronoun <= 0.5\ngini = 0.1797\nsamples = 2036\nvalue = [325, 2931]", fillcolor="#399de5e3"] ;
15 -> 16 ;
17 [label="followers_cnt <= 0.5\ngini = 0.2017\nsamples = 1326\nvalue = [238, 1853]", fillcolor="#399de5de"] ;
16 -> 17 ;
18 [label="gini = 0.1613\nsamples = 1183\nvalue = [166, 1710]", fillcolor="#399de5e6"] ;
17 -> 18 ;
19 [label="gini = 0.4455\nsamples = 143\nvalue = [72, 143]", fillcolor="#399de57f"] ;
17 -> 19 ;
20 [label="num_words <= 0.5\ngini = 0.1382\nsamples = 710\nvalue = [87, 1078]", fillcolor="#399de5ea"] ;
16 -> 20 ;
21 [label="gini = 0.1769\nsamples = 533\nvalue = [85, 782]", fillcolor="#399de5e3"] ;
20 -> 21 ;
22 [label="gini = 0.0133\nsamples = 177\nvalue = [2, 296]", fillcolor="#399de5fd"] ;
20 -> 22 ;
23 [label="news_words <= 2.5\ngini = 0.497\nsamples = 186\nvalue = [144, 168]", fillcolor="#399de524"] ;
15 -> 23 ;
24 [label="has_desc <= 31.0165\ngini = 0.3332\nsamples = 93\nvalue = [127, 34]", fillcolor="#e58139bb"] ;
23 -> 24 ;
25 [label="gini = 0.3975\nsamples = 65\nvalue = [77, 29]", fillcolor="#e581399f"] ;
24 -> 25 ;
26 [label="gini = 0.1653\nsamples = 28\nvalue = [50, 5]", fillcolor="#e58139e6"] ;
24 -> 26 ;
27 [label="status_cnt <= 1737.5\ngini = 0.1998\nsamples = 93\nvalue = [17, 134]", fillcolor="#399de5df"] ;
23 -> 27 ;
28 [label="gini = 0.2668\nsamples = 49\nvalue = [13, 69]", fillcolor="#399de5cf"] ;
27 -> 28 ;
29 [label="gini = 0.1092\nsamples = 44\nvalue = [4, 65]", fillcolor="#399de5ef"] ;
27 -> 29 ;
30 [label="has_desc <= 2183.0962\ngini = 0.1276\nsamples = 2284\nvalue = [247, 3360]", fillcolor="#399de5ec"] ;
0 -> 30 [labeldistance=2.5, labelangle=-45, headlabel="False"] ;
31 [label="has_hashtag <= 0.5\ngini = 0.1204\nsamples = 2245\nvalue = [228, 3316]", fillcolor="#399de5ed"] ;
30 -> 31 ;
32 [label="num_words <= 0.5\ngini = 0.2235\nsamples = 1004\nvalue = [202, 1374]", fillcolor="#399de5da"] ;
31 -> 32 ;
33 [label="status_cnt <= 121185.5\ngini = 0.2427\nsamples = 889\nvalue = [197, 1197]", fillcolor="#399de5d5"] ;
32 -> 33 ;
34 [label="gini = 0.2393\nsamples = 887\nvalue = [193, 1196]", fillcolor="#399de5d6"] ;
33 -> 34 ;
35 [label="gini = 0.32\nsamples = 2\nvalue = [4, 1]", fillcolor="#e58139bf"] ;
33 -> 35 ;
36 [label="duplicate <= 15.5\ngini = 0.0534\nsamples = 115\nvalue = [5, 177]", fillcolor="#399de5f8"] ;
32 -> 36 ;
37 [label="gini = 0.2235\nsamples = 27\nvalue = [5, 34]", fillcolor="#399de5da"] ;
36 -> 37 ;
38 [label="gini = 0.0\nsamples = 88\nvalue = [0, 143]", fillcolor="#399de5ff"] ;
36 -> 38 ;
39 [label="status_cnt <= 2895.0\ngini = 0.0261\nsamples = 1241\nvalue = [26, 1942]", fillcolor="#399de5fc"] ;
31 -> 39 ;
40 [label="news_words <= 1.5\ngini = 0.0395\nsamples = 717\nvalue = [23, 1118]", fillcolor="#399de5fa"] ;
39 -> 40 ;
41 [label="gini = 0.1021\nsamples = 158\nvalue = [13, 228]", fillcolor="#399de5f0"] ;
40 -> 41 ;
42 [label="gini = 0.022\nsamples = 559\nvalue = [10, 890]", fillcolor="#399de5fc"] ;
40 -> 42 ;
43 [label="has_question_mark <= 0.5\ngini = 0.0072\nsamples = 524\nvalue = [3, 824]", fillcolor="#399de5fe"] ;
39 -> 43 ;
44 [label="gini = 0.0077\nsamples = 491\nvalue = [3, 770]", fillcolor="#399de5fe"] ;
43 -> 44 ;
45 [label="gini = 0.0\nsamples = 33\nvalue = [0, 54]", fillcolor="#399de5ff"] ;
43 -> 45 ;
46 [label="urls_wiki <= 763.0\ngini = 0.4213\nsamples = 39\nvalue = [19, 44]", fillcolor="#399de591"] ;
30 -> 46 ;
47 [label="gini = 0.0\nsamples = 7\nvalue = [0, 12]", fillcolor="#399de5ff"] ;
46 -> 47 ;
48 [label="num_stop_words <= 4.5\ngini = 0.4675\nsamples = 32\nvalue = [19, 32]", fillcolor="#399de568"] ;
46 -> 48 ;
49 [label="gini = 0.0\nsamples = 12\nvalue = [0, 21]", fillcolor="#399de5ff"] ;
48 -> 49 ;
50 [label="news_words <= 2.5\ngini = 0.4644\nsamples = 20\nvalue = [19, 11]", fillcolor="#e581396b"] ;
48 -> 50 ;
51 [label="gini = 0.4362\nsamples = 19\nvalue = [19, 9]", fillcolor="#e5813986"] ;
50 -> 51 ;
52 [label="gini = 0.0\nsamples = 1\nvalue = [0, 2]", fillcolor="#399de5ff"] ;
50 -> 52 ;
}