digraph Tree {
node [shape=box, style="filled, rounded", color="black", fontname=helvetica] ;
edge [fontname=helvetica] ;
0 [label="followers_cnt <= 0.5\ngini = 0.3822\nsamples = 130\nvalue = [53, 153]", fillcolor="#399de5a7"] ;
1 [label="words_no_url <= 114.5\ngini = 0.3776\nsamples = 121\nvalue = [49, 145]", fillcolor="#399de5a9"] ;
0 -> 1 [labeldistance=2.5, labelangle=45, headlabel="True"] ;
2 [label="emotji_sent_score <= 0.04\ngini = 0.4496\nsamples = 50\nvalue = [29, 56]", fillcolor="#399de57b"] ;
1 -> 2 ;
3 [label="duplicate <= 9.5\ngini = 0.32\nsamples = 3\nvalue = [4, 1]", fillcolor="#e58139bf"] ;
2 -> 3 ;
4 [label="gini = 0.0\nsamples = 1\nvalue = [0, 1]", fillcolor="#399de5ff"] ;
3 -> 4 ;
5 [label="gini = 0.0\nsamples = 2\nvalue = [4, 0]", fillcolor="#e58139ff"] ;
3 -> 5 ;
6 [label="words <= 0.5\ngini = 0.4297\nsamples = 47\nvalue = [25, 55]", fillcolor="#399de58b"] ;
2 -> 6 ;
7 [label="gini = 0.0\nsamples = 12\nvalue = [0, 16]", fillcolor="#399de5ff"] ;
6 -> 7 ;
8 [label="has_multi_quest_exclam <= 0.5\ngini = 0.4761\nsamples = 35\nvalue = [25, 39]", fillcolor="#399de55c"] ;
6 -> 8 ;
9 [label="gini = 0.48\nsamples = 23\nvalue = [18, 27]", fillcolor="#399de555"] ;
8 -> 9 ;
10 [label="gini = 0.4654\nsamples = 12\nvalue = [7, 12]", fillcolor="#399de56a"] ;
8 -> 10 ;
11 [label="verified <= 0.5\ngini = 0.2996\nsamples = 71\nvalue = [20, 89]", fillcolor="#399de5c6"] ;
1 -> 11 ;
12 [label="words <= 3.0\ngini = 0.2524\nsamples = 18\nvalue = [4, 23]", fillcolor="#399de5d3"] ;
11 -> 12 ;
13 [label="gini = 0.0\nsamples = 10\nvalue = [0, 12]", fillcolor="#399de5ff"] ;
12 -> 13 ;
14 [label="has_desc <= 10.8762\ngini = 0.3911\nsamples = 8\nvalue = [4, 11]", fillcolor="#399de5a2"] ;
12 -> 14 ;
15 [label="gini = 0.48\nsamples = 6\nvalue = [4, 6]", fillcolor="#399de555"] ;
14 -> 15 ;
16 [label="gini = 0.0\nsamples = 2\nvalue = [0, 5]", fillcolor="#399de5ff"] ;
14 -> 16 ;
17 [label="urls_moz <= 16.5\ngini = 0.3141\nsamples = 53\nvalue = [16, 66]", fillcolor="#399de5c1"] ;
11 -> 17 ;
18 [label="gini = 0.0\nsamples = 1\nvalue = [2, 0]", fillcolor="#e58139ff"] ;
17 -> 18 ;
19 [label="duplicate <= 20.5\ngini = 0.2887\nsamples = 52\nvalue = [14, 66]", fillcolor="#399de5c9"] ;
17 -> 19 ;
20 [label="gini = 0.375\nsamples = 27\nvalue = [11, 33]", fillcolor="#399de5aa"] ;
19 -> 20 ;
21 [label="gini = 0.1528\nsamples = 25\nvalue = [3, 33]", fillcolor="#399de5e8"] ;
19 -> 21 ;
22 [label="cnt_most_pop <= 0.5\ngini = 0.4444\nsamples = 9\nvalue = [4, 8]", fillcolor="#399de57f"] ;
0 -> 22 [labeldistance=2.5, labelangle=-45, headlabel="False"] ;
23 [label="status_cnt <= 2590.5\ngini = 0.32\nsamples = 8\nvalue = [2, 8]", fillcolor="#399de5bf"] ;
22 -> 23 ;
24 [label="gini = 0.0\nsamples = 2\nvalue = [0, 4]", fillcolor="#399de5ff"] ;
23 -> 24 ;
25 [label="words <= 5.5\ngini = 0.4444\nsamples = 6\nvalue = [2, 4]", fillcolor="#399de57f"] ;
23 -> 25 ;
26 [label="words_no_url <= 119.5\ngini = 0.32\nsamples = 5\nvalue = [1, 4]", fillcolor="#399de5bf"] ;
25 -> 26 ;
27 [label="gini = 0.5\nsamples = 2\nvalue = [1, 1]", fillcolor="#e5813900"] ;
26 -> 27 ;
28 [label="gini = 0.0\nsamples = 3\nvalue = [0, 3]", fillcolor="#399de5ff"] ;
26 -> 28 ;
29 [label="gini = 0.0\nsamples = 1\nvalue = [1, 0]", fillcolor="#e58139ff"] ;
25 -> 29 ;
30 [label="gini = 0.0\nsamples = 1\nvalue = [2, 0]", fillcolor="#e58139ff"] ;
22 -> 30 ;
}