digraph Tree {
node [shape=box, style="filled, rounded", color="black", fontname=helvetica] ;
edge [fontname=helvetica] ;
0 [label="status_cnt <= 1950.5\ngini = 0.2107\nsamples = 4900\nvalue = [922, 6782]", fillcolor="#399de5dc"] ;
1 [label="urls_wiki <= 3735.5\ngini = 0.2489\nsamples = 3177\nvalue = [726, 4257]", fillcolor="#399de5d4"] ;
0 -> 1 [labeldistance=2.5, labelangle=45, headlabel="True"] ;
2 [label="words_no_url <= 64.5\ngini = 0.2427\nsamples = 3150\nvalue = [698, 4242]", fillcolor="#399de5d5"] ;
1 -> 2 ;
3 [label="has_question_mark <= 0.5\ngini = 0.0527\nsamples = 261\nvalue = [11, 395]", fillcolor="#399de5f8"] ;
2 -> 3 ;
4 [label="news_words <= 1.5\ngini = 0.0545\nsamples = 252\nvalue = [11, 381]", fillcolor="#399de5f8"] ;
3 -> 4 ;
5 [label="gini = 0.067\nsamples = 202\nvalue = [11, 306]", fillcolor="#399de5f6"] ;
4 -> 5 ;
6 [label="gini = 0.0\nsamples = 50\nvalue = [0, 75]", fillcolor="#399de5ff"] ;
4 -> 6 ;
7 [label="gini = 0.0\nsamples = 9\nvalue = [0, 14]", fillcolor="#399de5ff"] ;
3 -> 7 ;
8 [label="emotji_sent_score <= 0.1285\ngini = 0.2571\nsamples = 2889\nvalue = [687, 3847]", fillcolor="#399de5d1"] ;
2 -> 8 ;
9 [label="followers_cnt <= 0.5\ngini = 0.2963\nsamples = 1757\nvalue = [500, 2265]", fillcolor="#399de5c7"] ;
8 -> 9 ;
10 [label="gini = 0.2681\nsamples = 1608\nvalue = [403, 2124]", fillcolor="#399de5cf"] ;
9 -> 10 ;
11 [label="gini = 0.4829\nsamples = 149\nvalue = [97, 141]", fillcolor="#399de550"] ;
9 -> 11 ;
12 [label="not_news_words <= 0.5\ngini = 0.1891\nsamples = 1132\nvalue = [187, 1582]", fillcolor="#399de5e1"] ;
8 -> 12 ;
13 [label="gini = 0.1904\nsamples = 1090\nvalue = [180, 1509]", fillcolor="#399de5e1"] ;
12 -> 13 ;
14 [label="gini = 0.1597\nsamples = 42\nvalue = [7, 73]", fillcolor="#399de5e7"] ;
12 -> 14 ;
15 [label="has_hashtag <= 0.5\ngini = 0.4543\nsamples = 27\nvalue = [28, 15]", fillcolor="#e5813976"] ;
1 -> 15 ;
16 [label="reg_age <= 50662.5\ngini = 0.4444\nsamples = 22\nvalue = [22, 11]", fillcolor="#e581397f"] ;
15 -> 16 ;
17 [label="has_desc <= 0.7935\ngini = 0.42\nsamples = 7\nvalue = [3, 7]", fillcolor="#399de592"] ;
16 -> 17 ;
18 [label="gini = 0.0\nsamples = 1\nvalue = [3, 0]", fillcolor="#e58139ff"] ;
17 -> 18 ;
19 [label="gini = 0.0\nsamples = 6\nvalue = [0, 7]", fillcolor="#399de5ff"] ;
17 -> 19 ;
20 [label="has_multi_quest_exclam <= 0.5\ngini = 0.2873\nsamples = 15\nvalue = [19, 4]", fillcolor="#e58139c9"] ;
16 -> 20 ;
21 [label="gini = 0.1884\nsamples = 12\nvalue = [17, 2]", fillcolor="#e58139e1"] ;
20 -> 21 ;
22 [label="gini = 0.5\nsamples = 3\nvalue = [2, 2]", fillcolor="#e5813900"] ;
20 -> 22 ;
23 [label="urls_wiki <= 3779.0\ngini = 0.48\nsamples = 5\nvalue = [6, 4]", fillcolor="#e5813955"] ;
15 -> 23 ;
24 [label="gini = 0.0\nsamples = 1\nvalue = [0, 2]", fillcolor="#399de5ff"] ;
23 -> 24 ;
25 [label="urls_wiki <= 3904.5\ngini = 0.375\nsamples = 4\nvalue = [6, 2]", fillcolor="#e58139aa"] ;
23 -> 25 ;
26 [label="gini = 0.0\nsamples = 3\nvalue = [6, 0]", fillcolor="#e58139ff"] ;
25 -> 26 ;
27 [label="gini = 0.0\nsamples = 1\nvalue = [0, 2]", fillcolor="#399de5ff"] ;
25 -> 27 ;
28 [label="has_exclamation_mark <= 0.009\ngini = 0.1337\nsamples = 1723\nvalue = [196, 2525]", fillcolor="#399de5eb"] ;
0 -> 28 [labeldistance=2.5, labelangle=-45, headlabel="False"] ;
29 [label="not_news_words <= 0.5\ngini = 0.135\nsamples = 1705\nvalue = [196, 2496]", fillcolor="#399de5eb"] ;
28 -> 29 ;
30 [label="verified <= 0.5\ngini = 0.1411\nsamples = 1595\nvalue = [191, 2310]", fillcolor="#399de5ea"] ;
29 -> 30 ;
31 [label="urls_moz <= 109170.5\ngini = 0.1549\nsamples = 253\nvalue = [33, 357]", fillcolor="#399de5e7"] ;
30 -> 31 ;
32 [label="gini = 0.1237\nsamples = 206\nvalue = [21, 296]", fillcolor="#399de5ed"] ;
31 -> 32 ;
33 [label="gini = 0.2747\nsamples = 47\nvalue = [12, 61]", fillcolor="#399de5cd"] ;
31 -> 33 ;
34 [label="duplicate <= 15.5\ngini = 0.1385\nsamples = 1342\nvalue = [158, 1953]", fillcolor="#399de5ea"] ;
30 -> 34 ;
35 [label="gini = 0.2126\nsamples = 342\nvalue = [63, 458]", fillcolor="#399de5dc"] ;
34 -> 35 ;
36 [label="gini = 0.1124\nsamples = 1000\nvalue = [95, 1495]", fillcolor="#399de5ef"] ;
34 -> 36 ;
37 [label="has_desc <= 1.9355\ngini = 0.051\nsamples = 110\nvalue = [5, 186]", fillcolor="#399de5f8"] ;
29 -> 37 ;
38 [label="gini = 0.0\nsamples = 1\nvalue = [2, 0]", fillcolor="#e58139ff"] ;
37 -> 38 ;
39 [label="len_characters <= 0.5\ngini = 0.0312\nsamples = 109\nvalue = [3, 186]", fillcolor="#399de5fb"] ;
37 -> 39 ;
40 [label="gini = 0.0335\nsamples = 101\nvalue = [3, 173]", fillcolor="#399de5fb"] ;
39 -> 40 ;
41 [label="gini = 0.0\nsamples = 8\nvalue = [0, 13]", fillcolor="#399de5ff"] ;
39 -> 41 ;
42 [label="gini = 0.0\nsamples = 18\nvalue = [0, 29]", fillcolor="#399de5ff"] ;
28 -> 42 ;
}