digraph Tree {
node [shape=box, style="filled, rounded", color="black", fontname=helvetica] ;
edge [fontname=helvetica] ;
0 [label="has_exclamation_mark <= 0.009\ngini = 0.1665\nsamples = 2665\nvalue = [385, 3815]", fillcolor="#399de5e5"] ;
1 [label="neg_words <= 0.5\ngini = 0.1701\nsamples = 2608\nvalue = [385, 3718]", fillcolor="#399de5e5"] ;
0 -> 1 [labeldistance=2.5, labelangle=45, headlabel="True"] ;
2 [label="has_hashtag <= 0.5\ngini = 0.1719\nsamples = 2576\nvalue = [385, 3669]", fillcolor="#399de5e4"] ;
1 -> 2 ;
3 [label="count_upper <= 17.5\ngini = 0.2865\nsamples = 1179\nvalue = [325, 1551]", fillcolor="#399de5ca"] ;
2 -> 3 ;
4 [label="reg_age <= 1070024.5\ngini = 0.2625\nsamples = 1044\nvalue = [259, 1408]", fillcolor="#399de5d0"] ;
3 -> 4 ;
5 [label="gini = 0.2584\nsamples = 1039\nvalue = [253, 1407]", fillcolor="#399de5d1"] ;
4 -> 5 ;
6 [label="gini = 0.2449\nsamples = 5\nvalue = [6, 1]", fillcolor="#e58139d4"] ;
4 -> 6 ;
7 [label="count_upper <= 359.0\ngini = 0.4321\nsamples = 135\nvalue = [66, 143]", fillcolor="#399de589"] ;
3 -> 7 ;
8 [label="gini = 0.4676\nsamples = 107\nvalue = [60, 101]", fillcolor="#399de568"] ;
7 -> 8 ;
9 [label="gini = 0.2188\nsamples = 28\nvalue = [6, 42]", fillcolor="#399de5db"] ;
7 -> 9 ;
10 [label="emotji_sent_score <= 0.1025\ngini = 0.0536\nsamples = 1397\nvalue = [60, 2118]", fillcolor="#399de5f8"] ;
2 -> 10 ;
11 [label="urls_wiki <= 2334.0\ngini = 0.1057\nsamples = 575\nvalue = [50, 843]", fillcolor="#399de5f0"] ;
10 -> 11 ;
12 [label="gini = 0.0505\nsamples = 375\nvalue = [15, 564]", fillcolor="#399de5f8"] ;
11 -> 12 ;
13 [label="gini = 0.1981\nsamples = 200\nvalue = [35, 279]", fillcolor="#399de5df"] ;
11 -> 13 ;
14 [label="retweet_count <= 0.5\ngini = 0.0154\nsamples = 822\nvalue = [10, 1275]", fillcolor="#399de5fd"] ;
10 -> 14 ;
15 [label="gini = 0.0155\nsamples = 818\nvalue = [10, 1270]", fillcolor="#399de5fd"] ;
14 -> 15 ;
16 [label="gini = 0.0\nsamples = 4\nvalue = [0, 5]", fillcolor="#399de5ff"] ;
14 -> 16 ;
17 [label="gini = 0.0\nsamples = 32\nvalue = [0, 49]", fillcolor="#399de5ff"] ;
1 -> 17 ;
18 [label="gini = 0.0\nsamples = 57\nvalue = [0, 97]", fillcolor="#399de5ff"] ;
0 -> 18 [labeldistance=2.5, labelangle=-45, headlabel="False"] ;
}