digraph Tree {
node [shape=box, style="filled, rounded", color="black", fontname=helvetica] ;
edge [fontname=helvetica] ;
0 [label="cnt_most_pop <= 0.5\ngini = 0.2997\nsamples = 3351\nvalue = [968, 4306]", fillcolor="#399de5c6"] ;
1 [label="reg_age <= 4.5\ngini = 0.2544\nsamples = 2284\nvalue = [537, 3054]", fillcolor="#399de5d2"] ;
0 -> 1 [labeldistance=2.5, labelangle=45, headlabel="True"] ;
2 [label="words_no_url <= 95.5\ngini = 0.0128\nsamples = 192\nvalue = [2, 308]", fillcolor="#399de5fd"] ;
1 -> 2 ;
3 [label="len_characters <= 0.5\ngini = 0.0357\nsamples = 35\nvalue = [1, 54]", fillcolor="#399de5fa"] ;
2 -> 3 ;
4 [label="has_pronoun <= 0.5\ngini = 0.0364\nsamples = 34\nvalue = [1, 53]", fillcolor="#399de5fa"] ;
3 -> 4 ;
5 [label="gini = 0.0384\nsamples = 32\nvalue = [1, 50]", fillcolor="#399de5fa"] ;
4 -> 5 ;
6 [label="gini = 0.0\nsamples = 2\nvalue = [0, 3]", fillcolor="#399de5ff"] ;
4 -> 6 ;
7 [label="gini = 0.0\nsamples = 1\nvalue = [0, 1]", fillcolor="#399de5ff"] ;
3 -> 7 ;
8 [label="has_multi_quest_exclam <= 0.5\ngini = 0.0078\nsamples = 157\nvalue = [1, 254]", fillcolor="#399de5fe"] ;
2 -> 8 ;
9 [label="gini = 0.0\nsamples = 48\nvalue = [0, 76]", fillcolor="#399de5ff"] ;
8 -> 9 ;
10 [label="words_no_url <= 131.5\ngini = 0.0111\nsamples = 109\nvalue = [1, 178]", fillcolor="#399de5fe"] ;
8 -> 10 ;
11 [label="gini = 0.0\nsamples = 71\nvalue = [0, 119]", fillcolor="#399de5ff"] ;
10 -> 11 ;
12 [label="gini = 0.0328\nsamples = 38\nvalue = [1, 59]", fillcolor="#399de5fb"] ;
10 -> 12 ;
13 [label="has_question_mark <= 0.5\ngini = 0.2729\nsamples = 2092\nvalue = [535, 2746]", fillcolor="#399de5cd"] ;
1 -> 13 ;
14 [label="urls_moz <= 2474340.0\ngini = 0.2812\nsamples = 2017\nvalue = [533, 2617]", fillcolor="#399de5cb"] ;
13 -> 14 ;
15 [label="count_upper <= 0.5\ngini = 0.2702\nsamples = 1985\nvalue = [498, 2594]", fillcolor="#399de5ce"] ;
14 -> 15 ;
16 [label="gini = 0.4024\nsamples = 992\nvalue = [427, 1103]", fillcolor="#399de59c"] ;
15 -> 16 ;
17 [label="gini = 0.0868\nsamples = 993\nvalue = [71, 1491]", fillcolor="#399de5f3"] ;
15 -> 17 ;
18 [label="words <= 1.5\ngini = 0.4786\nsamples = 32\nvalue = [35, 23]", fillcolor="#e5813957"] ;
14 -> 18 ;
19 [label="gini = 0.4866\nsamples = 30\nvalue = [32, 23]", fillcolor="#e5813948"] ;
18 -> 19 ;
20 [label="gini = 0.0\nsamples = 2\nvalue = [3, 0]", fillcolor="#e58139ff"] ;
18 -> 20 ;
21 [label="has_pronoun <= 0.5\ngini = 0.0301\nsamples = 75\nvalue = [2, 129]", fillcolor="#399de5fb"] ;
13 -> 21 ;
22 [label="emotji_sent_score <= 0.19\ngini = 0.0454\nsamples = 48\nvalue = [2, 84]", fillcolor="#399de5f9"] ;
21 -> 22 ;
23 [label="gini = 0.0\nsamples = 39\nvalue = [0, 69]", fillcolor="#399de5ff"] ;
22 -> 23 ;
24 [label="gini = 0.2076\nsamples = 9\nvalue = [2, 15]", fillcolor="#399de5dd"] ;
22 -> 24 ;
25 [label="gini = 0.0\nsamples = 27\nvalue = [0, 45]", fillcolor="#399de5ff"] ;
21 -> 25 ;
26 [label="duplicate <= 15.5\ngini = 0.381\nsamples = 1067\nvalue = [431, 1252]", fillcolor="#399de5a7"] ;
0 -> 26 [labeldistance=2.5, labelangle=-45, headlabel="False"] ;
27 [label="num_stop_words <= 9.5\ngini = 0.4943\nsamples = 421\nvalue = [304, 377]", fillcolor="#399de531"] ;
26 -> 27 ;
28 [label="reg_age <= 4674.5\ngini = 0.4978\nsamples = 353\nvalue = [304, 266]", fillcolor="#e5813920"] ;
27 -> 28 ;
29 [label="emotji_sent_score <= 0.227\ngini = 0.4511\nsamples = 238\nvalue = [254, 133]", fillcolor="#e5813979"] ;
28 -> 29 ;
30 [label="gini = 0.4088\nsamples = 219\nvalue = [254, 102]", fillcolor="#e5813999"] ;
29 -> 30 ;
31 [label="gini = 0.0\nsamples = 19\nvalue = [0, 31]", fillcolor="#399de5ff"] ;
29 -> 31 ;
32 [label="words <= 5.5\ngini = 0.3971\nsamples = 115\nvalue = [50, 133]", fillcolor="#399de59f"] ;
28 -> 32 ;
33 [label="gini = 0.3787\nsamples = 45\nvalue = [50, 17]", fillcolor="#e58139a8"] ;
32 -> 33 ;
34 [label="gini = 0.0\nsamples = 70\nvalue = [0, 116]", fillcolor="#399de5ff"] ;
32 -> 34 ;
35 [label="gini = 0.0\nsamples = 68\nvalue = [0, 111]", fillcolor="#399de5ff"] ;
27 -> 35 ;
36 [label="count_upper <= 0.5\ngini = 0.2214\nsamples = 646\nvalue = [127, 875]", fillcolor="#399de5da"] ;
26 -> 36 ;
37 [label="num_stop_words <= 5.5\ngini = 0.3152\nsamples = 389\nvalue = [119, 488]", fillcolor="#399de5c1"] ;
36 -> 37 ;
38 [label="status_cnt <= 3189.0\ngini = 0.4803\nsamples = 153\nvalue = [99, 148]", fillcolor="#399de554"] ;
37 -> 38 ;
39 [label="gini = 0.4921\nsamples = 124\nvalue = [87, 112]", fillcolor="#399de539"] ;
38 -> 39 ;
40 [label="gini = 0.375\nsamples = 29\nvalue = [12, 36]", fillcolor="#399de5aa"] ;
38 -> 40 ;
41 [label="verified <= 0.5\ngini = 0.1049\nsamples = 236\nvalue = [20, 340]", fillcolor="#399de5f0"] ;
37 -> 41 ;
42 [label="gini = 0.0293\nsamples = 218\nvalue = [5, 331]", fillcolor="#399de5fb"] ;
41 -> 42 ;
43 [label="gini = 0.4688\nsamples = 18\nvalue = [15, 9]", fillcolor="#e5813966"] ;
41 -> 43 ;
44 [label="status_cnt <= 2.0\ngini = 0.0397\nsamples = 257\nvalue = [8, 387]", fillcolor="#399de5fa"] ;
36 -> 44 ;
45 [label="gini = 0.0\nsamples = 1\nvalue = [1, 0]", fillcolor="#e58139ff"] ;
44 -> 45 ;
46 [label="has_pronoun <= 0.5\ngini = 0.0349\nsamples = 256\nvalue = [7, 387]", fillcolor="#399de5fa"] ;
44 -> 46 ;
47 [label="gini = 0.0379\nsamples = 167\nvalue = [5, 254]", fillcolor="#399de5fa"] ;
46 -> 47 ;
48 [label="gini = 0.0292\nsamples = 89\nvalue = [2, 133]", fillcolor="#399de5fb"] ;
46 -> 48 ;
}