digraph Tree {
node [shape=box, style="filled, rounded", color="black", fontname=helvetica] ;
edge [fontname=helvetica] ;
0 [label="words_no_url <= 114.5\ngini = 0.3914\nsamples = 136\nvalue = [55, 151]", fillcolor="#399de5a2"] ;
1 [label="has_url <= 1.5\ngini = 0.4644\nsamples = 57\nvalue = [33, 57]", fillcolor="#399de56b"] ;
0 -> 1 [labeldistance=2.5, labelangle=45, headlabel="True"] ;
2 [label="verified <= 0.5\ngini = 0.4572\nsamples = 53\nvalue = [29, 53]", fillcolor="#399de573"] ;
1 -> 2 ;
3 [label="words_no_url <= 84.0\ngini = 0.32\nsamples = 24\nvalue = [7, 28]", fillcolor="#399de5bf"] ;
2 -> 3 ;
4 [label="words_no_url <= 63.0\ngini = 0.4688\nsamples = 8\nvalue = [6, 10]", fillcolor="#399de566"] ;
3 -> 4 ;
5 [label="gini = 0.0\nsamples = 3\nvalue = [0, 5]", fillcolor="#399de5ff"] ;
4 -> 5 ;
6 [label="gini = 0.4959\nsamples = 5\nvalue = [6, 5]", fillcolor="#e581392a"] ;
4 -> 6 ;
7 [label="status_cnt <= 1.5\ngini = 0.0997\nsamples = 16\nvalue = [1, 18]", fillcolor="#399de5f1"] ;
3 -> 7 ;
8 [label="gini = 0.0\nsamples = 7\nvalue = [0, 9]", fillcolor="#399de5ff"] ;
7 -> 8 ;
9 [label="gini = 0.18\nsamples = 9\nvalue = [1, 9]", fillcolor="#399de5e3"] ;
7 -> 9 ;
10 [label="has_question_mark <= 0.5\ngini = 0.498\nsamples = 29\nvalue = [22, 25]", fillcolor="#399de51f"] ;
2 -> 10 ;
11 [label="words_no_url <= 79.0\ngini = 0.4998\nsamples = 28\nvalue = [22, 23]", fillcolor="#399de50b"] ;
10 -> 11 ;
12 [label="gini = 0.0\nsamples = 6\nvalue = [0, 10]", fillcolor="#399de5ff"] ;
11 -> 12 ;
13 [label="gini = 0.4669\nsamples = 22\nvalue = [22, 13]", fillcolor="#e5813968"] ;
11 -> 13 ;
14 [label="gini = 0.0\nsamples = 1\nvalue = [0, 2]", fillcolor="#399de5ff"] ;
10 -> 14 ;
15 [label="words <= 3.0\ngini = 0.5\nsamples = 4\nvalue = [4, 4]", fillcolor="#e5813900"] ;
1 -> 15 ;
16 [label="gini = 0.0\nsamples = 2\nvalue = [0, 4]", fillcolor="#399de5ff"] ;
15 -> 16 ;
17 [label="gini = 0.0\nsamples = 2\nvalue = [4, 0]", fillcolor="#e58139ff"] ;
15 -> 17 ;
18 [label="urls_wiki <= 3533.5\ngini = 0.3074\nsamples = 79\nvalue = [22, 94]", fillcolor="#399de5c3"] ;
0 -> 18 [labeldistance=2.5, labelangle=-45, headlabel="False"] ;
19 [label="reg_age <= 2985.0\ngini = 0.2797\nsamples = 77\nvalue = [19, 94]", fillcolor="#399de5cb"] ;
18 -> 19 ;
20 [label="has_question_mark <= 0.5\ngini = 0.2231\nsamples = 59\nvalue = [11, 75]", fillcolor="#399de5da"] ;
19 -> 20 ;
21 [label="cnt_most_pop <= 0.5\ngini = 0.2276\nsamples = 58\nvalue = [11, 73]", fillcolor="#399de5d9"] ;
20 -> 21 ;
22 [label="gini = 0.256\nsamples = 50\nvalue = [11, 62]", fillcolor="#399de5d2"] ;
21 -> 22 ;
23 [label="gini = 0.0\nsamples = 8\nvalue = [0, 11]", fillcolor="#399de5ff"] ;
21 -> 23 ;
24 [label="gini = 0.0\nsamples = 1\nvalue = [0, 2]", fillcolor="#399de5ff"] ;
20 -> 24 ;
25 [label="has_url <= 0.5\ngini = 0.417\nsamples = 18\nvalue = [8, 19]", fillcolor="#399de594"] ;
19 -> 25 ;
26 [label="urls_moz <= 19160.0\ngini = 0.5\nsamples = 7\nvalue = [5, 5]", fillcolor="#e5813900"] ;
25 -> 26 ;
27 [label="gini = 0.2778\nsamples = 4\nvalue = [1, 5]", fillcolor="#399de5cc"] ;
26 -> 27 ;
28 [label="gini = 0.0\nsamples = 3\nvalue = [4, 0]", fillcolor="#e58139ff"] ;
26 -> 28 ;
29 [label="num_words <= 0.5\ngini = 0.2907\nsamples = 11\nvalue = [3, 14]", fillcolor="#399de5c8"] ;
25 -> 29 ;
30 [label="gini = 0.32\nsamples = 9\nvalue = [3, 12]", fillcolor="#399de5bf"] ;
29 -> 30 ;
31 [label="gini = 0.0\nsamples = 2\nvalue = [0, 2]", fillcolor="#399de5ff"] ;
29 -> 31 ;
32 [label="gini = 0.0\nsamples = 2\nvalue = [3, 0]", fillcolor="#e58139ff"] ;
18 -> 32 ;
}