digraph Tree {
node [shape=box, style="filled, rounded", color="black", fontname=helvetica] ;
edge [fontname=helvetica] ;
0 [label="has_url <= 20.5\ngini = 0.2184\nsamples = 2184\nvalue = [434, 3045]", fillcolor="#399de5db"] ;
1 [label="has_url <= 0.5\ngini = 0.2044\nsamples = 2056\nvalue = [378, 2894]", fillcolor="#399de5de"] ;
0 -> 1 [labeldistance=2.5, labelangle=45, headlabel="True"] ;
2 [label="urls_wiki <= 2967.5\ngini = 0.2184\nsamples = 1699\nvalue = [337, 2364]", fillcolor="#399de5db"] ;
1 -> 2 ;
3 [label="num_words <= 0.5\ngini = 0.2017\nsamples = 1583\nvalue = [287, 2235]", fillcolor="#399de5de"] ;
2 -> 3 ;
4 [label="has_pronoun <= 0.5\ngini = 0.2188\nsamples = 1414\nvalue = [281, 1967]", fillcolor="#399de5db"] ;
3 -> 4 ;
5 [label="gini = 0.2517\nsamples = 855\nvalue = [195, 1126]", fillcolor="#399de5d3"] ;
4 -> 5 ;
6 [label="gini = 0.1683\nsamples = 559\nvalue = [86, 841]", fillcolor="#399de5e5"] ;
4 -> 6 ;
7 [label="emotji_sent_score <= 0.064\ngini = 0.0428\nsamples = 169\nvalue = [6, 268]", fillcolor="#399de5f9"] ;
3 -> 7 ;
8 [label="gini = 0.1327\nsamples = 20\nvalue = [2, 26]", fillcolor="#399de5eb"] ;
7 -> 8 ;
9 [label="gini = 0.032\nsamples = 149\nvalue = [4, 242]", fillcolor="#399de5fb"] ;
7 -> 9 ;
10 [label="words <= 7.5\ngini = 0.4026\nsamples = 116\nvalue = [50, 129]", fillcolor="#399de59c"] ;
2 -> 10 ;
11 [label="status_cnt <= 76.5\ngini = 0.4288\nsamples = 96\nvalue = [47, 104]", fillcolor="#399de58c"] ;
10 -> 11 ;
12 [label="gini = 0.4628\nsamples = 6\nvalue = [7, 4]", fillcolor="#e581396d"] ;
11 -> 12 ;
13 [label="gini = 0.4082\nsamples = 90\nvalue = [40, 100]", fillcolor="#399de599"] ;
11 -> 13 ;
14 [label="reg_age <= 3009.0\ngini = 0.1913\nsamples = 20\nvalue = [3, 25]", fillcolor="#399de5e0"] ;
10 -> 14 ;
15 [label="gini = 0.0997\nsamples = 14\nvalue = [1, 18]", fillcolor="#399de5f1"] ;
14 -> 15 ;
16 [label="gini = 0.3457\nsamples = 6\nvalue = [2, 7]", fillcolor="#399de5b6"] ;
14 -> 16 ;
17 [label="status_cnt <= 465.5\ngini = 0.1333\nsamples = 357\nvalue = [41, 530]", fillcolor="#399de5eb"] ;
1 -> 17 ;
18 [label="verified <= 0.5\ngini = 0.3078\nsamples = 63\nvalue = [19, 81]", fillcolor="#399de5c3"] ;
17 -> 18 ;
19 [label="has_question_mark <= 0.5\ngini = 0.4012\nsamples = 9\nvalue = [5, 13]", fillcolor="#399de59d"] ;
18 -> 19 ;
20 [label="gini = 0.4297\nsamples = 8\nvalue = [5, 11]", fillcolor="#399de58b"] ;
19 -> 20 ;
21 [label="gini = 0.0\nsamples = 1\nvalue = [0, 2]", fillcolor="#399de5ff"] ;
19 -> 21 ;
22 [label="has_exclamation_mark <= 0.322\ngini = 0.2832\nsamples = 54\nvalue = [14, 68]", fillcolor="#399de5ca"] ;
18 -> 22 ;
23 [label="gini = 0.2916\nsamples = 53\nvalue = [14, 65]", fillcolor="#399de5c8"] ;
22 -> 23 ;
24 [label="gini = 0.0\nsamples = 1\nvalue = [0, 3]", fillcolor="#399de5ff"] ;
22 -> 24 ;
25 [label="has_question_mark <= 0.5\ngini = 0.0891\nsamples = 294\nvalue = [22, 449]", fillcolor="#399de5f3"] ;
17 -> 25 ;
26 [label="count_upper <= 0.5\ngini = 0.0988\nsamples = 263\nvalue = [22, 400]", fillcolor="#399de5f1"] ;
25 -> 26 ;
27 [label="gini = 0.2321\nsamples = 64\nvalue = [13, 84]", fillcolor="#399de5d8"] ;
26 -> 27 ;
28 [label="gini = 0.0539\nsamples = 199\nvalue = [9, 316]", fillcolor="#399de5f8"] ;
26 -> 28 ;
29 [label="gini = 0.0\nsamples = 31\nvalue = [0, 49]", fillcolor="#399de5ff"] ;
25 -> 29 ;
30 [label="duplicate <= 19.5\ngini = 0.3947\nsamples = 128\nvalue = [56, 151]", fillcolor="#399de5a0"] ;
0 -> 30 [labeldistance=2.5, labelangle=-45, headlabel="False"] ;
31 [label="followers_cnt <= 0.5\ngini = 0.4537\nsamples = 81\nvalue = [48, 90]", fillcolor="#399de577"] ;
30 -> 31 ;
32 [label="gini = 0.0\nsamples = 19\nvalue = [0, 34]", fillcolor="#399de5ff"] ;
31 -> 32 ;
33 [label="num_stop_words <= 3.5\ngini = 0.497\nsamples = 62\nvalue = [48, 56]", fillcolor="#399de524"] ;
31 -> 33 ;
34 [label="urls_wiki <= 1471.5\ngini = 0.4504\nsamples = 44\nvalue = [25, 48]", fillcolor="#399de57a"] ;
33 -> 34 ;
35 [label="gini = 0.3457\nsamples = 6\nvalue = [7, 2]", fillcolor="#e58139b6"] ;
34 -> 35 ;
36 [label="gini = 0.4043\nsamples = 38\nvalue = [18, 46]", fillcolor="#399de59b"] ;
34 -> 36 ;
37 [label="words_no_url <= 132.0\ngini = 0.3829\nsamples = 18\nvalue = [23, 8]", fillcolor="#e58139a6"] ;
33 -> 37 ;
38 [label="gini = 0.1653\nsamples = 12\nvalue = [20, 2]", fillcolor="#e58139e6"] ;
37 -> 38 ;
39 [label="gini = 0.4444\nsamples = 6\nvalue = [3, 6]", fillcolor="#399de57f"] ;
37 -> 39 ;
40 [label="emotji_sent_score <= 0.138\ngini = 0.205\nsamples = 47\nvalue = [8, 61]", fillcolor="#399de5de"] ;
30 -> 40 ;
41 [label="count_upper <= 0.5\ngini = 0.2873\nsamples = 31\nvalue = [8, 38]", fillcolor="#399de5c9"] ;
40 -> 41 ;
42 [label="num_words <= 0.5\ngini = 0.4592\nsamples = 9\nvalue = [5, 9]", fillcolor="#399de571"] ;
41 -> 42 ;
43 [label="gini = 0.4959\nsamples = 8\nvalue = [5, 6]", fillcolor="#399de52a"] ;
42 -> 43 ;
44 [label="gini = 0.0\nsamples = 1\nvalue = [0, 3]", fillcolor="#399de5ff"] ;
42 -> 44 ;
45 [label="has_pronoun <= 0.5\ngini = 0.1699\nsamples = 22\nvalue = [3, 29]", fillcolor="#399de5e5"] ;
41 -> 45 ;
46 [label="gini = 0.355\nsamples = 10\nvalue = [3, 10]", fillcolor="#399de5b3"] ;
45 -> 46 ;
47 [label="gini = 0.0\nsamples = 12\nvalue = [0, 19]", fillcolor="#399de5ff"] ;
45 -> 47 ;
48 [label="gini = 0.0\nsamples = 16\nvalue = [0, 23]", fillcolor="#399de5ff"] ;
40 -> 48 ;
}