digraph Tree {
node [shape=box] ;
0 [label="X[64] <= 0.5\ngini = 0.5\nsamples = 84\nvalue = [68, 68]"] ;
1 [label="X[462] <= 0.5\ngini = 0.5\nsamples = 83\nvalue = [68, 67]"] ;
0 -> 1 [labeldistance=2.5, labelangle=45, headlabel="True"] ;
2 [label="X[670] <= 0.5\ngini = 0.4995\nsamples = 81\nvalue = [68, 64]"] ;
1 -> 2 ;
3 [label="X[949] <= 0.5\ngini = 0.4999\nsamples = 80\nvalue = [66, 64]"] ;
2 -> 3 ;
4 [label="X[500] <= 0.5\ngini = 0.5\nsamples = 79\nvalue = [64, 64]"] ;
3 -> 4 ;
5 [label="X[253] <= 0.5\ngini = 0.4997\nsamples = 78\nvalue = [64, 61]"] ;
4 -> 5 ;
6 [label="X[1116] <= 0.5\ngini = 0.4988\nsamples = 76\nvalue = [64, 58]"] ;
5 -> 6 ;
7 [label="X[1029] <= 0.5\ngini = 0.4983\nsamples = 75\nvalue = [64, 57]"] ;
6 -> 7 ;
8 [label="X[383] <= 0.5\ngini = 0.4994\nsamples = 74\nvalue = [61, 57]"] ;
7 -> 8 ;
9 [label="X[846] <= 0.5\ngini = 0.4991\nsamples = 73\nvalue = [61, 56]"] ;
8 -> 9 ;
10 [label="X[930] <= 0.5\ngini = 0.5\nsamples = 71\nvalue = [57, 56]"] ;
9 -> 10 ;
11 [label="X[381] <= 0.5\ngini = 0.4998\nsamples = 70\nvalue = [57, 55]"] ;
10 -> 11 ;
12 [label="X[149] <= 0.5\ngini = 0.4996\nsamples = 69\nvalue = [57, 54]"] ;
11 -> 12 ;
13 [label="X[70] <= 0.5\ngini = 0.4998\nsamples = 68\nvalue = [52, 54]"] ;
12 -> 13 ;
14 [label="X[749] <= 0.5\ngini = 0.4993\nsamples = 67\nvalue = [50, 54]"] ;
13 -> 14 ;
15 [label="X[795] <= 0.5\ngini = 0.4976\nsamples = 66\nvalue = [47, 54]"] ;
14 -> 15 ;
16 [label="X[464] <= 0.5\ngini = 0.4968\nsamples = 65\nvalue = [46, 54]"] ;
15 -> 16 ;
17 [label="X[765] <= 0.5\ngini = 0.4959\nsamples = 64\nvalue = [45, 54]"] ;
16 -> 17 ;
18 [label="X[742] <= 0.5\ngini = 0.4991\nsamples = 63\nvalue = [45, 49]"] ;
17 -> 18 ;
19 [label="X[783] <= 0.5\ngini = 0.4979\nsamples = 62\nvalue = [43, 49]"] ;
18 -> 19 ;
20 [label="X[726] <= 0.5\ngini = 0.4994\nsamples = 61\nvalue = [43, 46]"] ;
19 -> 20 ;
21 [label="X[432] <= 0.5\ngini = 0.4983\nsamples = 60\nvalue = [41, 46]"] ;
20 -> 21 ;
22 [label="X[32] <= 0.5\ngini = 0.4966\nsamples = 59\nvalue = [39, 46]"] ;
21 -> 22 ;
23 [label="X[769] <= 0.5\ngini = 0.4941\nsamples = 58\nvalue = [37, 46]"] ;
22 -> 23 ;
24 [label="X[361] <= 0.5\ngini = 0.4908\nsamples = 57\nvalue = [35, 46]"] ;
23 -> 24 ;
25 [label="X[985] <= 0.5\ngini = 0.4947\nsamples = 56\nvalue = [35, 43]"] ;
24 -> 25 ;
26 [label="X[602] <= 0.5\ngini = 0.4969\nsamples = 55\nvalue = [35, 41]"] ;
25 -> 26 ;
27 [label="X[3] <= 0.5\ngini = 0.4985\nsamples = 54\nvalue = [35, 39]"] ;
26 -> 27 ;
28 [label="X[1088] <= 0.5\ngini = 0.4996\nsamples = 53\nvalue = [35, 37]"] ;
27 -> 28 ;
29 [label="X[917] <= 0.5\ngini = 0.4999\nsamples = 52\nvalue = [35, 36]"] ;
28 -> 29 ;
30 [label="X[676] <= 0.5\ngini = 0.4999\nsamples = 51\nvalue = [35, 34]"] ;
29 -> 30 ;
31 [label="X[807] <= 0.5\ngini = 0.5\nsamples = 50\nvalue = [34, 34]"] ;
30 -> 31 ;
32 [label="X[329] <= 0.5\ngini = 0.4989\nsamples = 47\nvalue = [31, 34]"] ;
31 -> 32 ;
33 [label="X[794] <= 0.5\ngini = 0.4999\nsamples = 46\nvalue = [31, 32]"] ;
32 -> 33 ;
34 [label="X[659] <= 0.5\ngini = 0.4995\nsamples = 45\nvalue = [30, 32]"] ;
33 -> 34 ;
35 [label="X[613] <= 0.5\ngini = 0.5\nsamples = 44\nvalue = [30, 30]"] ;
34 -> 35 ;
36 [label="X[1047] <= 0.5\ngini = 0.4974\nsamples = 41\nvalue = [26, 30]"] ;
35 -> 36 ;
37 [label="X[190] <= 0.5\ngini = 0.4959\nsamples = 40\nvalue = [25, 30]"] ;
36 -> 37 ;
38 [label="X[896] <= 0.5\ngini = 0.4973\nsamples = 39\nvalue = [25, 29]"] ;
37 -> 38 ;
39 [label="X[1126] <= 0.5\ngini = 0.4933\nsamples = 38\nvalue = [23, 29]"] ;
38 -> 39 ;
40 [label="X[524] <= 0.5\ngini = 0.4952\nsamples = 37\nvalue = [23, 28]"] ;
39 -> 40 ;
41 [label="X[169] <= 0.5\ngini = 0.4968\nsamples = 36\nvalue = [23, 27]"] ;
40 -> 41 ;
42 [label="X[1000] <= 0.5\ngini = 0.4991\nsamples = 35\nvalue = [23, 25]"] ;
41 -> 42 ;
43 [label="X[936] <= 0.5\ngini = 0.4998\nsamples = 34\nvalue = [23, 24]"] ;
42 -> 43 ;
44 [label="X[1080] <= 0.5\ngini = 0.4978\nsamples = 33\nvalue = [21, 24]"] ;
43 -> 44 ;
45 [label="X[991] <= 0.5\ngini = 0.4932\nsamples = 32\nvalue = [19, 24]"] ;
44 -> 45 ;
46 [label="X[911] <= 0.5\ngini = 0.4955\nsamples = 31\nvalue = [19, 23]"] ;
45 -> 46 ;
47 [label="X[594] <= 0.5\ngini = 0.4926\nsamples = 30\nvalue = [18, 23]"] ;
46 -> 47 ;
48 [label="X[433] <= 0.5\ngini = 0.4888\nsamples = 29\nvalue = [17, 23]"] ;
47 -> 48 ;
49 [label="X[246] <= 0.5\ngini = 0.4839\nsamples = 28\nvalue = [16, 23]"] ;
48 -> 49 ;
50 [label="X[1025] <= 0.5\ngini = 0.4909\nsamples = 27\nvalue = [16, 21]"] ;
49 -> 50 ;
51 [label="X[227] <= 0.5\ngini = 0.4963\nsamples = 26\nvalue = [16, 19]"] ;
50 -> 51 ;
52 [label="X[654] <= 0.5\ngini = 0.4995\nsamples = 25\nvalue = [16, 17]"] ;
51 -> 52 ;
53 [label="X[365] <= 0.5\ngini = 0.5\nsamples = 24\nvalue = [16, 16]"] ;
52 -> 53 ;
54 [label="X[1030] <= 0.5\ngini = 0.4995\nsamples = 23\nvalue = [16, 15]"] ;
53 -> 54 ;
55 [label="X[26] <= 0.5\ngini = 0.4994\nsamples = 22\nvalue = [14, 15]"] ;
54 -> 55 ;
56 [label="X[126] <= 0.5\ngini = 0.4974\nsamples = 21\nvalue = [13, 15]"] ;
55 -> 56 ;
57 [label="X[704] <= 0.5\ngini = 0.48\nsamples = 20\nvalue = [10, 15]"] ;
56 -> 57 ;
58 [label="X[808] <= 0.5\ngini = 0.4688\nsamples = 19\nvalue = [9, 15]"] ;
57 -> 58 ;
59 [label="X[235] <= 0.5\ngini = 0.4764\nsamples = 18\nvalue = [9, 14]"] ;
58 -> 59 ;
60 [label="X[287] <= 0.5\ngini = 0.4628\nsamples = 17\nvalue = [8, 14]"] ;
59 -> 60 ;
61 [label="X[943] <= 0.5\ngini = 0.4717\nsamples = 16\nvalue = [8, 13]"] ;
60 -> 61 ;
62 [label="X[380] <= 0.5\ngini = 0.48\nsamples = 15\nvalue = [8, 12]"] ;
61 -> 62 ;
63 [label="X[520] <= 0.5\ngini = 0.4875\nsamples = 14\nvalue = [8, 11]"] ;
62 -> 63 ;
64 [label="X[790] <= 0.5\ngini = 0.4753\nsamples = 13\nvalue = [7, 11]"] ;
63 -> 64 ;
65 [label="X[937] <= 0.5\ngini = 0.4844\nsamples = 12\nvalue = [7, 10]"] ;
64 -> 65 ;
66 [label="X[984] <= 0.5\ngini = 0.4922\nsamples = 11\nvalue = [7, 9]"] ;
65 -> 66 ;
67 [label="X[266] <= 0.5\ngini = 0.4978\nsamples = 10\nvalue = [7, 8]"] ;
66 -> 67 ;
68 [label="X[660] <= 0.5\ngini = 0.497\nsamples = 9\nvalue = [7, 6]"] ;
67 -> 68 ;
69 [label="X[264] <= 0.5\ngini = 0.4861\nsamples = 8\nvalue = [7, 5]"] ;
68 -> 69 ;
70 [label="X[302] <= 0.5\ngini = 0.42\nsamples = 7\nvalue = [7, 3]"] ;
69 -> 70 ;
71 [label="X[346] <= 0.5\ngini = 0.4898\nsamples = 6\nvalue = [4, 3]"] ;
70 -> 71 ;
72 [label="X[1034] <= 0.5\ngini = 0.5\nsamples = 5\nvalue = [3, 3]"] ;
71 -> 72 ;
73 [label="X[779] <= 0.5\ngini = 0.48\nsamples = 4\nvalue = [2, 3]"] ;
72 -> 73 ;
74 [label="X[83] <= 0.5\ngini = 0.375\nsamples = 3\nvalue = [1, 3]"] ;
73 -> 74 ;
75 [label="X[818] <= 0.5\ngini = 0.5\nsamples = 2\nvalue = [1, 1]"] ;
74 -> 75 ;
76 [label="gini = 0.0\nsamples = 1\nvalue = [1, 0]"] ;
75 -> 76 ;
77 [label="gini = 0.0\nsamples = 1\nvalue = [0, 1]"] ;
75 -> 77 ;
78 [label="gini = 0.0\nsamples = 1\nvalue = [0, 2]"] ;
74 -> 78 ;
79 [label="gini = 0.0\nsamples = 1\nvalue = [1, 0]"] ;
73 -> 79 ;
80 [label="gini = 0.0\nsamples = 1\nvalue = [1, 0]"] ;
72 -> 80 ;
81 [label="gini = 0.0\nsamples = 1\nvalue = [1, 0]"] ;
71 -> 81 ;
82 [label="gini = 0.0\nsamples = 1\nvalue = [3, 0]"] ;
70 -> 82 ;
83 [label="gini = 0.0\nsamples = 1\nvalue = [0, 2]"] ;
69 -> 83 ;
84 [label="gini = 0.0\nsamples = 1\nvalue = [0, 1]"] ;
68 -> 84 ;
85 [label="gini = 0.0\nsamples = 1\nvalue = [0, 2]"] ;
67 -> 85 ;
86 [label="gini = 0.0\nsamples = 1\nvalue = [0, 1]"] ;
66 -> 86 ;
87 [label="gini = 0.0\nsamples = 1\nvalue = [0, 1]"] ;
65 -> 87 ;
88 [label="gini = 0.0\nsamples = 1\nvalue = [0, 1]"] ;
64 -> 88 ;
89 [label="gini = 0.0\nsamples = 1\nvalue = [1, 0]"] ;
63 -> 89 ;
90 [label="gini = 0.0\nsamples = 1\nvalue = [0, 1]"] ;
62 -> 90 ;
91 [label="gini = 0.0\nsamples = 1\nvalue = [0, 1]"] ;
61 -> 91 ;
92 [label="gini = 0.0\nsamples = 1\nvalue = [0, 1]"] ;
60 -> 92 ;
93 [label="gini = 0.0\nsamples = 1\nvalue = [1, 0]"] ;
59 -> 93 ;
94 [label="gini = 0.0\nsamples = 1\nvalue = [0, 1]"] ;
58 -> 94 ;
95 [label="gini = 0.0\nsamples = 1\nvalue = [1, 0]"] ;
57 -> 95 ;
96 [label="gini = 0.0\nsamples = 1\nvalue = [3, 0]"] ;
56 -> 96 ;
97 [label="gini = 0.0\nsamples = 1\nvalue = [1, 0]"] ;
55 -> 97 ;
98 [label="gini = 0.0\nsamples = 1\nvalue = [2, 0]"] ;
54 -> 98 ;
99 [label="gini = 0.0\nsamples = 1\nvalue = [0, 1]"] ;
53 -> 99 ;
100 [label="gini = 0.0\nsamples = 1\nvalue = [0, 1]"] ;
52 -> 100 ;
101 [label="gini = 0.0\nsamples = 1\nvalue = [0, 2]"] ;
51 -> 101 ;
102 [label="gini = 0.0\nsamples = 1\nvalue = [0, 2]"] ;
50 -> 102 ;
103 [label="gini = 0.0\nsamples = 1\nvalue = [0, 2]"] ;
49 -> 103 ;
104 [label="gini = 0.0\nsamples = 1\nvalue = [1, 0]"] ;
48 -> 104 ;
105 [label="gini = 0.0\nsamples = 1\nvalue = [1, 0]"] ;
47 -> 105 ;
106 [label="gini = 0.0\nsamples = 1\nvalue = [1, 0]"] ;
46 -> 106 ;
107 [label="gini = 0.0\nsamples = 1\nvalue = [0, 1]"] ;
45 -> 107 ;
108 [label="gini = 0.0\nsamples = 1\nvalue = [2, 0]"] ;
44 -> 108 ;
109 [label="gini = 0.0\nsamples = 1\nvalue = [2, 0]"] ;
43 -> 109 ;
110 [label="gini = 0.0\nsamples = 1\nvalue = [0, 1]"] ;
42 -> 110 ;
111 [label="gini = 0.0\nsamples = 1\nvalue = [0, 2]"] ;
41 -> 111 ;
112 [label="gini = 0.0\nsamples = 1\nvalue = [0, 1]"] ;
40 -> 112 ;
113 [label="gini = 0.0\nsamples = 1\nvalue = [0, 1]"] ;
39 -> 113 ;
114 [label="gini = 0.0\nsamples = 1\nvalue = [2, 0]"] ;
38 -> 114 ;
115 [label="gini = 0.0\nsamples = 1\nvalue = [0, 1]"] ;
37 -> 115 ;
116 [label="gini = 0.0\nsamples = 1\nvalue = [1, 0]"] ;
36 -> 116 ;
117 [label="gini = 0.0\nsamples = 3\nvalue = [4, 0]"] ;
35 -> 117 ;
118 [label="gini = 0.0\nsamples = 1\nvalue = [0, 2]"] ;
34 -> 118 ;
119 [label="gini = 0.0\nsamples = 1\nvalue = [1, 0]"] ;
33 -> 119 ;
120 [label="gini = 0.0\nsamples = 1\nvalue = [0, 2]"] ;
32 -> 120 ;
121 [label="gini = 0.0\nsamples = 3\nvalue = [3, 0]"] ;
31 -> 121 ;
122 [label="gini = 0.0\nsamples = 1\nvalue = [1, 0]"] ;
30 -> 122 ;
123 [label="gini = 0.0\nsamples = 1\nvalue = [0, 2]"] ;
29 -> 123 ;
124 [label="gini = 0.0\nsamples = 1\nvalue = [0, 1]"] ;
28 -> 124 ;
125 [label="gini = 0.0\nsamples = 1\nvalue = [0, 2]"] ;
27 -> 125 ;
126 [label="gini = 0.0\nsamples = 1\nvalue = [0, 2]"] ;
26 -> 126 ;
127 [label="gini = 0.0\nsamples = 1\nvalue = [0, 2]"] ;
25 -> 127 ;
128 [label="gini = 0.0\nsamples = 1\nvalue = [0, 3]"] ;
24 -> 128 ;
129 [label="gini = 0.0\nsamples = 1\nvalue = [2, 0]"] ;
23 -> 129 ;
130 [label="gini = 0.0\nsamples = 1\nvalue = [2, 0]"] ;
22 -> 130 ;
131 [label="gini = 0.0\nsamples = 1\nvalue = [2, 0]"] ;
21 -> 131 ;
132 [label="gini = 0.0\nsamples = 1\nvalue = [2, 0]"] ;
20 -> 132 ;
133 [label="gini = 0.0\nsamples = 1\nvalue = [0, 3]"] ;
19 -> 133 ;
134 [label="gini = 0.0\nsamples = 1\nvalue = [2, 0]"] ;
18 -> 134 ;
135 [label="gini = 0.0\nsamples = 1\nvalue = [0, 5]"] ;
17 -> 135 ;
136 [label="gini = 0.0\nsamples = 1\nvalue = [1, 0]"] ;
16 -> 136 ;
137 [label="gini = 0.0\nsamples = 1\nvalue = [1, 0]"] ;
15 -> 137 ;
138 [label="gini = 0.0\nsamples = 1\nvalue = [3, 0]"] ;
14 -> 138 ;
139 [label="gini = 0.0\nsamples = 1\nvalue = [2, 0]"] ;
13 -> 139 ;
140 [label="gini = 0.0\nsamples = 1\nvalue = [5, 0]"] ;
12 -> 140 ;
141 [label="gini = 0.0\nsamples = 1\nvalue = [0, 1]"] ;
11 -> 141 ;
142 [label="gini = 0.0\nsamples = 1\nvalue = [0, 1]"] ;
10 -> 142 ;
143 [label="gini = 0.0\nsamples = 2\nvalue = [4, 0]"] ;
9 -> 143 ;
144 [label="gini = 0.0\nsamples = 1\nvalue = [0, 1]"] ;
8 -> 144 ;
145 [label="gini = 0.0\nsamples = 1\nvalue = [3, 0]"] ;
7 -> 145 ;
146 [label="gini = 0.0\nsamples = 1\nvalue = [0, 1]"] ;
6 -> 146 ;
147 [label="gini = 0.0\nsamples = 2\nvalue = [0, 3]"] ;
5 -> 147 ;
148 [label="gini = 0.0\nsamples = 1\nvalue = [0, 3]"] ;
4 -> 148 ;
149 [label="gini = 0.0\nsamples = 1\nvalue = [2, 0]"] ;
3 -> 149 ;
150 [label="gini = 0.0\nsamples = 1\nvalue = [2, 0]"] ;
2 -> 150 ;
151 [label="gini = 0.0\nsamples = 2\nvalue = [0, 3]"] ;
1 -> 151 ;
152 [label="gini = 0.0\nsamples = 1\nvalue = [0, 1]"] ;
0 -> 152 [labeldistance=2.5, labelangle=-45, headlabel="False"] ;
}